{"learner":{"attributes":{"scikit_learn":"{\"_estimator_type\": \"regressor\"}"},"feature_names":[],"feature_types":[],"gradient_booster":{"model":{"gbtree_model_param":{"num_parallel_tree":"1","num_trees":"100"},"iteration_indptr":[0,1,2,3,4,5,6,7,8,9,10,11,12,13,14,15,16,17,18,19,20,21,22,23,24,25,26,27,28,29,30,31,32,33,34,35,36,37,38,39,40,41,42,43,44,45,46,47,48,49,50,51,52,53,54,55,56,57,58,59,60,61,62,63,64,65,66,67,68,69,70,71,72,73,74,75,76,77,78,79,80,81,82,83,84,85,86,87,88,89,90,91,92,93,94,95,96,97,98,99,100],"tree_info":[0,0,0,0,0,0,0,0,0,0,0,0,0,0,0,0,0,0,0,0,0,0,0,0,0,0,0,0,0,0,0,0,0,0,0,0,0,0,0,0,0,0,0,0,0,0,0,0,0,0,0,0,0,0,0,0,0,0,0,0,0,0,0,0,0,0,0,0,0,0,0,0,0,0,0,0,0,0,0,0,0,0,0,0,0,0,0,0,0,0,0,0,0,0,0,0,0,0,0,0],"trees":[{"base_weights":[-2.3278432E-8,1.19680045E-2,-2.0780852E-2,-4.5981538E-2,2.762339E-2,7.245873E-4,-1.0223261E-2,2.0299308E-2,-3.8582075E-4],"categories":[],"categories_nodes":[],"categories_segments":[],"categories_sizes":[],"default_left":[0,0,0,0,0,0,0,0,0],"id":0,"left_children":[1,3,-1,5,7,-1,-1,-1,-1],"loss_changes":[5.023857E-1,1.7454965E-1,0E0,1.2349884E-1,8.344419E-1,0E0,0E0,0E0,0E0],"parents":[2147483647,0,0,1,1,3,3,4,4],"right_children":[2,4,-1,6,8,-1,-1,-1,-1],"split_conditions":[9.429097E-1,1.8485446E-1,-2.0780852E-2,9.767211E-2,2.848405E-1,7.245873E-4,-1.0223261E-2,2.0299308E-2,-3.8582075E-4],"split_indices":[0,0,0,0,0,0,0,0,0],"split_type":[0,0,0,0,0,0,0,0,0],"sum_hessian":[2E2,1.9E2,1E1,4E1,1.5E2,2.1E1,1.9E1,2.2E1,1.28E2],"tree_param":{"num_deleted":"0","num_feature":"1","num_nodes":"9","size_leaf_vector":"1"}},{"base_weights":[-5.159553E-5,1.0825729E-2,-1.8891682E-1,-1.5274232E-2,4.4253945E-2,-1.361621E-1,-2.4719704E-2,3.2760685E-3,-1.2078437E-2,2.6154473E-2,2.719067E-3,-1.8537112E-2,1.0415045E-2],"categories":[],"categories_nodes":[],"categories_segments":[],"categories_sizes":[],"default_left":[0,0,0,0,0,0,0,0,0,0,0,0,0],"id":1,"left_children":[1,3,5,7,9,11,-1,-1,-1,-1,-1,-1,-1],"loss_changes":[4.1496918E-1,1.673187E-1,1.6126037E-4,5.513195E-1,3.043346E-1,1.1391081E-1,0E0,0E0,0E0,0E0,0E0,0E0,0E0],"parents":[2147483647,0,0,1,1,2,2,3,3,4,4,5,5],"right_children":[2,4,6,8,10,12,-1,-1,-1,-1,-1,-1,-1],"split_conditions":[9.429097E-1,5.187906E-1,9.717821E-1,3.2320294E-1,5.357747E-1,9.6990985E-1,-2.4719704E-2,3.2760685E-3,-1.2078437E-2,2.6154473E-2,2.719067E-3,-1.8537112E-2,1.0415045E-2],"split_indices":[0,0,0,0,0,0,0,0,0,0,0,0,0],"split_type":[0,0,0,0,0,0,0,0,0,0,0,0,0],"sum_hessian":[2E2,1.9E2,1E1,1.07E2,8.3E1,7E0,3E0,7.4E1,3.3E1,5E0,7.8E1,6E0,1E0],"tree_param":{"num_deleted":"0","num_feature":"1","num_nodes":"13","size_leaf_vector":"1"}},{"base_weights":[-1.0995864E-4,9.848255E-3,-1.7301075E-1,-4.481123E-2,2.4624351E-2,-1.2356116E-1,-2.2865726E-2,1.7934827E-2,-5.4898923E-3,2.1179998E-2,8.716843E-5,-1.6948216E-2,9.894292E-3],"categories":[],"categories_nodes":[],"categories_segments":[],"categories_sizes":[],"default_left":[0,0,0,0,0,0,0,0,0,0,0,0,0],"id":2,"left_children":[1,3,5,7,9,11,-1,-1,-1,-1,-1,-1,-1],"loss_changes":[3.4778222E-1,1.5536532E-1,2.0155013E-3,1.0255736E-1,6.711494E-1,9.850994E-2,0E0,0E0,0E0,0E0,0E0,0E0,0E0],"parents":[2147483647,0,0,1,1,2,2,3,3,4,4,5,5],"right_children":[2,4,6,8,10,12,-1,-1,-1,-1,-1,-1,-1],"split_conditions":[9.429097E-1,1.8485446E-1,9.717821E-1,6.9521307E-3,2.517823E-1,9.6990985E-1,-2.2865726E-2,1.7934827E-2,-5.4898923E-3,2.1179998E-2,8.716843E-5,-1.6948216E-2,9.894292E-3],"split_indices":[0,0,0,0,0,0,0,0,0,0,0,0,0],"split_type":[0,0,0,0,0,0,0,0,0,0,0,0,0],"sum_hessian":[2E2,1.9E2,1E1,4E1,1.5E2,7E0,3E0,1E0,3.9E1,1.6E1,1.34E2,6E0,1E0],"tree_param":{"num_deleted":"0","num_feature":"1","num_nodes":"13","size_leaf_vector":"1"}},{"base_weights":[-8.0081285E-5,9.039946E-3,-1.5842964E-1,-1.51908435E-2,4.00862E-2,-1.1208678E-1,-2.1150796E-2,2.760461E-3,-1.0914579E-2,1.9111266E-2,1.9414856E-3,-1.5495512E-2,9.399578E-3],"categories":[],"categories_nodes":[],"categories_segments":[],"categories_sizes":[],"default_left":[0,0,0,0,0,0,0,0,0,0,0,0,0],"id":3,"left_children":[1,3,5,7,9,11,-1,-1,-1,-1,-1,-1,-1],"loss_changes":[2.9170683E-1,1.4429352E-1,3.3505857E-3,4.372641E-1,2.5853086E-1,8.524044E-2,0E0,0E0,0E0,0E0,0E0,0E0,0E0],"parents":[2147483647,0,0,1,1,2,2,3,3,4,4,5,5],"right_children":[2,4,6,8,10,12,-1,-1,-1,-1,-1,-1,-1],"split_conditions":[9.429097E-1,5.187906E-1,9.717821E-1,3.2320294E-1,5.552008E-1,9.6990985E-1,-2.1150796E-2,2.760461E-3,-1.0914579E-2,1.9111266E-2,1.9414856E-3,-1.5495512E-2,9.399578E-3],"split_indices":[0,0,0,0,0,0,0,0,0,0,0,0,0],"split_type":[0,0,0,0,0,0,0,0,0,0,0,0,0],"sum_hessian":[2E2,1.9E2,1E1,1.07E2,8.3E1,7E0,3E0,7.4E1,3.3E1,9E0,7.4E1,6E0,1E0],"tree_param":{"num_deleted":"0","num_feature":"1","num_nodes":"13","size_leaf_vector":"1"}},{"base_weights":[-1.4346898E-4,8.203471E-3,-1.4506365E-1,-4.2719718E-2,2.197597E-2,-1.016401E-1,-1.9564486E-1,4.967651E-4,-9.303983E-3,1.6304566E-2,-3.3463456E-4,-1.4167326E-2,8.929598E-3,-2.2043776E-2,-6.063311E-3],"categories":[],"categories_nodes":[],"categories_segments":[],"categories_sizes":[],"default_left":[0,0,0,0,0,0,0,0,0,0,0,0,0,0,0],"id":4,"left_children":[1,3,5,7,9,11,13,-1,-1,-1,-1,-1,-1,-1,-1],"loss_changes":[2.4432768E-1,1.3489467E-1,4.2752028E-3,9.884718E-2,5.399494E-1,7.380104E-2,2.3514032E-5,0E0,0E0,0E0,0E0,0E0,0E0,0E0,0E0],"parents":[2147483647,0,0,1,1,2,2,3,3,4,4,5,5,6,6],"right_children":[2,4,6,8,10,12,14,-1,-1,-1,-1,-1,-1,-1,-1],"split_conditions":[9.429097E-1,1.8485446E-1,9.717821E-1,9.767211E-2,2.848405E-1,9.6990985E-1,9.868869E-1,4.967651E-4,-9.303983E-3,1.6304566E-2,-3.3463456E-4,-1.4167326E-2,8.929598E-3,-2.2043776E-2,-6.063311E-3],"split_indices":[0,0,0,0,0,0,0,0,0,0,0,0,0,0,0],"split_type":[0,0,0,0,0,0,0,0,0,0,0,0,0,0,0],"sum_hessian":[2E2,1.9E2,1E1,4E1,1.5E2,7E0,3E0,2.1E1,1.9E1,2.2E1,1.28E2,6E0,1E0,2E0,1E0],"tree_param":{"num_deleted":"0","num_feature":"1","num_nodes":"15","size_leaf_vector":"1"}},{"base_weights":[-2.5938643E-4,7.4206195E-3,-1.3358864E-1,4.0663383E-3,2.162668E-2,-9.2130795E-2,-1.8310716E-2,6.657391E-4,-2.4152583E-2,-1.2952982E-2,8.483118E-3],"categories":[],"categories_nodes":[],"categories_segments":[],"categories_sizes":[],"default_left":[0,0,0,0,0,0,0,0,0,0,0],"id":5,"left_children":[1,3,5,7,-1,9,-1,-1,-1,-1,-1],"loss_changes":[2.0680916E-1,1.3292158E-1,5.7124346E-3,1.21876635E-1,0E0,6.39338E-2,0E0,0E0,0E0,0E0,0E0],"parents":[2147483647,0,0,1,1,2,2,3,3,5,5],"right_children":[2,4,6,8,-1,10,-1,-1,-1,-1,-1],"split_conditions":[9.429097E-1,9.3672997E-1,9.717821E-1,9.2969763E-1,2.162668E-2,9.6990985E-1,-1.8310716E-2,6.657391E-4,-2.4152583E-2,-1.2952982E-2,8.483118E-3],"split_indices":[0,0,0,0,0,0,0,0,0,0,0],"split_type":[0,0,0,0,0,0,0,0,0,0,0],"sum_hessian":[2E2,1.9E2,1E1,1.88E2,2E0,7E0,3E0,1.87E2,1E0,6E0,1E0],"tree_param":{"num_deleted":"0","num_feature":"1","num_nodes":"11","size_leaf_vector":"1"}},{"base_weights":[-3.5602425E-4,6.668833E-3,-1.2230073E-1,-1.604848E-2,3.5797417E-2,-8.347645E-2,-1.6937411E-1,2.171289E-3,-9.887361E-3,2.2347476E-2,2.109031E-3,-1.1842727E-2,8.058962E-3,-1.9353475E-2,-4.844609E-3],"categories":[],"categories_nodes":[],"categories_segments":[],"categories_sizes":[],"default_left":[0,0,0,0,0,0,0,0,0,0,0,0,0,0,0],"id":6,"left_children":[1,3,5,7,9,11,13,-1,-1,-1,-1,-1,-1,-1,-1],"loss_changes":[1.7300108E-1,1.2696362E-1,5.964741E-3,3.399266E-1,2.2714289E-1,5.5417947E-2,2.3107901E-3,0E0,0E0,0E0,0E0,0E0,0E0,0E0,0E0],"parents":[2147483647,0,0,1,1,2,2,3,3,4,4,5,5,6,6],"right_children":[2,4,6,8,10,12,14,-1,-1,-1,-1,-1,-1,-1,-1],"split_conditions":[9.429097E-1,5.187906E-1,9.717821E-1,3.2320294E-1,5.357747E-1,9.6990985E-1,9.868869E-1,2.171289E-3,-9.887361E-3,2.2347476E-2,2.109031E-3,-1.1842727E-2,8.058962E-3,-1.9353475E-2,-4.844609E-3],"split_indices":[0,0,0,0,0,0,0,0,0,0,0,0,0,0,0],"split_type":[0,0,0,0,0,0,0,0,0,0,0,0,0,0,0],"sum_hessian":[2E2,1.9E2,1E1,1.07E2,8.3E1,7E0,3E0,7.4E1,3.3E1,5E0,7.8E1,6E0,1E0,2E0,1E0],"tree_param":{"num_deleted":"0","num_feature":"1","num_nodes":"15","size_leaf_vector":"1"}},{"base_weights":[-3.7635086E-4,6.089594E-3,-1.1261446E-1,-4.143035E-2,1.8952033E-2,-7.560177E-2,-1.5848622E-1,1.6733376E-2,-5.0832797E-3,1.7125221E-2,-3.6689387E-5,-1.0827635E-2,7.656014E-3,-1.8063243E-2,-4.6023787E-3],"categories":[],"categories_nodes":[],"categories_segments":[],"categories_sizes":[],"default_left":[0,0,0,0,0,0,0,0,0,0,0,0,0,0,0],"id":7,"left_children":[1,3,5,7,9,11,13,-1,-1,-1,-1,-1,-1,-1,-1],"loss_changes":[1.4655659E-1,1.17528655E-1,6.6943616E-3,8.8984676E-2,4.4434652E-1,4.806426E-2,1.6490817E-3,0E0,0E0,0E0,0E0,0E0,0E0,0E0,0E0],"parents":[2147483647,0,0,1,1,2,2,3,3,4,4,5,5,6,6],"right_children":[2,4,6,8,10,12,14,-1,-1,-1,-1,-1,-1,-1,-1],"split_conditions":[9.429097E-1,1.8485446E-1,9.717821E-1,6.9521307E-3,2.517823E-1,9.6990985E-1,9.868869E-1,1.6733376E-2,-5.0832797E-3,1.7125221E-2,-3.6689387E-5,-1.0827635E-2,7.656014E-3,-1.8063243E-2,-4.6023787E-3],"split_indices":[0,0,0,0,0,0,0,0,0,0,0,0,0,0,0],"split_type":[0,0,0,0,0,0,0,0,0,0,0,0,0,0,0],"sum_hessian":[2E2,1.9E2,1E1,4E1,1.5E2,7E0,3E0,1E0,3.9E1,1.6E1,1.34E2,6E0,1E0,2E0,1E0],"tree_param":{"num_deleted":"0","num_feature":"1","num_nodes":"15","size_leaf_vector":"1"}},{"base_weights":[-3.242707E-4,5.63111E-3,-1.0370185E-1,2.5086752E-3,2.0046746E-2,-6.843805E-2,-1.48304E-1,4.973995E-4,-2.304857E-2,-9.899552E-3,7.273212E-3,-1.6859027E-2,-4.37226E-3],"categories":[],"categories_nodes":[],"categories_segments":[],"categories_sizes":[],"default_left":[0,0,0,0,0,0,0,0,0,0,0,0,0],"id":8,"left_children":[1,3,5,7,-1,9,11,-1,-1,-1,-1,-1,-1],"loss_changes":[1.24330185E-1,1.1569459E-1,7.151611E-3,1.0970909E-1,0E0,4.171058E-2,1.1150539E-3,0E0,0E0,0E0,0E0,0E0,0E0],"parents":[2147483647,0,0,1,1,2,2,3,3,5,5,6,6],"right_children":[2,4,6,8,-1,10,12,-1,-1,-1,-1,-1,-1],"split_conditions":[9.429097E-1,9.3672997E-1,9.717821E-1,9.2969763E-1,2.0046746E-2,9.6990985E-1,9.868869E-1,4.973995E-4,-2.304857E-2,-9.899552E-3,7.273212E-3,-1.6859027E-2,-4.37226E-3],"split_indices":[0,0,0,0,0,0,0,0,0,0,0,0,0],"split_type":[0,0,0,0,0,0,0,0,0,0,0,0,0],"sum_hessian":[2E2,1.9E2,1E1,1.88E2,2E0,7E0,3E0,1.87E2,1E0,6E0,1E0,2E0,1E0],"tree_param":{"num_deleted":"0","num_feature":"1","num_nodes":"13","size_leaf_vector":"1"}},{"base_weights":[-4.2299926E-4,8.570994E-3,-6.128915E-2,1.1044441E-3,2.1993918E-2,-1.9375334E-2,-3.5587154E-2,-6.5325038E-3,9.3466387E-4,1.7846258E-3,-9.550055E-3],"categories":[],"categories_nodes":[],"categories_segments":[],"categories_sizes":[],"default_left":[0,0,0,0,0,0,0,0,0,0,0],"id":9,"left_children":[1,3,5,7,-1,-1,9,-1,-1,-1,-1],"loss_changes":[1.10558696E-1,2.7751875E-1,8.16243E-2,9.42373E-2,0E0,0E0,7.533599E-2,0E0,0E0,0E0,0E0],"parents":[2147483647,0,0,1,1,2,2,3,3,6,6],"right_children":[2,4,6,8,-1,-1,10,-1,-1,-1,-1],"split_conditions":[8.8721275E-1,8.6310345E-1,8.960913E-1,8.8492505E-2,2.1993918E-2,-1.9375334E-2,9.429097E-1,-6.5325038E-3,9.3466387E-4,1.7846258E-3,-9.550055E-3],"split_indices":[0,0,0,0,0,0,0,0,0,0,0],"split_type":[0,0,0,0,0,0,0,0,0,0,0],"sum_hessian":[2E2,1.75E2,2.5E1,1.7E2,5E0,3E0,2.2E1,1.8E1,1.52E2,1.2E1,1E1],"tree_param":{"num_deleted":"0","num_feature":"1","num_nodes":"11","size_leaf_vector":"1"}},{"base_weights":[-4.3415424E-4,7.8070555E-3,-5.6204107E-2,-6.4833723E-3,1.0315135E-1,-1.7922183E-2,-3.2366063E-2,2.6186523E-3,-3.063764E-3,6.460087E-3,2.016109E-2,1.6198915E-3,-8.681867E-3],"categories":[],"categories_nodes":[],"categories_segments":[],"categories_sizes":[],"default_left":[0,0,0,0,0,0,0,0,0,0,0,0,0],"id":10,"left_children":[1,3,5,7,9,-1,11,-1,-1,-1,-1,-1,-1],"loss_changes":[9.282077E-2,2.4047068E-1,7.044435E-2,1.2232637E-1,7.4276015E-2,0E0,6.2229633E-2,0E0,0E0,0E0,0E0,0E0,0E0],"parents":[2147483647,0,0,1,1,2,2,3,3,4,4,6,6],"right_children":[2,4,6,8,10,-1,12,-1,-1,-1,-1,-1,-1],"split_conditions":[8.8721275E-1,7.7127033E-1,8.960913E-1,2.9214466E-1,8.6310345E-1,-1.7922183E-2,9.429097E-1,2.6186523E-3,-3.063764E-3,6.460087E-3,2.016109E-2,1.6198915E-3,-8.681867E-3],"split_indices":[0,0,0,0,0,0,0,0,0,0,0,0,0],"split_type":[0,0,0,0,0,0,0,0,0,0,0,0,0],"sum_hessian":[2E2,1.75E2,2.5E1,1.53E2,2.2E1,3E0,2.2E1,6.5E1,8.8E1,1.7E1,5E0,1.2E1,1E1],"tree_param":{"num_deleted":"0","num_feature":"1","num_nodes":"13","size_leaf_vector":"1"}},{"base_weights":[-3.8481582E-4,-6.161721E-2,5.9747486E-3,1.606753E-2,-8.28932E-2,3.3607047E-2,-1.3939047E-3,-3.7815594E-3,-1.3451326E-2,-2.679999E-2,4.638965E-4],"categories":[],"categories_nodes":[],"categories_segments":[],"categories_sizes":[],"default_left":[0,0,0,0,0,0,0,0,0,0,0],"id":11,"left_children":[1,3,5,-1,7,-1,9,-1,-1,-1,-1],"loss_changes":[7.863983E-2,1.0317925E-1,4.455905E-1,0E0,3.6797658E-2,0E0,2.907551E-1,0E0,0E0,0E0,0E0],"parents":[2147483647,0,0,1,1,2,2,4,4,6,6],"right_children":[2,4,6,-1,8,-1,10,-1,-1,-1,-1],"split_conditions":[8.8492505E-2,6.9521307E-3,9.767211E-2,1.606753E-2,5.147875E-2,3.3607047E-2,1.1347352E-1,-3.7815594E-3,-1.3451326E-2,-2.679999E-2,4.638965E-4],"split_indices":[0,0,0,0,0,0,0,0,0,0,0],"split_type":[0,0,0,0,0,0,0,0,0,0,0],"sum_hessian":[2E2,1.8E1,1.82E2,1E0,1.7E1,3E0,1.79E2,1E1,7E0,3E0,1.76E2],"tree_param":{"num_deleted":"0","num_feature":"1","num_nodes":"11","size_leaf_vector":"1"}},{"base_weights":[-3.1596379E-4,7.319596E-3,-5.1990677E-2,-5.6064916E-3,9.354994E-2,-1.6612811E-2,-2.9880226E-2,2.4766116E-3,-2.8067005E-3,5.806157E-3,1.844234E-2,1.4275425E-3,-7.934779E-3],"categories":[],"categories_nodes":[],"categories_segments":[],"categories_sizes":[],"default_left":[0,0,0,0,0,0,0,0,0,0,0,0,0],"id":12,"left_children":[1,3,5,7,9,-1,11,-1,-1,-1,-1,-1,-1],"loss_changes":[7.968819E-2,1.9669779E-1,6.0650453E-2,1.0575149E-1,6.346597E-2,0E0,5.137099E-2,0E0,0E0,0E0,0E0,0E0,0E0],"parents":[2147483647,0,0,1,1,2,2,3,3,4,4,6,6],"right_children":[2,4,6,8,10,-1,12,-1,-1,-1,-1,-1,-1],"split_conditions":[8.8721275E-1,7.7127033E-1,8.960913E-1,2.9214466E-1,8.6310345E-1,-1.6612811E-2,9.429097E-1,2.4766116E-3,-2.8067005E-3,5.806157E-3,1.844234E-2,1.4275425E-3,-7.934779E-3],"split_indices":[0,0,0,0,0,0,0,0,0,0,0,0,0],"split_type":[0,0,0,0,0,0,0,0,0,0,0,0,0],"sum_hessian":[2E2,1.75E2,2.5E1,1.53E2,2.2E1,3E0,2.2E1,6.5E1,8.8E1,1.7E1,5E0,1.2E1,1E1],"tree_param":{"num_deleted":"0","num_feature":"1","num_nodes":"13","size_leaf_vector":"1"}},{"base_weights":[-2.8039032E-4,-3.7945133E-2,9.312994E-3,6.210563E-3,-8.461914E-2,1.4855431E-1,-7.0760786E-3,-5.786307E-3,3.090077E-2,-2.4975738E-2,-4.078549E-3,7.1958895E-3,2.257293E-2,-5.143061E-3,1.7535746E-3],"categories":[],"categories_nodes":[],"categories_segments":[],"categories_sizes":[],"default_left":[0,0,0,0,0,0,0,0,0,0,0,0,0,0,0],"id":13,"left_children":[1,3,5,7,9,11,13,-1,-1,-1,-1,-1,-1,-1,-1],"loss_changes":[7.298118E-2,8.502339E-2,3.6845902E-1,4.4470903E-1,1.3458575E-1,8.424801E-2,1.5919052E-1,0E0,0E0,0E0,0E0,0E0,0E0,0E0,0E0],"parents":[2147483647,0,0,1,1,2,2,3,3,4,4,5,5,6,6],"right_children":[2,4,6,8,10,12,14,-1,-1,-1,-1,-1,-1,-1,-1],"split_conditions":[1.8485446E-1,9.767211E-2,2.517823E-1,8.8492505E-2,1.1347352E-1,2.2793517E-1,5.187906E-1,-5.786307E-3,3.090077E-2,-2.4975738E-2,-4.078549E-3,7.1958895E-3,2.257293E-2,-5.143061E-3,1.7535746E-3],"split_indices":[0,0,0,0,0,0,0,0,0,0,0,0,0,0,0],"split_type":[0,0,0,0,0,0,0,0,0,0,0,0,0,0,0],"sum_hessian":[2E2,4E1,1.6E2,2.1E1,1.9E1,1.6E1,1.44E2,1.8E1,3E0,3E0,1.6E1,9E0,7E0,5.1E1,9.3E1],"tree_param":{"num_deleted":"0","num_feature":"1","num_nodes":"15","size_leaf_vector":"1"}},{"base_weights":[-1.4071449E-4,7.1321446E-3,-4.9366962E-2,9.707763E-4,1.5574649E-1,-1.549837E-2,-2.8852446E-2,4.7622816E-4,-1.0345741E-2,4.233226E-3,1.6759349E-2,1.1339025E-3,-7.372851E-3],"categories":[],"categories_nodes":[],"categories_segments":[],"categories_sizes":[],"default_left":[0,0,0,0,0,0,0,0,0,0,0,0,0],"id":14,"left_children":[1,3,5,7,9,-1,11,-1,-1,-1,-1,-1,-1],"loss_changes":[7.231322E-2,1.6100633E-1,5.1861927E-2,6.78025E-2,2.3106933E-3,0E0,4.231961E-2,0E0,0E0,0E0,0E0,0E0,0E0],"parents":[2147483647,0,0,1,1,2,2,3,3,4,4,6,6],"right_children":[2,4,6,8,10,-1,12,-1,-1,-1,-1,-1,-1],"split_conditions":[8.8721275E-1,8.607306E-1,8.960913E-1,8.172222E-1,8.6310345E-1,-1.549837E-2,9.429097E-1,4.7622816E-4,-1.0345741E-2,4.233226E-3,1.6759349E-2,1.1339025E-3,-7.372851E-3],"split_indices":[0,0,0,0,0,0,0,0,0,0,0,0,0],"split_type":[0,0,0,0,0,0,0,0,0,0,0,0,0],"sum_hessian":[2E2,1.75E2,2.5E1,1.69E2,6E0,3E0,2.2E1,1.64E2,5E0,1E0,5E0,1.2E1,1E1],"tree_param":{"num_deleted":"0","num_feature":"1","num_nodes":"13","size_leaf_vector":"1"}},{"base_weights":[-1.7946077E-4,-3.5885103E-2,8.364708E-3,-1.4192009E-2,-1.528318E-1,1.0061771E-1,-1.0690061E-2,-4.1247373E-3,1.189409E-2,-1.9138228E-2,-5.048722E-3,3.9168317E-3,1.2766383E-2,-1.3816021E-2,7.457295E-4],"categories":[],"categories_nodes":[],"categories_segments":[],"categories_sizes":[],"default_left":[0,0,0,0,0,0,0,0,0,0,0,0,0,0,0],"id":15,"left_children":[1,3,5,7,9,11,13,-1,-1,-1,-1,-1,-1,-1,-1],"loss_changes":[6.1620258E-2,9.677151E-2,2.8760672E-1,1.273726E-1,1.4010221E-2,4.153472E-2,3.1563178E-1,0E0,0E0,0E0,0E0,0E0,0E0,0E0,0E0],"parents":[2147483647,0,0,1,1,2,2,3,3,4,4,5,5,6,6],"right_children":[2,4,6,8,10,12,14,-1,-1,-1,-1,-1,-1,-1,-1],"split_conditions":[1.8182497E-1,1.5599452E-1,2.9214466E-1,1.2203824E-1,1.7052412E-1,2.2210781E-1,3.4920958E-1,-4.1247373E-3,1.189409E-2,-1.9138228E-2,-5.048722E-3,3.9168317E-3,1.2766383E-2,-1.3816021E-2,7.457295E-4],"split_indices":[0,0,0,0,0,0,0,0,0,0,0,0,0,0,0],"split_type":[0,0,0,0,0,0,0,0,0,0,0,0,0,0,0],"sum_hessian":[2E2,3.8E1,1.62E2,3.3E1,5E0,2.7E1,1.35E2,2.8E1,5E0,3E0,2E0,9E0,1.8E1,1.6E1,1.19E2],"tree_param":{"num_deleted":"0","num_feature":"1","num_nodes":"15","size_leaf_vector":"1"}},{"base_weights":[-2.2521481E-4,6.535792E-3,-4.5983367E-2,-4.635773E-3,8.105254E-2,-1.4391923E-2,-2.695177E-2,3.6983928E-4,-6.781049E-3,5.2565155E-3,1.5300594E-2,-7.824702E-4,-1.1584916E-2],"categories":[],"categories_nodes":[],"categories_segments":[],"categories_sizes":[],"default_left":[0,0,0,0,0,0,0,0,0,0,0,0,0],"id":16,"left_children":[1,3,5,7,9,-1,11,-1,-1,-1,-1,-1,-1],"loss_changes":[6.2484145E-2,1.4689024E-1,4.4581898E-2,8.1333116E-2,3.9101794E-2,0E0,3.820148E-2,0E0,0E0,0E0,0E0,0E0,0E0],"parents":[2147483647,0,0,1,1,2,2,3,3,4,4,6,6],"right_children":[2,4,6,8,10,-1,12,-1,-1,-1,-1,-1,-1],"split_conditions":[8.8721275E-1,7.7127033E-1,8.960913E-1,6.7213553E-1,8.6310345E-1,-1.4391923E-2,9.717821E-1,3.6983928E-4,-6.781049E-3,5.2565155E-3,1.5300594E-2,-7.824702E-4,-1.1584916E-2],"split_indices":[0,0,0,0,0,0,0,0,0,0,0,0,0],"split_type":[0,0,0,0,0,0,0,0,0,0,0,0,0],"sum_hessian":[2E2,1.75E2,2.5E1,1.53E2,2.2E1,3E0,2.2E1,1.36E2,1.7E1,1.7E1,5E0,1.9E1,3E0],"tree_param":{"num_deleted":"0","num_feature":"1","num_nodes":"13","size_leaf_vector":"1"}},{"base_weights":[-2.654527E-4,-5.8110494E-2,4.3759434E-3,-8.171485E-3,-2.5514273E-2,1.3607405E-1,-1.5016167E-3,1.5593571E-2,-3.4841727E-3,-1.2914402E-3,2.882911E-2,-1.6349649E-2,5.9981557E-4],"categories":[],"categories_nodes":[],"categories_segments":[],"categories_sizes":[],"default_left":[0,0,0,0,0,0,0,0,0,0,0,0,0],"id":17,"left_children":[1,3,5,7,-1,9,11,-1,-1,-1,-1,-1,-1],"loss_changes":[5.4219123E-2,1.4550902E-1,1.4495422E-1,6.2331185E-2,0E0,1.8515177E-1,2.196671E-1,0E0,0E0,0E0,0E0,0E0,0E0],"parents":[2147483647,0,0,1,1,2,2,3,3,5,5,6,6],"right_children":[2,4,6,8,-1,10,12,-1,-1,-1,-1,-1,-1],"split_conditions":[6.505159E-2,5.8083612E-2,9.767211E-2,6.9521307E-3,-2.5514273E-2,8.8492505E-2,1.2203824E-1,1.5593571E-2,-3.4841727E-3,-1.2914402E-3,2.882911E-2,-1.6349649E-2,5.9981557E-4],"split_indices":[0,0,0,0,0,0,0,0,0,0,0,0,0],"split_type":[0,0,0,0,0,0,0,0,0,0,0,0,0],"sum_hessian":[2E2,1.4E1,1.86E2,1.2E1,2E0,7E0,1.79E2,1E0,1.1E1,4E0,3E0,7E0,1.72E2],"tree_param":{"num_deleted":"0","num_feature":"1","num_nodes":"13","size_leaf_vector":"1"}},{"base_weights":[-2.4694056E-4,6.0689203E-3,-4.2990964E-2,-4.0066163E-3,7.326734E-2,-1.3357513E-2,-2.5368022E-2,2.1494027E-4,-7.703196E-3,1.1456764E-2,2.5861426E-3,-7.65116E-4,-1.0761033E-2],"categories":[],"categories_nodes":[],"categories_segments":[],"categories_sizes":[],"default_left":[0,0,0,0,0,0,0,0,0,0,0,0,0],"id":18,"left_children":[1,3,5,7,9,-1,11,-1,-1,-1,-1,-1,-1],"loss_changes":[5.4523937E-2,1.1945614E-1,3.81168E-2,6.9395564E-2,4.206834E-2,0E0,3.2689396E-2,0E0,0E0,0E0,0E0,0E0,0E0],"parents":[2147483647,0,0,1,1,2,2,3,3,4,4,6,6],"right_children":[2,4,6,8,10,-1,12,-1,-1,-1,-1,-1,-1],"split_conditions":[8.8721275E-1,7.7127033E-1,8.960913E-1,7.080726E-1,8.172222E-1,-1.3357513E-2,9.717821E-1,2.1494027E-4,-7.703196E-3,1.1456764E-2,2.5861426E-3,-7.65116E-4,-1.0761033E-2],"split_indices":[0,0,0,0,0,0,0,0,0,0,0,0,0],"split_type":[0,0,0,0,0,0,0,0,0,0,0,0,0],"sum_hessian":[2E2,1.75E2,2.5E1,1.53E2,2.2E1,3E0,2.2E1,1.42E2,1.1E1,1.1E1,1.1E1,1.9E1,3E0],"tree_param":{"num_deleted":"0","num_feature":"1","num_nodes":"13","size_leaf_vector":"1"}},{"base_weights":[-3.134306E-4,5.4992745E-3,-3.9648917E-2,4.177999E-4,1.281209E-1,-1.2355699E-2,-2.3332343E-2,4.1574702E-4,-1.0249277E-2,3.5621554E-3,1.3760053E-2,9.748838E-3,-3.3255485E-3],"categories":[],"categories_nodes":[],"categories_segments":[],"categories_sizes":[],"default_left":[0,0,0,0,0,0,0,0,0,0,0,0,0],"id":19,"left_children":[1,3,5,7,9,-1,11,-1,-1,-1,-1,-1,-1],"loss_changes":[4.6175797E-2,1.0961183E-1,3.271353E-2,6.5850876E-2,1.2364686E-3,0E0,3.0817203E-2,0E0,0E0,0E0,0E0,0E0,0E0],"parents":[2147483647,0,0,1,1,2,2,3,3,4,4,6,6],"right_children":[2,4,6,8,10,-1,12,-1,-1,-1,-1,-1,-1],"split_conditions":[8.8721275E-1,8.607306E-1,8.960913E-1,8.172222E-1,8.6310345E-1,-1.2355699E-2,8.971103E-1,4.1574702E-4,-1.0249277E-2,3.5621554E-3,1.3760053E-2,9.748838E-3,-3.3255485E-3],"split_indices":[0,0,0,0,0,0,0,0,0,0,0,0,0],"split_type":[0,0,0,0,0,0,0,0,0,0,0,0,0],"sum_hessian":[2E2,1.75E2,2.5E1,1.69E2,6E0,3E0,2.2E1,1.64E2,5E0,1E0,5E0,1E0,2.1E1],"tree_param":{"num_deleted":"0","num_feature":"1","num_nodes":"13","size_leaf_vector":"1"}},{"base_weights":[-2.7434254E-4,-3.0434057E-2,7.4077854E-3,8.915004E-3,-7.219632E-2,1.2512408E-1,-6.444524E-3,-4.5718686E-3,2.6619628E-2,-2.1677736E-2,-3.3930414E-3,5.831861E-3,1.9299043E-2,-4.6754447E-3,1.5923139E-3],"categories":[],"categories_nodes":[],"categories_segments":[],"categories_sizes":[],"default_left":[0,0,0,0,0,0,0,0,0,0,0,0,0,0,0],"id":20,"left_children":[1,3,5,7,9,11,13,-1,-1,-1,-1,-1,-1,-1,-1],"loss_changes":[4.6795297E-2,6.8019174E-2,2.6333982E-1,3.214071E-1,1.0329514E-1,6.5820396E-2,1.314821E-1,0E0,0E0,0E0,0E0,0E0,0E0,0E0,0E0],"parents":[2147483647,0,0,1,1,2,2,3,3,4,4,5,5,6,6],"right_children":[2,4,6,8,10,12,14,-1,-1,-1,-1,-1,-1,-1,-1],"split_conditions":[1.8485446E-1,9.767211E-2,2.517823E-1,8.8492505E-2,1.1347352E-1,2.2793517E-1,5.187906E-1,-4.5718686E-3,2.6619628E-2,-2.1677736E-2,-3.3930414E-3,5.831861E-3,1.9299043E-2,-4.6754447E-3,1.5923139E-3],"split_indices":[0,0,0,0,0,0,0,0,0,0,0,0,0,0,0],"split_type":[0,0,0,0,0,0,0,0,0,0,0,0,0,0,0],"sum_hessian":[2E2,4E1,1.6E2,2.1E1,1.9E1,1.6E1,1.44E2,1.8E1,3E0,3E0,1.6E1,9E0,7E0,5.1E1,9.3E1],"tree_param":{"num_deleted":"0","num_feature":"1","num_nodes":"15","size_leaf_vector":"1"}},{"base_weights":[-1.5226318E-4,1.501095E-2,-1.6541195E-3,-1.2538305E-1,2.1614074E-3,-6.425896E-3,-2.1550177E-2,1.88448E-2,-7.454381E-5],"categories":[],"categories_nodes":[],"categories_segments":[],"categories_sizes":[],"default_left":[0,0,0,0,0,0,0,0,0],"id":21,"left_children":[1,-1,3,5,7,-1,-1,-1,-1],"loss_changes":[4.5608286E-2,0E0,9.468921E-2,1.9202627E-2,1.0573421E-1,0E0,0E0,0E0,0E0],"parents":[2147483647,0,0,2,2,3,3,4,4],"right_children":[2,-1,4,6,8,-1,-1,-1,-1],"split_conditions":[6.9521307E-3,1.501095E-2,3.438852E-2,3.1429186E-2,4.0775143E-2,-6.425896E-3,-2.1550177E-2,1.88448E-2,-7.454381E-5],"split_indices":[0,0,0,0,0,0,0,0,0],"split_type":[0,0,0,0,0,0,0,0,0],"sum_hessian":[2E2,1E0,1.99E2,5E0,1.94E2,4E0,1E0,2E0,1.92E2],"tree_param":{"num_deleted":"0","num_feature":"1","num_nodes":"9","size_leaf_vector":"1"}},{"base_weights":[-1.0814937E-4,5.3972933E-3,-3.7371602E-2,-1.5427232E-3,7.998966E-2,-1.1542856E-2,-2.217163E-2,1.9257322E-3,-1.5679427E-3,2.3894167E-2,2.033985E-3,1.1141873E-3,-5.952653E-3],"categories":[],"categories_nodes":[],"categories_segments":[],"categories_sizes":[],"default_left":[0,0,0,0,0,0,0,0,0,0,0,0,0],"id":22,"left_children":[1,3,5,7,9,-1,11,-1,-1,-1,-1,-1,-1],"loss_changes":[4.143722E-2,9.123371E-2,2.8288815E-2,4.793708E-2,1.373618E-1,0E0,2.9284956E-2,0E0,0E0,0E0,0E0,0E0,0E0],"parents":[2147483647,0,0,1,1,2,2,3,3,4,4,6,6],"right_children":[2,4,6,8,10,-1,12,-1,-1,-1,-1,-1,-1],"split_conditions":[8.8721275E-1,8.0812037E-1,8.960913E-1,2.9214466E-1,8.172222E-1,-1.1542856E-2,9.429097E-1,1.9257322E-3,-1.5679427E-3,2.3894167E-2,2.033985E-3,1.1141873E-3,-5.952653E-3],"split_indices":[0,0,0,0,0,0,0,0,0,0,0,0,0],"split_type":[0,0,0,0,0,0,0,0,0,0,0,0,0],"sum_hessian":[2E2,1.75E2,2.5E1,1.61E2,1.4E1,3E0,2.2E1,6.5E1,9.6E1,3E0,1.1E1,1.2E1,1E1],"tree_param":{"num_deleted":"0","num_feature":"1","num_nodes":"13","size_leaf_vector":"1"}},{"base_weights":[-4.8056023E-5,-2.941782E-2,7.431499E-3,-9.551851E-3,-1.1017096E-1,9.759039E-2,-7.5403415E-3,-3.37464E-3,1.0898044E-2,-1.7707247E-2,-3.4615565E-3,7.213007E-3,2.0049436E-2,-9.724113E-3,7.4726273E-4],"categories":[],"categories_nodes":[],"categories_segments":[],"categories_sizes":[],"default_left":[0,0,0,0,0,0,0,0,0,0,0,0,0,0,0],"id":23,"left_children":[1,3,5,7,9,11,13,-1,-1,-1,-1,-1,-1,-1,-1],"loss_changes":[4.4372845E-2,6.472147E-2,2.180608E-1,1.0118411E-1,3.43087E-2,4.5797586E-2,1.879145E-1,0E0,0E0,0E0,0E0,0E0,0E0,0E0,0E0],"parents":[2147483647,0,0,1,1,2,2,3,3,4,4,5,5,6,6],"right_children":[2,4,6,8,10,12,14,-1,-1,-1,-1,-1,-1,-1,-1],"split_conditions":[1.8485446E-1,1.5599452E-1,2.848405E-1,1.2203824E-1,1.7052412E-1,2.7134904E-1,3.4920958E-1,-3.37464E-3,1.0898044E-2,-1.7707247E-2,-3.4615565E-3,7.213007E-3,2.0049436E-2,-9.724113E-3,7.4726273E-4],"split_indices":[0,0,0,0,0,0,0,0,0,0,0,0,0,0,0],"split_type":[0,0,0,0,0,0,0,0,0,0,0,0,0,0,0],"sum_hessian":[2E2,4E1,1.6E2,3.3E1,7E0,2.2E1,1.38E2,2.8E1,5E0,3E0,4E0,1.9E1,3E0,1.9E1,1.19E2],"tree_param":{"num_deleted":"0","num_feature":"1","num_nodes":"15","size_leaf_vector":"1"}},{"base_weights":[-2.0164533E-5,1.4332849E-2,-1.4535502E-3,-1.7059967E-1,1.116611E-3,-2.760519E-3,-2.2829432E-2,6.535534E-4,-3.4983016E-3],"categories":[],"categories_nodes":[],"categories_segments":[],"categories_sizes":[],"default_left":[0,0,0,0,0,0,0,0,0],"id":24,"left_children":[1,-1,3,5,7,-1,-1,-1,-1],"loss_changes":[4.1508593E-2,0E0,8.713704E-2,1.8447943E-2,3.896161E-2,0E0,0E0,0E0,0E0],"parents":[2147483647,0,0,2,2,3,3,4,4],"right_children":[2,-1,4,6,8,-1,-1,-1,-1],"split_conditions":[6.9521307E-3,1.4332849E-2,2.0584494E-2,1.658783E-2,8.8721275E-1,-2.760519E-3,-2.2829432E-2,6.535534E-4,-3.4983016E-3],"split_indices":[0,0,0,0,0,0,0,0,0],"split_type":[0,0,0,0,0,0,0,0,0],"sum_hessian":[2E2,1E0,1.99E2,2E0,1.97E2,1E0,1E0,1.72E2,2.5E1],"tree_param":{"num_deleted":"0","num_feature":"1","num_nodes":"9","size_leaf_vector":"1"}},{"base_weights":[-8.8314366E-5,-1.3132324E-2,1.489936E-2,1.4275723E-2,-7.320501E-2,1.5987343E-1,-2.3316988E-3,-2.7124092E-3,6.2364773E-3,-2.4028052E-2,-2.0989857E-3,2.0325582E-2,7.5839865E-3,-2.3307148E-2,8.9523353E-4],"categories":[],"categories_nodes":[],"categories_segments":[],"categories_sizes":[],"default_left":[0,0,0,0,0,0,0,0,0,0,0,0,0,0,0],"id":25,"left_children":[1,3,5,7,9,11,13,-1,-1,-1,-1,-1,-1,-1,-1],"loss_changes":[3.949104E-2,1.7886434E-1,2.351901E-1,1.5100741E-1,2.9156822E-1,2.1040887E-2,2.2339895E-1,0E0,0E0,0E0,0E0,0E0,0E0,0E0,0E0],"parents":[2147483647,0,0,1,1,2,2,3,3,4,4,5,5,6,6],"right_children":[2,4,6,8,10,12,14,-1,-1,-1,-1,-1,-1,-1,-1],"split_conditions":[5.187906E-1,3.2320294E-1,5.552008E-1,1.8485446E-1,3.4920958E-1,5.357747E-1,5.9241456E-1,-2.7124092E-3,6.2364773E-3,-2.4028052E-2,-2.0989857E-3,2.0325582E-2,7.5839865E-3,-2.3307148E-2,8.9523353E-4],"split_indices":[0,0,0,0,0,0,0,0,0,0,0,0,0,0,0],"split_type":[0,0,0,0,0,0,0,0,0,0,0,0,0,0,0],"sum_hessian":[2E2,1.07E2,9.3E1,7.4E1,3.3E1,9E0,8.4E1,4E1,3.4E1,7E0,2.6E1,5E0,4E0,3E0,8.1E1],"tree_param":{"num_deleted":"0","num_feature":"1","num_nodes":"15","size_leaf_vector":"1"}},{"base_weights":[-1.645949E-4,1.3751829E-2,-1.5406008E-3,-1.6026141E-1,8.7204087E-4,-2.4868727E-3,-2.155234E-2,2.7793518E-4,-9.232737E-3],"categories":[],"categories_nodes":[],"categories_segments":[],"categories_sizes":[],"default_left":[0,0,0,0,0,0,0,0,0],"id":26,"left_children":[1,-1,3,5,7,-1,-1,-1,-1],"loss_changes":[3.8291804E-2,0E0,7.672704E-2,1.7086409E-2,3.545314E-2,0E0,0E0,0E0,0E0],"parents":[2147483647,0,0,2,2,3,3,4,4],"right_children":[2,-1,4,6,8,-1,-1,-1,-1],"split_conditions":[6.9521307E-3,1.3751829E-2,2.0584494E-2,1.658783E-2,9.717821E-1,-2.4868727E-3,-2.155234E-2,2.7793518E-4,-9.232737E-3],"split_indices":[0,0,0,0,0,0,0,0,0],"split_type":[0,0,0,0,0,0,0,0,0],"sum_hessian":[2E2,1E0,1.99E2,2E0,1.97E2,1E0,1E0,1.94E2,3E0],"tree_param":{"num_deleted":"0","num_feature":"1","num_nodes":"9","size_leaf_vector":"1"}},{"base_weights":[-2.4386877E-4,1.3064238E-2,-1.5515119E-3,-1.5224834E-1,7.396091E-4,-2.3625286E-3,-2.0474723E-2,5.6031253E-4,-3.1649924E-3],"categories":[],"categories_nodes":[],"categories_segments":[],"categories_sizes":[],"default_left":[0,0,0,0,0,0,0,0,0],"id":27,"left_children":[1,-1,3,5,7,-1,-1,-1,-1],"loss_changes":[3.460435E-2,0E0,6.9165535E-2,1.5420489E-2,3.136769E-2,0E0,0E0,0E0,0E0],"parents":[2147483647,0,0,2,2,3,3,4,4],"right_children":[2,-1,4,6,8,-1,-1,-1,-1],"split_conditions":[6.9521307E-3,1.3064238E-2,2.0584494E-2,1.658783E-2,8.8721275E-1,-2.3625286E-3,-2.0474723E-2,5.6031253E-4,-3.1649924E-3],"split_indices":[0,0,0,0,0,0,0,0,0],"split_type":[0,0,0,0,0,0,0,0,0],"sum_hessian":[2E2,1E0,1.99E2,2E0,1.97E2,1E0,1E0,1.72E2,2.5E1],"tree_param":{"num_deleted":"0","num_feature":"1","num_nodes":"9","size_leaf_vector":"1"}},{"base_weights":[-2.8104917E-4,-1.2649835E-2,1.3932886E-2,-1.9929851E-3,-1.6612823E-1,1.4592263E-1,-1.7592366E-3,-6.9128274E-4,2.4745554E-2,-2.331764E-2,-9.26737E-3,1.8561931E-2,6.910211E-3,-2.1621982E-2,8.723709E-4],"categories":[],"categories_nodes":[],"categories_segments":[],"categories_sizes":[],"default_left":[0,0,0,0,0,0,0,0,0,0,0,0,0,0,0],"id":28,"left_children":[1,3,5,7,9,11,13,-1,-1,-1,-1,-1,-1,-1,-1],"loss_changes":[3.5513878E-2,1.763133E-1,1.9494945E-1,1.2688984E-1,1.2865633E-2,1.76685E-2,1.929814E-1,0E0,0E0,0E0,0E0,0E0,0E0,0E0,0E0],"parents":[2147483647,0,0,1,1,2,2,3,3,4,4,5,5,6,6],"right_children":[2,4,6,8,10,12,14,-1,-1,-1,-1,-1,-1,-1,-1],"split_conditions":[5.187906E-1,4.972485E-1,5.552008E-1,4.951769E-1,5.085707E-1,5.357747E-1,5.9241456E-1,-6.9128274E-4,2.4745554E-2,-2.331764E-2,-9.26737E-3,1.8561931E-2,6.910211E-3,-2.1621982E-2,8.723709E-4],"split_indices":[0,0,0,0,0,0,0,0,0,0,0,0,0,0,0],"split_type":[0,0,0,0,0,0,0,0,0,0,0,0,0,0,0],"sum_hessian":[2E2,1.07E2,9.3E1,1.01E2,6E0,9E0,8.4E1,1E2,1E0,2E0,4E0,5E0,4E0,3E0,8.1E1],"tree_param":{"num_deleted":"0","num_feature":"1","num_nodes":"15","size_leaf_vector":"1"}},{"base_weights":[-2.7188472E-4,-4.432505E-2,3.2632458E-3,2.674676E-3,-2.3321552E-2,1.2066655E-1,-1.9728078E-3,-5.198269E-3,5.6949942E-3,-5.980045E-4,2.4880815E-2,-1.9794257E-2,2.4670333E-4],"categories":[],"categories_nodes":[],"categories_segments":[],"categories_sizes":[],"default_left":[0,0,0,0,0,0,0,0,0,0,0,0,0],"id":29,"left_children":[1,3,5,7,-1,9,11,-1,-1,-1,-1,-1,-1],"loss_changes":[3.1447116E-2,1.3379079E-1,1.1519256E-1,4.1525472E-2,0E0,1.3131744E-1,1.5710177E-1,0E0,0E0,0E0,0E0,0E0,0E0],"parents":[2147483647,0,0,1,1,2,2,3,3,5,5,6,6],"right_children":[2,4,6,8,-1,10,12,-1,-1,-1,-1,-1,-1],"split_conditions":[6.505159E-2,5.8083612E-2,9.767211E-2,3.438852E-2,-2.3321552E-2,8.8492505E-2,1.1347352E-1,-5.198269E-3,5.6949942E-3,-5.980045E-4,2.4880815E-2,-1.9794257E-2,2.4670333E-4],"split_indices":[0,0,0,0,0,0,0,0,0,0,0,0,0],"split_type":[0,0,0,0,0,0,0,0,0,0,0,0,0],"sum_hessian":[2E2,1.4E1,1.86E2,1.2E1,2E0,7E0,1.79E2,6E0,6E0,4E0,3E0,3E0,1.76E2],"tree_param":{"num_deleted":"0","num_feature":"1","num_nodes":"13","size_leaf_vector":"1"}},{"base_weights":[-3.3469455E-4,1.2705502E-2,-1.6069182E-3,-1.4070953E-1,5.08813E-4,-1.9499243E-3,-1.9156506E-2,1.9203157E-3,-8.154809E-4],"categories":[],"categories_nodes":[],"categories_segments":[],"categories_sizes":[],"default_left":[0,0,0,0,0,0,0,0,0],"id":30,"left_children":[1,-1,3,5,7,-1,-1,-1,-1],"loss_changes":[3.2779876E-2,0E0,5.8932345E-2,1.4757272E-2,3.222482E-2,0E0,0E0,0E0,0E0],"parents":[2147483647,0,0,2,2,3,3,4,4],"right_children":[2,-1,4,6,8,-1,-1,-1,-1],"split_conditions":[6.9521307E-3,1.2705502E-2,2.0584494E-2,1.658783E-2,2.9214466E-1,-1.9499243E-3,-1.9156506E-2,1.9203157E-3,-8.154809E-4],"split_indices":[0,0,0,0,0,0,0,0,0],"split_type":[0,0,0,0,0,0,0,0,0],"sum_hessian":[2E2,1E0,1.99E2,2E0,1.97E2,1E0,1E0,6.2E1,1.35E2],"tree_param":{"num_deleted":"0","num_feature":"1","num_nodes":"9","size_leaf_vector":"1"}},{"base_weights":[-3.3753947E-4,-1.2075779E-2,1.3152539E-2,-2.2392534E-3,-1.5368289E-1,1.3438945E-1,-1.2653626E-3,-6.92216E-4,2.3536716E-2,-2.1725211E-2,-8.480479E-3,1.7062496E-2,6.4028944E-3,-1.9957675E-2,8.423794E-4],"categories":[],"categories_nodes":[],"categories_segments":[],"categories_sizes":[],"default_left":[0,0,0,0,0,0,0,0,0,0,0,0,0,0,0],"id":31,"left_children":[1,3,5,7,9,11,13,-1,-1,-1,-1,-1,-1,-1,-1],"loss_changes":[3.1987134E-2,1.5009144E-1,1.6448033E-1,1.1512348E-1,1.2225673E-2,1.4570564E-2,1.6500615E-1,0E0,0E0,0E0,0E0,0E0,0E0,0E0,0E0],"parents":[2147483647,0,0,1,1,2,2,3,3,4,4,5,5,6,6],"right_children":[2,4,6,8,10,12,14,-1,-1,-1,-1,-1,-1,-1,-1],"split_conditions":[5.187906E-1,4.972485E-1,5.552008E-1,4.951769E-1,5.085707E-1,5.357747E-1,5.9241456E-1,-6.92216E-4,2.3536716E-2,-2.1725211E-2,-8.480479E-3,1.7062496E-2,6.4028944E-3,-1.9957675E-2,8.423794E-4],"split_indices":[0,0,0,0,0,0,0,0,0,0,0,0,0,0,0],"split_type":[0,0,0,0,0,0,0,0,0,0,0,0,0,0,0],"sum_hessian":[2E2,1.07E2,9.3E1,1.01E2,6E0,9E0,8.4E1,1E2,1E0,2E0,4E0,5E0,4E0,3E0,8.1E1],"tree_param":{"num_deleted":"0","num_feature":"1","num_nodes":"15","size_leaf_vector":"1"}},{"base_weights":[-3.1877556E-4,1.2104836E-2,-1.5308531E-3,-6.1881524E-2,2.9955655E-3,-1.757347E-3,-2.1848656E-2,1.1056065E-2,-1.8017464E-4],"categories":[],"categories_nodes":[],"categories_segments":[],"categories_sizes":[],"default_left":[0,0,0,0,0,0,0,0,0],"id":32,"left_children":[1,-1,3,5,7,-1,-1,-1,-1],"loss_changes":[2.9753689E-2,0E0,5.4819852E-2,9.330454E-2,9.669554E-2,0E0,0E0,0E0,0E0],"parents":[2147483647,0,0,2,2,3,3,4,4],"right_children":[2,-1,4,6,8,-1,-1,-1,-1],"split_conditions":[6.9521307E-3,1.2104836E-2,6.505159E-2,5.8083612E-2,9.767211E-2,-1.757347E-3,-2.1848656E-2,1.1056065E-2,-1.8017464E-4],"split_indices":[0,0,0,0,0,0,0,0,0],"split_type":[0,0,0,0,0,0,0,0,0],"sum_hessian":[2E2,1E0,1.99E2,1.3E1,1.86E2,1.1E1,2E0,7E0,1.79E2],"tree_param":{"num_deleted":"0","num_feature":"1","num_nodes":"9","size_leaf_vector":"1"}},{"base_weights":[-2.8999988E-4,-2.4830602E-2,5.9612715E-3,-6.116939E-3,-1.0125984E-1,9.771747E-2,-4.837464E-3,-2.7946713E-3,1.0041312E-2,-2.1996794E-2,-5.2877557E-3,3.741374E-3,1.6088245E-2,-5.61481E-3,6.3201523E-4],"categories":[],"categories_nodes":[],"categories_segments":[],"categories_sizes":[],"default_left":[0,0,0,0,0,0,0,0,0,0,0,0,0,0,0],"id":33,"left_children":[1,3,5,7,9,11,13,-1,-1,-1,-1,-1,-1,-1,-1],"loss_changes":[3.0983426E-2,5.8021717E-2,1.5999971E-1,8.187413E-2,3.4315586E-2,5.8735207E-2,8.3367996E-2,0E0,0E0,0E0,0E0,0E0,0E0,0E0,0E0],"parents":[2147483647,0,0,1,1,2,2,3,3,4,4,5,5,6,6],"right_children":[2,4,6,8,10,12,14,-1,-1,-1,-1,-1,-1,-1,-1],"split_conditions":[1.8485446E-1,1.5599452E-1,2.517823E-1,1.2203824E-1,1.5601864E-1,2.2793517E-1,3.4920958E-1,-2.7946713E-3,1.0041312E-2,-2.1996794E-2,-5.2877557E-3,3.741374E-3,1.6088245E-2,-5.61481E-3,6.3201523E-4],"split_indices":[0,0,0,0,0,0,0,0,0,0,0,0,0,0,0],"split_type":[0,0,0,0,0,0,0,0,0,0,0,0,0,0,0],"sum_hessian":[2E2,4E1,1.6E2,3.3E1,7E0,1.6E1,1.44E2,2.8E1,5E0,1E0,6E0,9E0,7E0,2.5E1,1.19E2],"tree_param":{"num_deleted":"0","num_feature":"1","num_nodes":"15","size_leaf_vector":"1"}},{"base_weights":[-2.8681324E-4,1.4104056E-3,-8.422744E-2,-1.0487825E-2,1.5515883E-2,-1.088585E-2,-5.167142E-4,-1.2898647E-4,-1.4301698E-2,1.2289043E-2,2.2322101E-4],"categories":[],"categories_nodes":[],"categories_segments":[],"categories_sizes":[],"default_left":[0,0,0,0,0,0,0,0,0,0,0],"id":34,"left_children":[1,3,5,7,9,-1,-1,-1,-1,-1,-1],"loss_changes":[2.8754385E-2,3.339311E-2,7.2268657E-3,1.3146733E-1,1.2952156E-1,0E0,0E0,0E0,0E0,0E0,0E0],"parents":[2147483647,0,0,1,1,2,2,3,3,4,4],"right_children":[2,4,6,8,10,-1,-1,-1,-1,-1,-1],"split_conditions":[9.717821E-1,5.187906E-1,9.868869E-1,4.972485E-1,5.552008E-1,-1.088585E-2,-5.167142E-4,-1.2898647E-4,-1.4301698E-2,1.2289043E-2,2.2322101E-4],"split_indices":[0,0,0,0,0,0,0,0,0,0,0],"split_type":[0,0,0,0,0,0,0,0,0,0,0],"sum_hessian":[2E2,1.97E2,3E0,1.07E2,9E1,2E0,1E0,1.01E2,6E0,9E0,8.1E1],"tree_param":{"num_deleted":"0","num_feature":"1","num_nodes":"11","size_leaf_vector":"1"}},{"base_weights":[-3.2440643E-4,1.1645779E-2,-1.4906063E-3,-1.3009189E-1,4.6542633E-4,-1.5837655E-3,-1.793002E-2,1.7608386E-3,-7.4792193E-4],"categories":[],"categories_nodes":[],"categories_segments":[],"categories_sizes":[],"default_left":[0,0,0,0,0,0,0,0,0],"id":35,"left_children":[1,-1,3,5,7,-1,-1,-1,-1],"loss_changes":[2.754806E-2,0E0,5.037021E-2,1.4027078E-2,2.7098255E-2,0E0,0E0,0E0,0E0],"parents":[2147483647,0,0,2,2,3,3,4,4],"right_children":[2,-1,4,6,8,-1,-1,-1,-1],"split_conditions":[6.9521307E-3,1.1645779E-2,2.0584494E-2,1.658783E-2,2.9214466E-1,-1.5837655E-3,-1.793002E-2,1.7608386E-3,-7.4792193E-4],"split_indices":[0,0,0,0,0,0,0,0,0],"split_type":[0,0,0,0,0,0,0,0,0],"sum_hessian":[2E2,1E0,1.99E2,2E0,1.97E2,1E0,1E0,6.2E1,1.35E2],"tree_param":{"num_deleted":"0","num_feature":"1","num_nodes":"9","size_leaf_vector":"1"}},{"base_weights":[-3.260733E-4,-2.493034E-2,5.5628372E-3,-6.489177E-3,-1.252752E-1,6.510526E-2,-6.7367996E-3,-2.6370517E-3,9.06855E-3,-2.0978546E-2,-6.6416054E-3,1.6037567E-3,8.750377E-3,-9.825963E-3,6.285074E-4],"categories":[],"categories_nodes":[],"categories_segments":[],"categories_sizes":[],"default_left":[0,0,0,0,0,0,0,0,0,0,0,0,0,0,0],"id":36,"left_children":[1,3,5,7,9,11,13,-1,-1,-1,-1,-1,-1,-1,-1],"loss_changes":[2.926204E-2,7.135561E-2,1.19811684E-1,6.807815E-2,1.5912093E-2,2.9369853E-2,1.6270219E-1,0E0,0E0,0E0,0E0,0E0,0E0,0E0,0E0],"parents":[2147483647,0,0,1,1,2,2,3,3,4,4,5,5,6,6],"right_children":[2,4,6,8,10,12,14,-1,-1,-1,-1,-1,-1,-1,-1],"split_conditions":[1.8182497E-1,1.5599452E-1,2.9214466E-1,1.2203824E-1,1.5601864E-1,2.2210781E-1,3.4920958E-1,-2.6370517E-3,9.06855E-3,-2.0978546E-2,-6.6416054E-3,1.6037567E-3,8.750377E-3,-9.825963E-3,6.285074E-4],"split_indices":[0,0,0,0,0,0,0,0,0,0,0,0,0,0,0],"split_type":[0,0,0,0,0,0,0,0,0,0,0,0,0,0,0],"sum_hessian":[2E2,3.8E1,1.62E2,3.3E1,5E0,2.7E1,1.35E2,2.8E1,5E0,1E0,4E0,9E0,1.8E1,1.6E1,1.19E2],"tree_param":{"num_deleted":"0","num_feature":"1","num_nodes":"15","size_leaf_vector":"1"}},{"base_weights":[-3.9313533E-4,1.1195341E-2,-1.514635E-3,-8.619516E-2,1.0986871E-3,-2.412117E-3,-1.9828258E-2,1.772147E-2,-1.6445603E-4],"categories":[],"categories_nodes":[],"categories_segments":[],"categories_sizes":[],"default_left":[0,0,0,0,0,0,0,0,0],"id":37,"left_children":[1,-1,3,5,7,-1,-1,-1,-1],"loss_changes":[2.5494888E-2,0E0,4.43542E-2,3.6963467E-2,9.450175E-2,0E0,0E0,0E0,0E0],"parents":[2147483647,0,0,2,2,3,3,4,4],"right_children":[2,-1,4,6,8,-1,-1,-1,-1],"split_conditions":[6.9521307E-3,1.1195341E-2,3.438852E-2,3.1429186E-2,4.0775143E-2,-2.412117E-3,-1.9828258E-2,1.772147E-2,-1.6445603E-4],"split_indices":[0,0,0,0,0,0,0,0,0],"split_type":[0,0,0,0,0,0,0,0,0],"sum_hessian":[2E2,1E0,1.99E2,5E0,1.94E2,4E0,1E0,2E0,1.92E2],"tree_param":{"num_deleted":"0","num_feature":"1","num_nodes":"9","size_leaf_vector":"1"}},{"base_weights":[-3.2143036E-4,-2.2621399E-2,5.35944E-3,1.4167982E-2,-6.195865E-2,8.243814E-2,-3.7143352E-3,-3.073341E-3,2.2390759E-2,-2.1083122E-2,-3.3704408E-3,2.9853105E-3,1.3786468E-2,-1.31938225E-2,-7.6237384E-6],"categories":[],"categories_nodes":[],"categories_segments":[],"categories_sizes":[],"default_left":[0,0,0,0,0,0,0,0,0,0,0,0,0,0,0],"id":38,"left_children":[1,3,5,7,9,11,13,-1,-1,-1,-1,-1,-1,-1,-1],"loss_changes":[2.5584567E-2,6.0212746E-2,1.12908766E-1,2.1406865E-1,7.701967E-2,4.5432605E-2,6.763114E-2,0E0,0E0,0E0,0E0,0E0,0E0,0E0,0E0],"parents":[2147483647,0,0,1,1,2,2,3,3,4,4,5,5,6,6],"right_children":[2,4,6,8,10,12,14,-1,-1,-1,-1,-1,-1,-1,-1],"split_conditions":[1.8485446E-1,9.767211E-2,2.517823E-1,8.8492505E-2,1.1005192E-1,2.2793517E-1,2.7134904E-1,-3.073341E-3,2.2390759E-2,-2.1083122E-2,-3.3704408E-3,2.9853105E-3,1.3786468E-2,-1.31938225E-2,-7.6237384E-6],"split_indices":[0,0,0,0,0,0,0,0,0,0,0,0,0,0,0],"split_type":[0,0,0,0,0,0,0,0,0,0,0,0,0,0,0],"sum_hessian":[2E2,4E1,1.6E2,2.1E1,1.9E1,1.6E1,1.44E2,1.8E1,3E0,2E0,1.7E1,9E0,7E0,3E0,1.41E2],"tree_param":{"num_deleted":"0","num_feature":"1","num_nodes":"15","size_leaf_vector":"1"}},{"base_weights":[-2.970743E-4,3.9735334E-3,-2.919438E-2,-4.461652E-4,1.1074143E-1,-1.043614E-2,-1.4852532E-2,3.2057005E-4,-1.0079811E-2,2.9732645E-3,1.1928746E-2,9.290463E-3,-2.3973524E-3],"categories":[],"categories_nodes":[],"categories_segments":[],"categories_sizes":[],"default_left":[0,0,0,0,0,0,0,0,0,0,0,0,0],"id":39,"left_children":[1,3,5,7,9,-1,11,-1,-1,-1,-1,-1,-1],"loss_changes":[2.4921225E-2,8.310063E-2,2.647885E-2,6.262333E-2,1.2993887E-3,0E0,2.4832845E-2,0E0,0E0,0E0,0E0,0E0,0E0],"parents":[2147483647,0,0,1,1,2,2,3,3,4,4,6,6],"right_children":[2,4,6,8,10,-1,12,-1,-1,-1,-1,-1,-1],"split_conditions":[8.8721275E-1,8.607306E-1,8.960913E-1,8.172222E-1,8.6310345E-1,-1.043614E-2,8.971103E-1,3.2057005E-4,-1.0079811E-2,2.9732645E-3,1.1928746E-2,9.290463E-3,-2.3973524E-3],"split_indices":[0,0,0,0,0,0,0,0,0,0,0,0,0],"split_type":[0,0,0,0,0,0,0,0,0,0,0,0,0],"sum_hessian":[2E2,1.75E2,2.5E1,1.69E2,6E0,3E0,2.2E1,1.64E2,5E0,1E0,5E0,1E0,2.1E1],"tree_param":{"num_deleted":"0","num_feature":"1","num_nodes":"13","size_leaf_vector":"1"}},{"base_weights":[-2.594049E-4,1.2849213E-3,-7.66387E-2,-1.0090389E-2,1.477117E-2,-9.9808695E-3,-3.5643578E-4,-1.7086149E-4,-1.3078334E-2,1.457646E-2,5.4603344E-4],"categories":[],"categories_nodes":[],"categories_segments":[],"categories_sizes":[],"default_left":[0,0,0,0,0,0,0,0,0,0,0],"id":40,"left_children":[1,3,5,7,9,-1,-1,-1,-1,-1,-1],"loss_changes":[2.3807338E-2,3.052428E-2,6.4167734E-3,1.090316E-1,1.1019298E-1,0E0,0E0,0E0,0E0,0E0,0E0],"parents":[2147483647,0,0,1,1,2,2,3,3,4,4],"right_children":[2,4,6,8,10,-1,-1,-1,-1,-1,-1],"split_conditions":[9.717821E-1,5.187906E-1,9.868869E-1,4.972485E-1,5.357747E-1,-9.9808695E-3,-3.5643578E-4,-1.7086149E-4,-1.3078334E-2,1.457646E-2,5.4603344E-4],"split_indices":[0,0,0,0,0,0,0,0,0,0,0],"split_type":[0,0,0,0,0,0,0,0,0,0,0],"sum_hessian":[2E2,1.97E2,3E0,1.07E2,9E1,2E0,1E0,1.01E2,6E0,5E0,8.5E1],"tree_param":{"num_deleted":"0","num_feature":"1","num_nodes":"11","size_leaf_vector":"1"}},{"base_weights":[-2.75572E-4,1.0781757E-2,-1.3551255E-3,-1.1827212E-1,4.2318818E-4,-1.1059389E-3,-1.663488E-2,6.3964776E-3,-1.5543906E-4],"categories":[],"categories_nodes":[],"categories_segments":[],"categories_sizes":[],"default_left":[0,0,0,0,0,0,0,0,0],"id":41,"left_children":[1,-1,3,5,7,-1,-1,-1,-1],"loss_changes":[2.360126E-2,0E0,4.1633066E-2,1.362358E-2,2.497981E-2,0E0,0E0,0E0,0E0],"parents":[2147483647,0,0,2,2,3,3,4,4],"right_children":[2,-1,4,6,8,-1,-1,-1,-1],"split_conditions":[6.9521307E-3,1.0781757E-2,2.0584494E-2,1.658783E-2,4.0775143E-2,-1.1059389E-3,-1.663488E-2,6.3964776E-3,-1.5543906E-4],"split_indices":[0,0,0,0,0,0,0,0,0],"split_type":[0,0,0,0,0,0,0,0,0],"sum_hessian":[2E2,1E0,1.99E2,2E0,1.97E2,1E0,1E0,5E0,1.92E2],"tree_param":{"num_deleted":"0","num_feature":"1","num_nodes":"9","size_leaf_vector":"1"}},{"base_weights":[-2.515777E-4,-2.1888457E-2,4.926888E-3,6.6579324E-3,-7.949339E-2,5.6378484E-2,-5.7023154E-3,-1.6175502E-3,1.9471724E-2,-2.8782815E-2,-1.5448142E-3,3.5352744E-3,1.1440532E-2,-8.884431E-3,6.123653E-4],"categories":[],"categories_nodes":[],"categories_segments":[],"categories_sizes":[],"default_left":[0,0,0,0,0,0,0,0,0,0,0,0,0,0,0],"id":42,"left_children":[1,3,5,7,9,11,13,-1,-1,-1,-1,-1,-1,-1,-1],"loss_changes":[2.2629054E-2,6.466136E-2,8.946447E-2,1.1908871E-1,1.6901065E-1,3.0117072E-2,1.3426395E-1,0E0,0E0,0E0,0E0,0E0,0E0,0E0,0E0],"parents":[2147483647,0,0,1,1,2,2,3,3,4,4,5,5,6,6],"right_children":[2,4,6,8,10,12,14,-1,-1,-1,-1,-1,-1,-1,-1],"split_conditions":[1.8182497E-1,1.19594246E-1,2.9214466E-1,1.1347352E-1,1.2203824E-1,2.7134904E-1,3.4920958E-1,-1.6175502E-3,1.9471724E-2,-2.8782815E-2,-1.5448142E-3,3.5352744E-3,1.1440532E-2,-8.884431E-3,6.123653E-4],"split_indices":[0,0,0,0,0,0,0,0,0,0,0,0,0,0,0],"split_type":[0,0,0,0,0,0,0,0,0,0,0,0,0,0,0],"sum_hessian":[2E2,3.8E1,1.62E2,2.6E1,1.2E1,2.7E1,1.35E2,2.4E1,2E0,2E0,1E1,2.1E1,6E0,1.6E1,1.19E2],"tree_param":{"num_deleted":"0","num_feature":"1","num_nodes":"15","size_leaf_vector":"1"}},{"base_weights":[-2.551316E-4,1.0323546E-2,-1.2887619E-3,-1.1128014E-1,3.842832E-4,-9.697646E-4,-1.5722258E-2,2.9352642E-4,-4.3249237E-3],"categories":[],"categories_nodes":[],"categories_segments":[],"categories_sizes":[],"default_left":[0,0,0,0,0,0,0,0,0],"id":43,"left_children":[1,-1,3,5,7,-1,-1,-1,-1],"loss_changes":[2.1634217E-2,0E0,3.6846872E-2,1.247615E-2,2.2165988E-2,0E0,0E0,0E0,0E0],"parents":[2147483647,0,0,2,2,3,3,4,4],"right_children":[2,-1,4,6,8,-1,-1,-1,-1],"split_conditions":[6.9521307E-3,1.0323546E-2,2.0584494E-2,1.658783E-2,9.429097E-1,-9.697646E-4,-1.5722258E-2,2.9352642E-4,-4.3249237E-3],"split_indices":[0,0,0,0,0,0,0,0,0],"split_type":[0,0,0,0,0,0,0,0,0],"sum_hessian":[2E2,1E0,1.99E2,2E0,1.97E2,1E0,1E0,1.87E2,1E1],"tree_param":{"num_deleted":"0","num_feature":"1","num_nodes":"9","size_leaf_vector":"1"}},{"base_weights":[-2.8137295E-4,9.80737E-3,-1.2635167E-3,-7.5104274E-2,1.0149862E-3,-1.4347988E-3,-1.8944286E-2,1.6396787E-2,-1.5232193E-4],"categories":[],"categories_nodes":[],"categories_segments":[],"categories_sizes":[],"default_left":[0,0,0,0,0,0,0,0,0],"id":44,"left_children":[1,-1,3,5,7,-1,-1,-1,-1],"loss_changes":[1.954028E-2,0E0,3.372551E-2,3.8962606E-2,8.090329E-2,0E0,0E0,0E0,0E0],"parents":[2147483647,0,0,2,2,3,3,4,4],"right_children":[2,-1,4,6,8,-1,-1,-1,-1],"split_conditions":[6.9521307E-3,9.80737E-3,3.438852E-2,3.1429186E-2,4.0775143E-2,-1.4347988E-3,-1.8944286E-2,1.6396787E-2,-1.5232193E-4],"split_indices":[0,0,0,0,0,0,0,0,0],"split_type":[0,0,0,0,0,0,0,0,0],"sum_hessian":[2E2,1E0,1.99E2,5E0,1.94E2,4E0,1E0,2E0,1.92E2],"tree_param":{"num_deleted":"0","num_feature":"1","num_nodes":"9","size_leaf_vector":"1"}},{"base_weights":[-2.2499778E-4,-1.9941885E-2,4.7974708E-3,1.3309694E-2,-5.552153E-2,7.172613E-2,-3.0824237E-3,-2.8425849E-3,2.082261E-2,-1.9578775E-2,-2.9059297E-3,2.3862715E-3,1.2258964E-2,-1.2479586E-2,3.678308E-5],"categories":[],"categories_nodes":[],"categories_segments":[],"categories_sizes":[],"default_left":[0,0,0,0,0,0,0,0,0,0,0,0,0,0,0],"id":45,"left_children":[1,3,5,7,9,11,13,-1,-1,-1,-1,-1,-1,-1,-1],"loss_changes":[2.0000186E-2,4.924523E-2,8.5131004E-2,1.8488774E-1,6.854569E-2,3.8461186E-2,6.093754E-2,0E0,0E0,0E0,0E0,0E0,0E0,0E0,0E0],"parents":[2147483647,0,0,1,1,2,2,3,3,4,4,5,5,6,6],"right_children":[2,4,6,8,10,12,14,-1,-1,-1,-1,-1,-1,-1,-1],"split_conditions":[1.8485446E-1,9.767211E-2,2.517823E-1,8.8492505E-2,1.1005192E-1,2.2793517E-1,2.7134904E-1,-2.8425849E-3,2.082261E-2,-1.9578775E-2,-2.9059297E-3,2.3862715E-3,1.2258964E-2,-1.2479586E-2,3.678308E-5],"split_indices":[0,0,0,0,0,0,0,0,0,0,0,0,0,0,0],"split_type":[0,0,0,0,0,0,0,0,0,0,0,0,0,0,0],"sum_hessian":[2E2,4E1,1.6E2,2.1E1,1.9E1,1.6E1,1.44E2,1.8E1,3E0,2E0,1.7E1,9E0,7E0,3E0,1.41E2],"tree_param":{"num_deleted":"0","num_feature":"1","num_nodes":"15","size_leaf_vector":"1"}},{"base_weights":[-2.1394675E-4,1.1680945E-3,-6.85715E-2,-8.970237E-3,1.3187564E-2,-9.049909E-3,-1.3943762E-4,1.1181346E-3,-5.315843E-3,1.3308848E-2,4.6690396E-4],"categories":[],"categories_nodes":[],"categories_segments":[],"categories_sizes":[],"default_left":[0,0,0,0,0,0,0,0,0,0,0],"id":46,"left_children":[1,3,5,7,9,-1,-1,-1,-1,-1,-1],"loss_changes":[1.9069163E-2,2.4246054E-2,5.765941E-3,9.676427E-2,9.23241E-2,0E0,0E0,0E0,0E0,0E0,0E0],"parents":[2147483647,0,0,1,1,2,2,3,3,4,4],"right_children":[2,4,6,8,10,-1,-1,-1,-1,-1,-1],"split_conditions":[9.717821E-1,5.187906E-1,9.868869E-1,3.2320294E-1,5.357747E-1,-9.049909E-3,-1.3943762E-4,1.1181346E-3,-5.315843E-3,1.3308848E-2,4.6690396E-4],"split_indices":[0,0,0,0,0,0,0,0,0,0,0],"split_type":[0,0,0,0,0,0,0,0,0,0,0],"sum_hessian":[2E2,1.97E2,3E0,1.07E2,9E1,2E0,1E0,7.4E1,3.3E1,5E0,8.5E1],"tree_param":{"num_deleted":"0","num_feature":"1","num_nodes":"11","size_leaf_vector":"1"}},{"base_weights":[-1.9060686E-4,-1.914842E-2,4.638343E-3,6.3550584E-3,-6.3778125E-2,5.6257464E-2,-3.9363196E-3,-1.5076594E-3,1.828338E-2,-2.6754186E-2,-1.184971E-3,3.1453308E-3,1.6621388E-2,-6.421701E-3,6.143265E-4],"categories":[],"categories_nodes":[],"categories_segments":[],"categories_sizes":[],"default_left":[0,0,0,0,0,0,0,0,0,0,0,0,0,0,0],"id":47,"left_children":[1,3,5,7,9,11,13,-1,-1,-1,-1,-1,-1,-1,-1],"loss_changes":[1.8489629E-2,4.707203E-2,7.1482725E-2,1.0487676E-1,1.5554662E-1,5.750168E-2,8.4851496E-2,0E0,0E0,0E0,0E0,0E0,0E0,0E0,0E0],"parents":[2147483647,0,0,1,1,2,2,3,3,4,4,5,5,6,6],"right_children":[2,4,6,8,10,12,14,-1,-1,-1,-1,-1,-1,-1,-1],"split_conditions":[1.8485446E-1,1.19594246E-1,2.848405E-1,1.1347352E-1,1.2203824E-1,2.7134904E-1,3.4920958E-1,-1.5076594E-3,1.828338E-2,-2.6754186E-2,-1.184971E-3,3.1453308E-3,1.6621388E-2,-6.421701E-3,6.143265E-4],"split_indices":[0,0,0,0,0,0,0,0,0,0,0,0,0,0,0],"split_type":[0,0,0,0,0,0,0,0,0,0,0,0,0,0,0],"sum_hessian":[2E2,4E1,1.6E2,2.6E1,1.4E1,2.2E1,1.38E2,2.4E1,2E0,2E0,1.2E1,1.9E1,3E0,1.9E1,1.19E2],"tree_param":{"num_deleted":"0","num_feature":"1","num_nodes":"15","size_leaf_vector":"1"}},{"base_weights":[-1.5764053E-4,3.5442002E-3,-2.5210192E-2,-4.42475E-4,9.9857144E-2,-5.617043E-2,1.0070849E-2,2.9726044E-4,-9.428342E-3,2.7114928E-3,1.0746169E-2,-2.6501843E-3,-2.2093106E-2,1.8447679E-2,-3.8409934E-3],"categories":[],"categories_nodes":[],"categories_segments":[],"categories_sizes":[],"default_left":[0,0,0,0,0,0,0,0,0,0,0,0,0,0,0],"id":48,"left_children":[1,3,5,7,9,11,13,-1,-1,-1,-1,-1,-1,-1,-1],"loss_changes":[1.87302E-2,6.762263E-2,2.8965728E-2,5.4760896E-2,9.583831E-4,6.257993E-2,1.1700511E-1,0E0,0E0,0E0,0E0,0E0,0E0,0E0,0E0],"parents":[2147483647,0,0,1,1,2,2,3,3,4,4,5,5,6,6],"right_children":[2,4,6,8,10,12,14,-1,-1,-1,-1,-1,-1,-1,-1],"split_conditions":[8.8721275E-1,8.607306E-1,9.3672997E-1,8.172222E-1,8.6310345E-1,9.2969763E-1,9.429097E-1,2.9726044E-4,-9.428342E-3,2.7114928E-3,1.0746169E-2,-2.6501843E-3,-2.2093106E-2,1.8447679E-2,-3.8409934E-3],"split_indices":[0,0,0,0,0,0,0,0,0,0,0,0,0,0,0],"split_type":[0,0,0,0,0,0,0,0,0,0,0,0,0,0,0],"sum_hessian":[2E2,1.75E2,2.5E1,1.69E2,6E0,1.3E1,1.2E1,1.64E2,5E0,1E0,5E0,1.2E1,1E0,2E0,1E1],"tree_param":{"num_deleted":"0","num_feature":"1","num_nodes":"15","size_leaf_vector":"1"}},{"base_weights":[-1.7077275E-4,9.463745E-3,-1.1180012E-3,-1.0280302E-1,4.2832745E-4,-7.0279243E-4,-1.4717661E-2,6.0353517E-3,-1.4368512E-4],"categories":[],"categories_nodes":[],"categories_segments":[],"categories_sizes":[],"default_left":[0,0,0,0,0,0,0,0,0],"id":49,"left_children":[1,-1,3,5,7,-1,-1,-1,-1],"loss_changes":[1.815662E-2,0E0,3.1491723E-2,1.1715308E-2,2.2217413E-2,0E0,0E0,0E0,0E0],"parents":[2147483647,0,0,2,2,3,3,4,4],"right_children":[2,-1,4,6,8,-1,-1,-1,-1],"split_conditions":[6.9521307E-3,9.463745E-3,2.0584494E-2,1.658783E-2,4.0775143E-2,-7.0279243E-4,-1.4717661E-2,6.0353517E-3,-1.4368512E-4],"split_indices":[0,0,0,0,0,0,0,0,0],"split_type":[0,0,0,0,0,0,0,0,0],"sum_hessian":[2E2,1E0,1.99E2,2E0,1.97E2,1E0,1E0,5E0,1.92E2],"tree_param":{"num_deleted":"0","num_feature":"1","num_nodes":"9","size_leaf_vector":"1"}},{"base_weights":[-1.5400985E-4,-1.7570706E-2,4.697184E-3,-6.850408E-3,-2.3927176E-2,7.13201E-2,-2.7899758E-3,-1.8274438E-3,1.5156149E-2,1.3091005E-2,4.749857E-3,-2.7543753E-2,1.0697784E-4],"categories":[],"categories_nodes":[],"categories_segments":[],"categories_sizes":[],"default_left":[0,0,0,0,0,0,0,0,0,0,0,0,0],"id":50,"left_children":[1,3,5,7,-1,9,11,-1,-1,-1,-1,-1,-1],"loss_changes":[1.7065378E-2,1.02935754E-1,7.9011984E-2,8.05869E-2,0E0,1.6494334E-2,1.5078108E-1,0E0,0E0,0E0,0E0,0E0,0E0],"parents":[2147483647,0,0,1,1,2,2,3,3,5,5,6,6],"right_children":[2,4,6,8,-1,10,12,-1,-1,-1,-1,-1,-1],"split_conditions":[1.9598286E-1,1.8657006E-1,2.5877997E-1,1.8485446E-1,-2.3927176E-2,2.1233912E-1,2.7134904E-1,-1.8274438E-3,1.5156149E-2,1.3091005E-2,4.749857E-3,-2.7543753E-2,1.0697784E-4],"split_indices":[0,0,0,0,0,0,0,0,0,0,0,0,0],"split_type":[0,0,0,0,0,0,0,0,0,0,0,0,0],"sum_hessian":[2E2,4.3E1,1.57E2,4.2E1,1E0,1.5E1,1.42E2,4E1,2E0,3E0,1.2E1,1E0,1.41E2],"tree_param":{"num_deleted":"0","num_feature":"1","num_nodes":"13","size_leaf_vector":"1"}},{"base_weights":[-2.3908724E-4,9.08193E-3,-1.1484757E-3,-4.541781E-2,2.1719479E-3,-4.2448714E-4,-1.9497031E-2,9.421063E-3,-1.9307263E-4],"categories":[],"categories_nodes":[],"categories_segments":[],"categories_sizes":[],"default_left":[0,0,0,0,0,0,0,0,0],"id":51,"left_children":[1,-1,3,5,7,-1,-1,-1,-1],"loss_changes":[1.67486E-2,0E0,2.9497234E-2,8.5377604E-2,7.0793964E-2,0E0,0E0,0E0,0E0],"parents":[2147483647,0,0,2,2,3,3,4,4],"right_children":[2,-1,4,6,8,-1,-1,-1,-1],"split_conditions":[6.9521307E-3,9.08193E-3,6.505159E-2,5.8083612E-2,9.767211E-2,-4.2448714E-4,-1.9497031E-2,9.421063E-3,-1.9307263E-4],"split_indices":[0,0,0,0,0,0,0,0,0],"split_type":[0,0,0,0,0,0,0,0,0],"sum_hessian":[2E2,1E0,1.99E2,1.3E1,1.86E2,1.1E1,2E0,7E0,1.79E2],"tree_param":{"num_deleted":"0","num_feature":"1","num_nodes":"9","size_leaf_vector":"1"}},{"base_weights":[-2.2320802E-4,3.1218536E-3,-2.2858117E-2,-4.318212E-3,5.2802213E-2,-5.21074E-2,1.0399432E-2,3.6322014E-4,-6.458979E-3,1.6703816E-2,3.39684E-3,-2.3843416E-3,-2.0976963E-2,1.723315E-2,-3.470926E-3],"categories":[],"categories_nodes":[],"categories_segments":[],"categories_sizes":[],"default_left":[0,0,0,0,0,0,0,0,0,0,0,0,0,0,0],"id":52,"left_children":[1,3,5,7,9,11,13,-1,-1,-1,-1,-1,-1,-1,-1],"loss_changes":[1.5290107E-2,6.528204E-2,2.5833633E-2,7.402894E-2,4.381045E-2,5.738466E-2,1.0094057E-1,0E0,0E0,0E0,0E0,0E0,0E0,0E0,0E0],"parents":[2147483647,0,0,1,1,2,2,3,3,4,4,5,5,6,6],"right_children":[2,4,6,8,10,12,14,-1,-1,-1,-1,-1,-1,-1,-1],"split_conditions":[8.8721275E-1,7.7127033E-1,9.3672997E-1,6.7213553E-1,7.7513283E-1,9.2969763E-1,9.429097E-1,3.6322014E-4,-6.458979E-3,1.6703816E-2,3.39684E-3,-2.3843416E-3,-2.0976963E-2,1.723315E-2,-3.470926E-3],"split_indices":[0,0,0,0,0,0,0,0,0,0,0,0,0,0,0],"split_type":[0,0,0,0,0,0,0,0,0,0,0,0,0,0,0],"sum_hessian":[2E2,1.75E2,2.5E1,1.53E2,2.2E1,1.3E1,1.2E1,1.36E2,1.7E1,2E0,2E1,1.2E1,1E0,2E0,1E1],"tree_param":{"num_deleted":"0","num_feature":"1","num_nodes":"15","size_leaf_vector":"1"}},{"base_weights":[-1.7897708E-4,-1.7025823E-2,4.5136823E-3,-6.8453406E-3,-2.2739327E-2,4.5356587E-2,-5.812984E-3,-1.7521499E-3,1.4134394E-2,2.4414135E-3,2.3966225E-2,-1.8617835E-2,6.259814E-4],"categories":[],"categories_nodes":[],"categories_segments":[],"categories_sizes":[],"default_left":[0,0,0,0,0,0,0,0,0,0,0,0,0],"id":53,"left_children":[1,3,5,7,-1,9,11,-1,-1,-1,-1,-1,-1],"loss_changes":[1.5967207E-2,9.2675656E-2,6.690348E-2,7.050651E-2,0E0,1.24364436E-1,2.777098E-1,0E0,0E0,0E0,0E0,0E0,0E0],"parents":[2147483647,0,0,1,1,2,2,3,3,5,5,6,6],"right_children":[2,4,6,8,-1,10,12,-1,-1,-1,-1,-1,-1],"split_conditions":[1.9598286E-1,1.8657006E-1,3.2320294E-1,1.8485446E-1,-2.2739327E-2,3.1800348E-1,3.4920958E-1,-1.7521499E-3,1.4134394E-2,2.4414135E-3,2.3966225E-2,-1.8617835E-2,6.259814E-4],"split_indices":[0,0,0,0,0,0,0,0,0,0,0,0,0],"split_type":[0,0,0,0,0,0,0,0,0,0,0,0,0],"sum_hessian":[2E2,4.3E1,1.57E2,4.2E1,1E0,3.1E1,1.26E2,4E1,2E0,2.9E1,2E0,7E0,1.19E2],"tree_param":{"num_deleted":"0","num_feature":"1","num_nodes":"13","size_leaf_vector":"1"}},{"base_weights":[-1.7073101E-4,8.697278E-3,-1.0413124E-3,-9.5235646E-2,3.9113362E-4,-4.8561097E-4,-1.3799736E-2,8.31196E-3,-8.7711385E-5],"categories":[],"categories_nodes":[],"categories_segments":[],"categories_sizes":[],"default_left":[0,0,0,0,0,0,0,0,0],"id":54,"left_children":[1,-1,3,5,7,-1,-1,-1,-1],"loss_changes":[1.5339534E-2,0E0,2.702291E-2,1.0924218E-2,2.0847097E-2,0E0,0E0,0E0,0E0],"parents":[2147483647,0,0,2,2,3,3,4,4],"right_children":[2,-1,4,6,8,-1,-1,-1,-1],"split_conditions":[6.9521307E-3,8.697278E-3,2.0584494E-2,1.658783E-2,3.1429186E-2,-4.8561097E-4,-1.3799736E-2,8.31196E-3,-8.7711385E-5],"split_indices":[0,0,0,0,0,0,0,0,0],"split_type":[0,0,0,0,0,0,0,0,0],"sum_hessian":[2E2,1E0,1.99E2,2E0,1.97E2,1E0,1E0,2E0,1.95E2],"tree_param":{"num_deleted":"0","num_feature":"1","num_nodes":"9","size_leaf_vector":"1"}},{"base_weights":[-1.4053029E-4,1.0537013E-3,-5.921986E-2,-7.936478E-3,1.1711785E-2,-8.02064E-3,1.8698872E-4,-3.7952967E-5,-1.1691823E-2,9.545993E-3,1.3557696E-4],"categories":[],"categories_nodes":[],"categories_segments":[],"categories_sizes":[],"default_left":[0,0,0,0,0,0,0,0,0,0,0],"id":55,"left_children":[1,3,5,7,9,-1,-1,-1,-1,-1,-1],"loss_changes":[1.4243834E-2,1.906493E-2,5.278226E-3,8.890112E-2,7.879461E-2,0E0,0E0,0E0,0E0,0E0,0E0],"parents":[2147483647,0,0,1,1,2,2,3,3,4,4],"right_children":[2,4,6,8,10,-1,-1,-1,-1,-1,-1],"split_conditions":[9.717821E-1,5.187906E-1,9.868869E-1,4.972485E-1,5.552008E-1,-8.02064E-3,1.8698872E-4,-3.7952967E-5,-1.1691823E-2,9.545993E-3,1.3557696E-4],"split_indices":[0,0,0,0,0,0,0,0,0,0,0],"split_type":[0,0,0,0,0,0,0,0,0,0,0],"sum_hessian":[2E2,1.97E2,3E0,1.07E2,9E1,2E0,1E0,1.01E2,6E0,9E0,8.1E1],"tree_param":{"num_deleted":"0","num_feature":"1","num_nodes":"11","size_leaf_vector":"1"}},{"base_weights":[-1.756487E-4,8.2643125E-3,-1.0029582E-3,-6.630174E-2,1.0113785E-3,-7.707E-4,-1.7963773E-2,1.8986413E-2,-9.407705E-5],"categories":[],"categories_nodes":[],"categories_segments":[],"categories_sizes":[],"default_left":[0,0,0,0,0,0,0,0,0],"id":56,"left_children":[1,-1,3,5,7,-1,-1,-1,-1],"loss_changes":[1.3854754E-2,0E0,2.6373802E-2,3.846088E-2,7.206901E-2,0E0,0E0,0E0,0E0],"parents":[2147483647,0,0,2,2,3,3,4,4],"right_children":[2,-1,4,6,8,-1,-1,-1,-1],"split_conditions":[6.9521307E-3,8.2643125E-3,3.438852E-2,3.1429186E-2,3.688695E-2,-7.707E-4,-1.7963773E-2,1.8986413E-2,-9.407705E-5],"split_indices":[0,0,0,0,0,0,0,0,0],"split_type":[0,0,0,0,0,0,0,0,0],"sum_hessian":[2E2,1E0,1.99E2,5E0,1.94E2,4E0,1E0,1E0,1.93E2],"tree_param":{"num_deleted":"0","num_feature":"1","num_nodes":"9","size_leaf_vector":"1"}},{"base_weights":[-1.1618869E-4,-1.5760643E-2,4.2412304E-3,-6.0846717E-3,-2.159137E-2,6.7669794E-2,-1.9121569E-3,-1.6044962E-3,1.320675E-2,1.9054754E-3,1.0174924E-2,-1.1603176E-2,1.3159454E-4],"categories":[],"categories_nodes":[],"categories_segments":[],"categories_sizes":[],"default_left":[0,0,0,0,0,0,0,0,0,0,0,0,0],"id":57,"left_children":[1,3,5,7,-1,9,11,-1,-1,-1,-1,-1,-1],"loss_changes":[1.3768903E-2,8.3899945E-2,6.1796878E-2,6.1288547E-2,0E0,2.1256022E-2,5.3569205E-2,0E0,0E0,0E0,0E0,0E0,0E0],"parents":[2147483647,0,0,1,1,2,2,3,3,5,5,6,6],"right_children":[2,4,6,8,-1,10,12,-1,-1,-1,-1,-1,-1],"split_conditions":[1.9598286E-1,1.8657006E-1,2.517823E-1,1.8485446E-1,-2.159137E-2,2.2793517E-1,2.7134904E-1,-1.6044962E-3,1.320675E-2,1.9054754E-3,1.0174924E-2,-1.1603176E-2,1.3159454E-4],"split_indices":[0,0,0,0,0,0,0,0,0,0,0,0,0],"split_type":[0,0,0,0,0,0,0,0,0,0,0,0,0],"sum_hessian":[2E2,4.3E1,1.57E2,4.2E1,1E0,1.3E1,1.44E2,4E1,2E0,6E0,7E0,3E0,1.41E2],"tree_param":{"num_deleted":"0","num_feature":"1","num_nodes":"13","size_leaf_vector":"1"}},{"base_weights":[-1.5124698E-4,2.9295525E-3,-2.1000072E-2,-2.5651315E-3,6.2076837E-2,-9.481625E-3,-7.2494308E-3,3.5259314E-4,-3.456169E-3,2.1245426E-2,6.7779596E-4,8.94048E-3,-1.5706659E-3],"categories":[],"categories_nodes":[],"categories_segments":[],"categories_sizes":[],"default_left":[0,0,0,0,0,0,0,0,0,0,0,0,0],"id":58,"left_children":[1,3,5,7,9,-1,11,-1,-1,-1,-1,-1,-1],"loss_changes":[1.2971963E-2,5.735847E-2,2.570315E-2,3.1694535E-2,1.2329553E-1,0E0,2.0205066E-2,0E0,0E0,0E0,0E0,0E0,0E0],"parents":[2147483647,0,0,1,1,2,2,3,3,4,4,6,6],"right_children":[2,4,6,8,10,-1,12,-1,-1,-1,-1,-1,-1],"split_conditions":[8.8721275E-1,8.0812037E-1,8.960913E-1,6.7213553E-1,8.172222E-1,-9.481625E-3,8.971103E-1,3.5259314E-4,-3.456169E-3,2.1245426E-2,6.7779596E-4,8.94048E-3,-1.5706659E-3],"split_indices":[0,0,0,0,0,0,0,0,0,0,0,0,0],"split_type":[0,0,0,0,0,0,0,0,0,0,0,0,0],"sum_hessian":[2E2,1.75E2,2.5E1,1.61E2,1.4E1,3E0,2.2E1,1.36E2,2.5E1,3E0,1.1E1,1E0,2.1E1],"tree_param":{"num_deleted":"0","num_feature":"1","num_nodes":"13","size_leaf_vector":"1"}},{"base_weights":[-5.3008174E-5,-6.57829E-3,1.0321196E-2,-2.4417606E-3,-2.5768569E-2,1.2977046E-1,-3.2832443E-3,-5.5611297E-4,1.8906062E-2,7.7772746E-3,1.9050907E-2,-7.3930025E-3,6.8612676E-4],"categories":[],"categories_nodes":[],"categories_segments":[],"categories_sizes":[],"default_left":[0,0,0,0,0,0,0,0,0,0,0,0,0],"id":59,"left_children":[1,3,5,7,-1,9,11,-1,-1,-1,-1,-1,-1],"loss_changes":[1.36745125E-2,1.281712E-1,1.2717922E-1,7.452748E-2,0E0,1.0449737E-2,5.139133E-2,0E0,0E0,0E0,0E0,0E0,0E0],"parents":[2147483647,0,0,1,1,2,2,3,3,5,5,6,6],"right_children":[2,4,6,8,-1,10,12,-1,-1,-1,-1,-1,-1],"split_conditions":[6.0754484E-1,6.01115E-1,6.335297E-1,5.986585E-1,-2.5768569E-2,6.3310146E-1,6.84233E-1,-5.5611297E-4,1.8906062E-2,7.7772746E-3,1.9050907E-2,-7.3930025E-3,6.8612676E-4],"split_indices":[0,0,0,0,0,0,0,0,0,0,0,0,0],"split_type":[0,0,0,0,0,0,0,0,0,0,0,0,0],"sum_hessian":[2E2,1.23E2,7.7E1,1.22E2,1E0,7E0,7E1,1.21E2,1E0,5E0,2E0,8E0,6.2E1],"tree_param":{"num_deleted":"0","num_feature":"1","num_nodes":"13","size_leaf_vector":"1"}},{"base_weights":[1.5490868E-5,7.941497E-3,-7.785813E-4,-8.872944E-2,5.579397E-4,-3.3049882E-4,-1.2978918E-2,5.7271733E-3,-1.2080742E-4],"categories":[],"categories_nodes":[],"categories_segments":[],"categories_sizes":[],"default_left":[0,0,0,0,0,0,0,0,0],"id":60,"left_children":[1,-1,3,5,7,-1,-1,-1,-1],"loss_changes":[1.2734662E-2,0E0,2.355914E-2,1.0093564E-2,1.990034E-2,0E0,0E0,0E0,0E0],"parents":[2147483647,0,0,2,2,3,3,4,4],"right_children":[2,-1,4,6,8,-1,-1,-1,-1],"split_conditions":[6.9521307E-3,7.941497E-3,2.0584494E-2,1.658783E-2,4.0775143E-2,-3.3049882E-4,-1.2978918E-2,5.7271733E-3,-1.2080742E-4],"split_indices":[0,0,0,0,0,0,0,0,0],"split_type":[0,0,0,0,0,0,0,0,0],"sum_hessian":[2E2,1E0,1.99E2,2E0,1.97E2,1E0,1E0,5E0,1.92E2],"tree_param":{"num_deleted":"0","num_feature":"1","num_nodes":"9","size_leaf_vector":"1"}},{"base_weights":[1.5138764E-5,-2.7511759E-2,2.2230977E-3,1.7409256E-2,-1.5539686E-1,8.90625E-2,-1.6487815E-3,-3.152964E-3,7.1603092E-3,-4.1372776E-3,-1.7961396E-2,-9.295231E-4,1.8974403E-2,-1.7887259E-2,1.3473995E-4],"categories":[],"categories_nodes":[],"categories_segments":[],"categories_sizes":[],"default_left":[0,0,0,0,0,0,0,0,0,0,0,0,0,0,0],"id":61,"left_children":[1,3,5,7,9,11,13,-1,-1,-1,-1,-1,-1,-1,-1],"loss_changes":[1.2277593E-2,8.887627E-2,6.302216E-2,3.4083858E-2,3.6142021E-3,8.0986165E-2,9.582004E-2,0E0,0E0,0E0,0E0,0E0,0E0,0E0,0E0],"parents":[2147483647,0,0,1,1,2,2,3,3,4,4,5,5,6,6],"right_children":[2,4,6,8,10,12,14,-1,-1,-1,-1,-1,-1,-1,-1],"split_conditions":[6.505159E-2,5.147875E-2,9.767211E-2,3.438852E-2,5.8083612E-2,8.8492505E-2,1.1005192E-1,-3.152964E-3,7.1603092E-3,-4.1372776E-3,-1.7961396E-2,-9.295231E-4,1.8974403E-2,-1.7887259E-2,1.3473995E-4],"split_indices":[0,0,0,0,0,0,0,0,0,0,0,0,0,0,0],"split_type":[0,0,0,0,0,0,0,0,0,0,0,0,0,0,0],"sum_hessian":[2E2,1.4E1,1.86E2,1.1E1,3E0,7E0,1.79E2,6E0,5E0,1E0,2E0,4E0,3E0,2E0,1.77E2],"tree_param":{"num_deleted":"0","num_feature":"1","num_nodes":"15","size_leaf_vector":"1"}},{"base_weights":[-7.493716E-5,1.0275934E-3,-5.4631464E-2,5.2385298E-5,9.657179E-3,-7.430391E-3,2.1929444E-4,1.6449035E-4,-4.3408093E-3],"categories":[],"categories_nodes":[],"categories_segments":[],"categories_sizes":[],"default_left":[0,0,0,0,0,0,0,0,0],"id":62,"left_children":[1,3,5,7,-1,-1,-1,-1,-1],"loss_changes":[1.2146335E-2,1.8443683E-2,4.6344465E-3,1.3706088E-2,0E0,0E0,0E0,0E0,0E0],"parents":[2147483647,0,0,1,1,2,2,3,3],"right_children":[2,4,6,8,-1,-1,-1,-1,-1],"split_conditions":[9.717821E-1,9.6990985E-1,9.868869E-1,9.429097E-1,9.657179E-3,-7.430391E-3,2.1929444E-4,1.6449035E-4,-4.3408093E-3],"split_indices":[0,0,0,0,0,0,0,0,0],"split_type":[0,0,0,0,0,0,0,0,0],"sum_hessian":[2E2,1.97E2,3E0,1.96E2,1E0,2E0,1E0,1.9E2,6E0],"tree_param":{"num_deleted":"0","num_feature":"1","num_nodes":"9","size_leaf_vector":"1"}},{"base_weights":[-7.6056196E-5,-6.281381E-3,9.789794E-3,-2.3504884E-3,-2.4489058E-2,1.1999079E-1,-2.7651037E-3,-5.312679E-4,1.7951837E-2,7.1142972E-3,1.776895E-2,-6.751708E-3,6.5290695E-4],"categories":[],"categories_nodes":[],"categories_segments":[],"categories_sizes":[],"default_left":[0,0,0,0,0,0,0,0,0,0,0,0,0],"id":63,"left_children":[1,3,5,7,-1,9,11,-1,-1,-1,-1,-1,-1],"loss_changes":[1.2366876E-2,1.1572984E-1,1.0824964E-1,6.7217536E-2,0E0,9.9062845E-3,4.3169763E-2,0E0,0E0,0E0,0E0,0E0,0E0],"parents":[2147483647,0,0,1,1,2,2,3,3,5,5,6,6],"right_children":[2,4,6,8,-1,10,12,-1,-1,-1,-1,-1,-1],"split_conditions":[6.0754484E-1,6.01115E-1,6.335297E-1,5.986585E-1,-2.4489058E-2,6.3310146E-1,6.84233E-1,-5.312679E-4,1.7951837E-2,7.1142972E-3,1.776895E-2,-6.751708E-3,6.5290695E-4],"split_indices":[0,0,0,0,0,0,0,0,0,0,0,0,0],"split_type":[0,0,0,0,0,0,0,0,0,0,0,0,0],"sum_hessian":[2E2,1.23E2,7.7E1,1.22E2,1E0,7E0,7E1,1.21E2,1E0,5E0,2E0,8E0,6.2E1],"tree_param":{"num_deleted":"0","num_feature":"1","num_nodes":"13","size_leaf_vector":"1"}},{"base_weights":[-1.0169339E-5,7.720408E-3,-7.8226096E-4,-3.8483813E-2,2.0444985E-3,3.7866968E-4,-1.4510676E-2,8.2732765E-3,-1.5530054E-4],"categories":[],"categories_nodes":[],"categories_segments":[],"categories_sizes":[],"default_left":[0,0,0,0,0,0,0,0,0],"id":64,"left_children":[1,-1,3,5,7,-1,-1,-1,-1],"loss_changes":[1.2043305E-2,0E0,2.1393323E-2,6.364756E-2,5.4410167E-2,0E0,0E0,0E0,0E0],"parents":[2147483647,0,0,2,2,3,3,4,4],"right_children":[2,-1,4,6,8,-1,-1,-1,-1],"split_conditions":[6.9521307E-3,7.720408E-3,6.505159E-2,5.147875E-2,9.767211E-2,3.7866968E-4,-1.4510676E-2,8.2732765E-3,-1.5530054E-4],"split_indices":[0,0,0,0,0,0,0,0,0],"split_type":[0,0,0,0,0,0,0,0,0],"sum_hessian":[2E2,1E0,1.99E2,1.3E1,1.86E2,1E1,3E0,7E0,1.79E2],"tree_param":{"num_deleted":"0","num_feature":"1","num_nodes":"9","size_leaf_vector":"1"}},{"base_weights":[-6.4957203E-7,-1.4728372E-2,4.1007455E-3,-5.547068E-3,-2.0476222E-2,6.0012277E-2,-2.1837666E-3,-1.4871616E-3,1.2373744E-2,1.1840251E-2,3.7429724E-3,-2.5670419E-2,1.4164066E-4],"categories":[],"categories_nodes":[],"categories_segments":[],"categories_sizes":[],"default_left":[0,0,0,0,0,0,0,0,0,0,0,0,0],"id":65,"left_children":[1,3,5,7,-1,9,11,-1,-1,-1,-1,-1,-1],"loss_changes":[1.2201644E-2,7.563355E-2,5.5648573E-2,5.3677514E-2,0E0,1.6665835E-2,1.3139702E-1,0E0,0E0,0E0,0E0,0E0,0E0],"parents":[2147483647,0,0,1,1,2,2,3,3,5,5,6,6],"right_children":[2,4,6,8,-1,10,12,-1,-1,-1,-1,-1,-1],"split_conditions":[1.9598286E-1,1.8657006E-1,2.5877997E-1,1.8485446E-1,-2.0476222E-2,2.1233912E-1,2.7134904E-1,-1.4871616E-3,1.2373744E-2,1.1840251E-2,3.7429724E-3,-2.5670419E-2,1.4164066E-4],"split_indices":[0,0,0,0,0,0,0,0,0,0,0,0,0],"split_type":[0,0,0,0,0,0,0,0,0,0,0,0,0],"sum_hessian":[2E2,4.3E1,1.57E2,4.2E1,1E0,1.5E1,1.42E2,4E1,2E0,3E0,1.2E1,1E0,1.41E2],"tree_param":{"num_deleted":"0","num_feature":"1","num_nodes":"13","size_leaf_vector":"1"}},{"base_weights":[-9.7773416E-5,7.408744E-3,-8.391367E-4,-5.8075786E-2,9.2629425E-4,-1.5704274E-4,-1.703013E-2,1.755688E-2,-8.789186E-5],"categories":[],"categories_nodes":[],"categories_segments":[],"categories_sizes":[],"default_left":[0,0,0,0,0,0,0,0,0],"id":66,"left_children":[1,-1,3,5,7,-1,-1,-1,-1],"loss_changes":[1.1116806E-2,0E0,2.0263264E-2,3.7780605E-2,6.163135E-2,0E0,0E0,0E0,0E0],"parents":[2147483647,0,0,2,2,3,3,4,4],"right_children":[2,-1,4,6,8,-1,-1,-1,-1],"split_conditions":[6.9521307E-3,7.408744E-3,3.438852E-2,3.1429186E-2,3.688695E-2,-1.5704274E-4,-1.703013E-2,1.755688E-2,-8.789186E-5],"split_indices":[0,0,0,0,0,0,0,0,0],"split_type":[0,0,0,0,0,0,0,0,0],"sum_hessian":[2E2,1E0,1.99E2,5E0,1.94E2,4E0,1E0,1E0,1.93E2],"tree_param":{"num_deleted":"0","num_feature":"1","num_nodes":"9","size_leaf_vector":"1"}},{"base_weights":[-4.972436E-5,-6.9261054E-3,7.851328E-3,-3.3970995E-5,-1.06364906E-1,1.1324039E-1,6.582297E-4,-4.4974015E-4,2.2538627E-2,-1.7456269E-2,-4.417326E-3,1.5273543E-2,5.5309013E-3,-1.1895041E-2,4.7750995E-4],"categories":[],"categories_nodes":[],"categories_segments":[],"categories_sizes":[],"default_left":[0,0,0,0,0,0,0,0,0,0,0,0,0,0,0],"id":67,"left_children":[1,3,5,7,9,11,13,-1,-1,-1,-1,-1,-1,-1,-1],"loss_changes":[1.0974838E-2,7.401371E-2,7.118441E-2,1.03640705E-1,2.1978326E-2,5.280368E-3,4.4392772E-2,0E0,0E0,0E0,0E0,0E0,0E0,0E0,0E0],"parents":[2147483647,0,0,1,1,2,2,3,3,4,4,5,5,6,6],"right_children":[2,4,6,8,10,12,14,-1,-1,-1,-1,-1,-1,-1,-1],"split_conditions":[5.187906E-1,4.972485E-1,5.357747E-1,4.951769E-1,5.085707E-1,5.2273285E-1,5.4269606E-1,-4.4974015E-4,2.2538627E-2,-1.7456269E-2,-4.417326E-3,1.5273543E-2,5.5309013E-3,-1.1895041E-2,4.7750995E-4],"split_indices":[0,0,0,0,0,0,0,0,0,0,0,0,0,0,0],"split_type":[0,0,0,0,0,0,0,0,0,0,0,0,0,0,0],"sum_hessian":[2E2,1.07E2,9.3E1,1.01E2,6E0,5E0,8.8E1,1E2,1E0,2E0,4E0,2E0,3E0,2E0,8.6E1],"tree_param":{"num_deleted":"0","num_feature":"1","num_nodes":"15","size_leaf_vector":"1"}},{"base_weights":[3.02071E-6,2.890804E-3,-1.9545168E-2,-5.5928394E-4,8.626568E-2,-4.8581127E-2,1.3227801E-2,2.7619928E-4,-9.180118E-3,2.2534372E-3,9.313184E-3,-2.1579952E-3,-1.997982E-2,1.6015334E-2,-2.804533E-3],"categories":[],"categories_nodes":[],"categories_segments":[],"categories_sizes":[],"default_left":[0,0,0,0,0,0,0,0,0,0,0,0,0,0,0],"id":68,"left_children":[1,3,5,7,9,11,13,-1,-1,-1,-1,-1,-1,-1,-1],"loss_changes":[1.1403139E-2,5.0674763E-2,2.5384076E-2,5.1770285E-2,9.644553E-4,5.285091E-2,8.332456E-2,0E0,0E0,0E0,0E0,0E0,0E0,0E0,0E0],"parents":[2147483647,0,0,1,1,2,2,3,3,4,4,5,5,6,6],"right_children":[2,4,6,8,10,12,14,-1,-1,-1,-1,-1,-1,-1,-1],"split_conditions":[8.8721275E-1,8.607306E-1,9.3672997E-1,8.172222E-1,8.6310345E-1,9.2969763E-1,9.429097E-1,2.7619928E-4,-9.180118E-3,2.2534372E-3,9.313184E-3,-2.1579952E-3,-1.997982E-2,1.6015334E-2,-2.804533E-3],"split_indices":[0,0,0,0,0,0,0,0,0,0,0,0,0,0,0],"split_type":[0,0,0,0,0,0,0,0,0,0,0,0,0,0,0],"sum_hessian":[2E2,1.75E2,2.5E1,1.69E2,6E0,1.3E1,1.2E1,1.64E2,5E0,1E0,5E0,1.2E1,1E0,2E0,1E1],"tree_param":{"num_deleted":"0","num_feature":"1","num_nodes":"15","size_leaf_vector":"1"}},{"base_weights":[-2.845336E-5,-5.729432E-3,9.035006E-3,-1.987848E-3,-2.3297217E-2,8.405573E-2,-7.2623026E-3,-4.794575E-4,1.7021641E-2,3.8268182E-3,2.3918731E-2,-2.8379485E-2,6.0211885E-4],"categories":[],"categories_nodes":[],"categories_segments":[],"categories_sizes":[],"default_left":[0,0,0,0,0,0,0,0,0,0,0,0,0],"id":69,"left_children":[1,3,5,7,-1,9,11,-1,-1,-1,-1,-1,-1],"loss_changes":[1.0437555E-2,1.0496762E-1,9.597603E-2,6.0265742E-2,0E0,9.029005E-2,2.4047442E-1,0E0,0E0,0E0,0E0,0E0,0E0],"parents":[2147483647,0,0,1,1,2,2,3,3,5,5,6,6],"right_children":[2,4,6,8,-1,10,12,-1,-1,-1,-1,-1,-1],"split_conditions":[6.0754484E-1,6.01115E-1,6.7213553E-1,5.986585E-1,-2.3297217E-2,6.5998405E-1,6.84233E-1,-4.794575E-4,1.7021641E-2,3.8268182E-3,2.3918731E-2,-2.8379485E-2,6.0211885E-4],"split_indices":[0,0,0,0,0,0,0,0,0,0,0,0,0],"split_type":[0,0,0,0,0,0,0,0,0,0,0,0,0],"sum_hessian":[2E2,1.23E2,7.7E1,1.22E2,1E0,1.3E1,6.4E1,1.21E2,1E0,1.1E1,2E0,2E0,6.2E1],"tree_param":{"num_deleted":"0","num_feature":"1","num_nodes":"13","size_leaf_vector":"1"}},{"base_weights":[-5.9373197E-5,9.452097E-3,-5.6759156E-3,4.8020482E-4,2.2461744E-2,-1.6866358E-1,5.2372273E-3,7.8781525E-4,-6.061289E-3,-2.2158599E-2,-9.259294E-3,1.9813547E-2,-1.402347E-4],"categories":[],"categories_nodes":[],"categories_segments":[],"categories_sizes":[],"default_left":[0,0,0,0,0,0,0,0,0,0,0,0,0],"id":70,"left_children":[1,3,5,7,-1,9,11,-1,-1,-1,-1,-1,-1],"loss_changes":[1.07913865E-2,1.4467515E-1,2.267792E-1,3.347085E-2,0E0,1.16894245E-2,1.5396932E-1,0E0,0E0,0E0,0E0,0E0,0E0],"parents":[2147483647,0,0,1,1,2,2,3,3,5,5,6,6],"right_children":[2,4,6,8,-1,10,12,-1,-1,-1,-1,-1,-1],"split_conditions":[3.2320294E-1,3.1800348E-1,3.4920958E-1,2.9214466E-1,2.2461744E-2,3.3089802E-1,3.636296E-1,7.8781525E-4,-6.061289E-3,-2.2158599E-2,-9.259294E-3,1.9813547E-2,-1.402347E-4],"split_indices":[0,0,0,0,0,0,0,0,0,0,0,0,0],"split_type":[0,0,0,0,0,0,0,0,0,0,0,0,0],"sum_hessian":[2E2,7.4E1,1.26E2,7.2E1,2E0,7E0,1.19E2,6.5E1,7E0,3E0,4E0,3E0,1.16E2],"tree_param":{"num_deleted":"0","num_feature":"1","num_nodes":"13","size_leaf_vector":"1"}},{"base_weights":[-2.6349107E-5,-1.3699409E-2,3.781505E-3,-4.969275E-3,-1.9454757E-2,3.9311852E-2,-5.200799E-3,-1.3659752E-3,1.15457E-2,2.0968348E-3,2.0964295E-2,-1.55724455E-2,4.8774513E-4],"categories":[],"categories_nodes":[],"categories_segments":[],"categories_sizes":[],"default_left":[0,0,0,0,0,0,0,0,0,0,0,0,0],"id":71,"left_children":[1,3,5,7,-1,9,11,-1,-1,-1,-1,-1,-1],"loss_changes":[1.0516872E-2,6.8501696E-2,5.0629266E-2,4.6579268E-2,0E0,9.558715E-2,1.9342047E-1,0E0,0E0,0E0,0E0,0E0,0E0],"parents":[2147483647,0,0,1,1,2,2,3,3,5,5,6,6],"right_children":[2,4,6,8,-1,10,12,-1,-1,-1,-1,-1,-1],"split_conditions":[1.9598286E-1,1.8657006E-1,3.2320294E-1,1.8485446E-1,-1.9454757E-2,3.1800348E-1,3.4920958E-1,-1.3659752E-3,1.15457E-2,2.0968348E-3,2.0964295E-2,-1.55724455E-2,4.8774513E-4],"split_indices":[0,0,0,0,0,0,0,0,0,0,0,0,0],"split_type":[0,0,0,0,0,0,0,0,0,0,0,0,0],"sum_hessian":[2E2,4.3E1,1.57E2,4.2E1,1E0,3.1E1,1.26E2,4E1,2E0,2.9E1,2E0,7E0,1.19E2],"tree_param":{"num_deleted":"0","num_feature":"1","num_nodes":"13","size_leaf_vector":"1"}},{"base_weights":[-3.017285E-5,2.7497734E-3,-1.884711E-2,-2.0521693E-3,5.4427434E-2,-8.821884E-2,-5.9630214E-3,3.421884E-4,-3.081729E-3,1.9418081E-2,3.307355E-4,-9.962405E-3,-2.7001605E-3,8.459208E-3,-1.3924257E-3],"categories":[],"categories_nodes":[],"categories_segments":[],"categories_sizes":[],"default_left":[0,0,0,0,0,0,0,0,0,0,0,0,0,0,0],"id":72,"left_children":[1,3,5,7,9,11,13,-1,-1,-1,-1,-1,-1,-1,-1],"loss_changes":[1.0566151E-2,4.3786652E-2,2.2712525E-2,2.5614265E-2,1.0652083E-1,1.02771446E-4,1.775928E-2,0E0,0E0,0E0,0E0,0E0,0E0,0E0,0E0],"parents":[2147483647,0,0,1,1,2,2,3,3,4,4,5,5,6,6],"right_children":[2,4,6,8,10,12,14,-1,-1,-1,-1,-1,-1,-1,-1],"split_conditions":[8.8721275E-1,8.0812037E-1,8.960913E-1,6.7213553E-1,8.172222E-1,8.9482737E-1,8.971103E-1,3.421884E-4,-3.081729E-3,1.9418081E-2,3.307355E-4,-9.962405E-3,-2.7001605E-3,8.459208E-3,-1.3924257E-3],"split_indices":[0,0,0,0,0,0,0,0,0,0,0,0,0,0,0],"split_type":[0,0,0,0,0,0,0,0,0,0,0,0,0,0,0],"sum_hessian":[2E2,1.75E2,2.5E1,1.61E2,1.4E1,3E0,2.2E1,1.36E2,2.5E1,3E0,1.1E1,2E0,1E0,1E0,2.1E1],"tree_param":{"num_deleted":"0","num_feature":"1","num_nodes":"15","size_leaf_vector":"1"}},{"base_weights":[2.9627512E-5,7.0827543E-3,-6.784998E-4,-8.051014E-2,5.3449726E-4,-3.0261279E-5,-1.204626E-2,7.928743E-3,-6.736318E-5],"categories":[],"categories_nodes":[],"categories_segments":[],"categories_sizes":[],"default_left":[0,0,0,0,0,0,0,0,0],"id":73,"left_children":[1,-1,3,5,7,-1,-1,-1,-1],"loss_changes":[1.0124979E-2,0E0,1.9410143E-2,9.577008E-3,1.8891864E-2,0E0,0E0,0E0,0E0],"parents":[2147483647,0,0,2,2,3,3,4,4],"right_children":[2,-1,4,6,8,-1,-1,-1,-1],"split_conditions":[6.9521307E-3,7.0827543E-3,2.0584494E-2,1.658783E-2,3.1429186E-2,-3.0261279E-5,-1.204626E-2,7.928743E-3,-6.736318E-5],"split_indices":[0,0,0,0,0,0,0,0,0],"split_type":[0,0,0,0,0,0,0,0,0],"sum_hessian":[2E2,1E0,1.99E2,2E0,1.97E2,1E0,1E0,2E0,1.95E2],"tree_param":{"num_deleted":"0","num_feature":"1","num_nodes":"9","size_leaf_vector":"1"}},{"base_weights":[4.0922074E-5,1.0366277E-3,-4.9256735E-2,9.888312E-5,9.288616E-3,-6.7826444E-3,3.2261907E-4,1.4846974E-4,-3.7728176E-3],"categories":[],"categories_nodes":[],"categories_segments":[],"categories_sizes":[],"default_left":[0,0,0,0,0,0,0,0,0],"id":74,"left_children":[1,3,5,7,-1,-1,-1,-1,-1],"loss_changes":[9.917337E-3,1.704483E-2,4.117191E-3,1.0383007E-2,0E0,0E0,0E0,0E0,0E0],"parents":[2147483647,0,0,1,1,2,2,3,3],"right_children":[2,4,6,8,-1,-1,-1,-1,-1],"split_conditions":[9.717821E-1,9.6990985E-1,9.868869E-1,9.429097E-1,9.288616E-3,-6.7826444E-3,3.2261907E-4,1.4846974E-4,-3.7728176E-3],"split_indices":[0,0,0,0,0,0,0,0,0],"split_type":[0,0,0,0,0,0,0,0,0],"sum_hessian":[2E2,1.97E2,3E0,1.96E2,1E0,2E0,1E0,1.9E2,6E0],"tree_param":{"num_deleted":"0","num_feature":"1","num_nodes":"9","size_leaf_vector":"1"}},{"base_weights":[3.2866254E-5,-1.3208507E-2,3.7201291E-3,-4.90955E-3,-1.8503183E-2,1.0759705E-1,1.0154336E-3,-1.3013257E-3,1.0747764E-2,6.553978E-4,1.3909342E-2,-2.2110704E-2,3.8935474E-4],"categories":[],"categories_nodes":[],"categories_segments":[],"categories_sizes":[],"default_left":[0,0,0,0,0,0,0,0,0,0,0,0,0],"id":75,"left_children":[1,3,5,7,-1,9,11,-1,-1,-1,-1,-1,-1],"loss_changes":[9.862847E-3,6.1833568E-2,4.4281706E-2,4.0561013E-2,0E0,1.1818342E-2,9.9951416E-2,0E0,0E0,0E0,0E0,0E0,0E0],"parents":[2147483647,0,0,1,1,2,2,3,3,5,5,6,6],"right_children":[2,4,6,8,-1,10,12,-1,-1,-1,-1,-1,-1],"split_conditions":[1.9598286E-1,1.8657006E-1,2.1233912E-1,1.8485446E-1,-1.8503183E-2,1.9871569E-1,2.2210781E-1,-1.3013257E-3,1.0747764E-2,6.553978E-4,1.3909342E-2,-2.2110704E-2,3.8935474E-4],"split_indices":[0,0,0,0,0,0,0,0,0,0,0,0,0],"split_type":[0,0,0,0,0,0,0,0,0,0,0,0,0],"sum_hessian":[2E2,4.3E1,1.57E2,4.2E1,1E0,3E0,1.54E2,4E1,2E0,1E0,2E0,1E0,1.53E2],"tree_param":{"num_deleted":"0","num_feature":"1","num_nodes":"13","size_leaf_vector":"1"}},{"base_weights":[-5.1081402E-5,6.7862603E-3,-7.2996283E-4,-5.4050166E-2,9.144022E-4,-5.6754052E-5,-1.6073165E-2,1.6784493E-2,-8.1124446E-5],"categories":[],"categories_nodes":[],"categories_segments":[],"categories_sizes":[],"default_left":[0,0,0,0,0,0,0,0,0],"id":76,"left_children":[1,-1,3,5,7,-1,-1,-1,-1],"loss_changes":[9.31671E-3,0E0,1.7584996E-2,3.4142412E-2,5.6308463E-2,0E0,0E0,0E0,0E0],"parents":[2147483647,0,0,2,2,3,3,4,4],"right_children":[2,-1,4,6,8,-1,-1,-1,-1],"split_conditions":[6.9521307E-3,6.7862603E-3,3.438852E-2,3.1429186E-2,3.688695E-2,-5.6754052E-5,-1.6073165E-2,1.6784493E-2,-8.1124446E-5],"split_indices":[0,0,0,0,0,0,0,0,0],"split_type":[0,0,0,0,0,0,0,0,0],"sum_hessian":[2E2,1E0,1.99E2,5E0,1.94E2,4E0,1E0,1E0,1.93E2],"tree_param":{"num_deleted":"0","num_feature":"1","num_nodes":"9","size_leaf_vector":"1"}},{"base_weights":[-9.360449E-6,-5.3351154E-3,8.457345E-3,-1.7709605E-3,-2.218631E-2,1.0623897E-1,-2.6794209E-3,-4.4275433E-4,1.6116608E-2,6.0582818E-3,1.6213829E-2,-8.893152E-3,3.797294E-4],"categories":[],"categories_nodes":[],"categories_segments":[],"categories_sizes":[],"default_left":[0,0,0,0,0,0,0,0,0,0,0,0,0],"id":77,"left_children":[1,3,5,7,-1,9,11,-1,-1,-1,-1,-1,-1],"loss_changes":[9.108531E-3,9.530276E-2,8.52244E-2,5.3954825E-2,0E0,1.0594383E-2,4.000044E-2,0E0,0E0,0E0,0E0,0E0,0E0],"parents":[2147483647,0,0,1,1,2,2,3,3,5,5,6,6],"right_children":[2,4,6,8,-1,10,12,-1,-1,-1,-1,-1,-1],"split_conditions":[6.0754484E-1,6.01115E-1,6.335297E-1,5.986585E-1,-2.218631E-2,6.3310146E-1,6.5998405E-1,-4.4275433E-4,1.6116608E-2,6.0582818E-3,1.6213829E-2,-8.893152E-3,3.797294E-4],"split_indices":[0,0,0,0,0,0,0,0,0,0,0,0,0],"split_type":[0,0,0,0,0,0,0,0,0,0,0,0,0],"sum_hessian":[2E2,1.23E2,7.7E1,1.22E2,1E0,7E0,7E1,1.21E2,1E0,5E0,2E0,4E0,6.6E1],"tree_param":{"num_deleted":"0","num_feature":"1","num_nodes":"13","size_leaf_vector":"1"}},{"base_weights":[2.7615855E-5,9.6666126E-4,-4.6462037E-2,7.920406E-5,8.789787E-3,-6.376331E-3,2.7208924E-4,2.5188664E-4,-1.9441694E-3],"categories":[],"categories_nodes":[],"categories_segments":[],"categories_sizes":[],"default_left":[0,0,0,0,0,0,0,0,0],"id":78,"left_children":[1,3,5,7,-1,-1,-1,-1,-1],"loss_changes":[8.819747E-3,1.5268289E-2,3.5772026E-3,9.430977E-3,0E0,0E0,0E0,0E0,0E0],"parents":[2147483647,0,0,1,1,2,2,3,3],"right_children":[2,4,6,8,-1,-1,-1,-1,-1],"split_conditions":[9.717821E-1,9.6990985E-1,9.868869E-1,8.8721275E-1,8.789787E-3,-6.376331E-3,2.7208924E-4,2.5188664E-4,-1.9441694E-3],"split_indices":[0,0,0,0,0,0,0,0,0],"split_type":[0,0,0,0,0,0,0,0,0],"sum_hessian":[2E2,1.97E2,3E0,1.96E2,1E0,2E0,1E0,1.75E2,2.1E1],"tree_param":{"num_deleted":"0","num_feature":"1","num_nodes":"9","size_leaf_vector":"1"}},{"base_weights":[2.9794835E-5,-3.8048544E-3,1.138278E-2,2.154238E-3,-9.806545E-2,6.3263565E-2,-9.9576125E-3,-2.7514683E-4,1.38102025E-2,-2.6447555E-2,-1.2737483E-3,1.9462273E-3,1.7885154E-2,-1.3552429E-2,5.1078084E-4],"categories":[],"categories_nodes":[],"categories_segments":[],"categories_sizes":[],"default_left":[0,0,0,0,0,0,0,0,0,0,0,0,0,0,0],"id":79,"left_children":[1,3,5,7,9,11,13,-1,-1,-1,-1,-1,-1,-1,-1],"loss_changes":[8.793787E-3,8.50291E-2,5.7094924E-2,9.574955E-2,1.2442618E-1,7.246269E-2,7.068568E-2,0E0,0E0,0E0,0E0,0E0,0E0,0E0,0E0],"parents":[2147483647,0,0,1,1,2,2,3,3,4,4,5,5,6,6],"right_children":[2,4,6,8,10,12,14,-1,-1,-1,-1,-1,-1,-1,-1],"split_conditions":[7.6078504E-1,7.080726E-1,8.172222E-1,6.84233E-1,7.2595567E-1,8.0812037E-1,8.3244264E-1,-2.7514683E-4,1.38102025E-2,-2.6447555E-2,-1.2737483E-3,1.9462273E-3,1.7885154E-2,-1.3552429E-2,5.1078084E-4],"split_indices":[0,0,0,0,0,0,0,0,0,0,0,0,0,0,0],"split_type":[0,0,0,0,0,0,0,0,0,0,0,0,0,0,0],"sum_hessian":[2E2,1.5E2,5E1,1.42E2,8E0,1.4E1,3.6E1,1.38E2,4E0,2E0,6E0,1.1E1,3E0,3E0,3.3E1],"tree_param":{"num_deleted":"0","num_feature":"1","num_nodes":"15","size_leaf_vector":"1"}},{"base_weights":[-9.987782E-6,6.4702453E-3,-6.570622E-4,-7.536757E-2,4.7823365E-4,5.502999E-5,-1.1360166E-2,7.5118663E-3,-6.666619E-5],"categories":[],"categories_nodes":[],"categories_segments":[],"categories_sizes":[],"default_left":[0,0,0,0,0,0,0,0,0],"id":80,"left_children":[1,-1,3,5,7,-1,-1,-1,-1],"loss_changes":[8.45914E-3,0E0,1.699975E-2,8.770466E-3,1.6970266E-2,0E0,0E0,0E0,0E0],"parents":[2147483647,0,0,2,2,3,3,4,4],"right_children":[2,-1,4,6,8,-1,-1,-1,-1],"split_conditions":[6.9521307E-3,6.4702453E-3,2.0584494E-2,1.658783E-2,3.1429186E-2,5.502999E-5,-1.1360166E-2,7.5118663E-3,-6.666619E-5],"split_indices":[0,0,0,0,0,0,0,0,0],"split_type":[0,0,0,0,0,0,0,0,0],"sum_hessian":[2E2,1E0,1.99E2,2E0,1.97E2,1E0,1E0,2E0,1.95E2],"tree_param":{"num_deleted":"0","num_feature":"1","num_nodes":"9","size_leaf_vector":"1"}},{"base_weights":[3.9844667E-6,-2.036022E-2,2.118279E-3,1.6195742E-2,-7.2649136E-2,1.7280677E-2,-1.6865669E-3,-2.6626873E-3,6.345617E-3,-1.3100027E-2,-1.14384E-3,-1.6373437E-2,1.0540507E-4],"categories":[],"categories_nodes":[],"categories_segments":[],"categories_sizes":[],"default_left":[0,0,0,0,0,0,0,0,0,0,0,0,0],"id":81,"left_children":[1,3,5,7,9,-1,11,-1,-1,-1,-1,-1,-1],"loss_changes":[8.69737E-3,3.7494566E-2,1.1913959E-1,2.597542E-2,2.7075294E-2,0E0,8.011257E-2,0E0,0E0,0E0,0E0,0E0,0E0],"parents":[2147483647,0,0,1,1,2,2,3,3,4,4,6,6],"right_children":[2,4,6,8,10,-1,12,-1,-1,-1,-1,-1,-1],"split_conditions":[8.8492505E-2,5.147875E-2,9.767211E-2,3.438852E-2,6.505159E-2,1.7280677E-2,1.1005192E-1,-2.6626873E-3,6.345617E-3,-1.3100027E-2,-1.14384E-3,-1.6373437E-2,1.0540507E-4],"split_indices":[0,0,0,0,0,0,0,0,0,0,0,0,0],"split_type":[0,0,0,0,0,0,0,0,0,0,0,0,0],"sum_hessian":[2E2,1.8E1,1.82E2,1.1E1,7E0,3E0,1.79E2,6E0,5E0,3E0,4E0,2E0,1.77E2],"tree_param":{"num_deleted":"0","num_feature":"1","num_nodes":"13","size_leaf_vector":"1"}},{"base_weights":[-4.3909793E-5,8.317889E-3,-4.9816337E-3,-7.583652E-4,1.6961098E-1,-1.4236483E-1,4.2187595E-3,7.526243E-4,-7.876205E-3,4.6026125E-3,1.954639E-2,-1.9351592E-2,-7.2970986E-3,1.8268127E-2,-1.918581E-4],"categories":[],"categories_nodes":[],"categories_segments":[],"categories_sizes":[],"default_left":[0,0,0,0,0,0,0,0,0,0,0,0,0,0,0],"id":82,"left_children":[1,3,5,7,9,11,13,-1,-1,-1,-1,-1,-1,-1,-1],"loss_changes":[8.3403755E-3,1.0992391E-1,1.6112599E-1,4.712134E-2,3.7836656E-3,1.4275521E-2,1.317847E-1,0E0,0E0,0E0,0E0,0E0,0E0,0E0,0E0],"parents":[2147483647,0,0,1,1,2,2,3,3,4,4,5,5,6,6],"right_children":[2,4,6,8,10,12,14,-1,-1,-1,-1,-1,-1,-1,-1],"split_conditions":[3.2320294E-1,3.1435597E-1,3.4920958E-1,2.9214466E-1,3.1800348E-1,3.3089802E-1,3.636296E-1,7.526243E-4,-7.876205E-3,4.6026125E-3,1.954639E-2,-1.9351592E-2,-7.2970986E-3,1.8268127E-2,-1.918581E-4],"split_indices":[0,0,0,0,0,0,0,0,0,0,0,0,0,0,0],"split_type":[0,0,0,0,0,0,0,0,0,0,0,0,0,0,0],"sum_hessian":[2E2,7.4E1,1.26E2,7.1E1,3E0,7E0,1.19E2,6.5E1,6E0,1E0,2E0,3E0,4E0,3E0,1.16E2],"tree_param":{"num_deleted":"0","num_feature":"1","num_nodes":"15","size_leaf_vector":"1"}},{"base_weights":[2.5403144E-6,-1.6176658E-2,2.7146454E-3,9.686325E-3,-2.4355127E-2,2.1404758E-2,2.4150286E-4,-1.0754694E-3,1.7679937E-2,-1.1525433E-2,1.590919E-4],"categories":[],"categories_nodes":[],"categories_segments":[],"categories_sizes":[],"default_left":[0,0,0,0,0,0,0,0,0,0,0],"id":83,"left_children":[1,3,5,7,-1,-1,9,-1,-1,-1,-1],"loss_changes":[8.863731E-3,1.728961E-1,9.036787E-2,9.413237E-2,0E0,0E0,2.6989892E-2,0E0,0E0,0E0,0E0],"parents":[2147483647,0,0,1,1,2,2,3,3,6,6],"right_children":[2,4,6,8,-1,-1,10,-1,-1,-1,-1],"split_conditions":[1.2203824E-1,1.19594246E-1,1.3752094E-1,1.1347352E-1,-2.4355127E-2,2.1404758E-2,1.3949387E-1,-1.0754694E-3,1.7679937E-2,-1.1525433E-2,1.590919E-4],"split_indices":[0,0,0,0,0,0,0,0,0,0,0],"split_type":[0,0,0,0,0,0,0,0,0,0,0],"sum_hessian":[2E2,2.8E1,1.72E2,2.6E1,2E0,1E0,1.71E2,2.4E1,2E0,1E0,1.7E2],"tree_param":{"num_deleted":"0","num_feature":"1","num_nodes":"11","size_leaf_vector":"1"}},{"base_weights":[1.3674373E-5,-1.1294027E-2,3.538064E-3,-2.5873743E-3,-2.1025335E-2,7.0363365E-2,-2.0943955E-3,-1.1339145E-3,1.2955164E-2,8.677911E-3,3.948444E-3,-2.4554884E-2,1.3492897E-4],"categories":[],"categories_nodes":[],"categories_segments":[],"categories_sizes":[],"default_left":[0,0,0,0,0,0,0,0,0,0,0,0,0],"id":84,"left_children":[1,3,5,7,-1,9,11,-1,-1,-1,-1,-1,-1],"loss_changes":[8.050362E-3,8.260495E-2,5.8111556E-2,5.582216E-2,0E0,2.6563779E-3,1.20219715E-1,0E0,0E0,0E0,0E0,0E0,0E0],"parents":[2147483647,0,0,1,1,2,2,3,3,5,5,6,6],"right_children":[2,4,6,8,-1,10,12,-1,-1,-1,-1,-1,-1],"split_conditions":[2.2210781E-1,2.1233912E-1,2.5877997E-1,1.9871569E-1,-2.1025335E-2,2.4185228E-1,2.7134904E-1,-1.1339145E-3,1.2955164E-2,8.677911E-3,3.948444E-3,-2.4554884E-2,1.3492897E-4],"split_indices":[0,0,0,0,0,0,0,0,0,0,0,0,0],"split_type":[0,0,0,0,0,0,0,0,0,0,0,0,0],"sum_hessian":[2E2,4.7E1,1.53E2,4.6E1,1E0,1.1E1,1.42E2,4.4E1,2E0,6E0,5E0,1E0,1.41E2],"tree_param":{"num_deleted":"0","num_feature":"1","num_nodes":"13","size_leaf_vector":"1"}},{"base_weights":[-9.215901E-5,6.3527017E-3,-7.2789E-4,-6.885288E-2,3.0798308E-4,2.5825202E-4,-1.0586184E-2,7.2857062E-3,-8.040334E-5],"categories":[],"categories_nodes":[],"categories_segments":[],"categories_sizes":[],"default_left":[0,0,0,0,0,0,0,0,0],"id":85,"left_children":[1,-1,3,5,7,-1,-1,-1,-1],"loss_changes":[8.175622E-3,0E0,1.4134973E-2,8.20464E-3,1.6032383E-2,0E0,0E0,0E0,0E0],"parents":[2147483647,0,0,2,2,3,3,4,4],"right_children":[2,-1,4,6,8,-1,-1,-1,-1],"split_conditions":[6.9521307E-3,6.3527017E-3,2.0584494E-2,1.658783E-2,3.1429186E-2,2.5825202E-4,-1.0586184E-2,7.2857062E-3,-8.040334E-5],"split_indices":[0,0,0,0,0,0,0,0,0],"split_type":[0,0,0,0,0,0,0,0,0],"sum_hessian":[2E2,1E0,1.99E2,2E0,1.97E2,1E0,1E0,2E0,1.95E2],"tree_param":{"num_deleted":"0","num_feature":"1","num_nodes":"9","size_leaf_vector":"1"}},{"base_weights":[-6.687011E-5,8.163662E-4,-4.377035E-2,-1.1532606E-3,3.796068E-2,-5.989328E-3,2.2992193E-4,8.5427506E-5,-1.8928498E-2,1.5017422E-2,-8.8644866E-4],"categories":[],"categories_nodes":[],"categories_segments":[],"categories_sizes":[],"default_left":[0,0,0,0,0,0,0,0,0,0,0],"id":86,"left_children":[1,3,5,7,9,-1,-1,-1,-1,-1,-1],"loss_changes":[7.7944333E-3,1.4529543E-2,3.108813E-3,7.154343E-2,5.3875394E-2,0E0,0E0,0E0,0E0,0E0,0E0],"parents":[2147483647,0,0,1,1,2,2,3,3,4,4],"right_children":[2,4,6,8,10,-1,-1,-1,-1,-1,-1],"split_conditions":[9.717821E-1,9.3672997E-1,9.868869E-1,9.2969763E-1,9.429097E-1,-5.989328E-3,2.2992193E-4,8.5427506E-5,-1.8928498E-2,1.5017422E-2,-8.8644866E-4],"split_indices":[0,0,0,0,0,0,0,0,0,0,0],"split_type":[0,0,0,0,0,0,0,0,0,0,0],"sum_hessian":[2E2,1.97E2,3E0,1.88E2,9E0,2E0,1E0,1.87E2,1E0,2E0,7E0],"tree_param":{"num_deleted":"0","num_feature":"1","num_nodes":"11","size_leaf_vector":"1"}},{"base_weights":[-1.1226772E-4,-4.970444E-3,7.612426E-3,1.9700143E-3,-1.05853334E-1,7.452285E-2,-6.9161654E-3,-2.774953E-4,1.8320376E-2,-1.879713E-2,-1.8988306E-3,3.1396528E-3,2.2218721E-2,-2.6364684E-2,5.418886E-4],"categories":[],"categories_nodes":[],"categories_segments":[],"categories_sizes":[],"default_left":[0,0,0,0,0,0,0,0,0,0,0,0,0,0,0],"id":87,"left_children":[1,3,5,7,9,11,13,-1,-1,-1,-1,-1,-1,-1,-1],"loss_changes":[7.580949E-3,8.703005E-2,7.634032E-2,1.0112231E-1,5.3496175E-2,8.217919E-2,2.0726977E-1,0E0,0E0,0E0,0E0,0E0,0E0,0E0,0E0],"parents":[2147483647,0,0,1,1,2,2,3,3,4,4,5,5,6,6],"right_children":[2,4,6,8,10,12,14,-1,-1,-1,-1,-1,-1,-1,-1],"split_conditions":[6.0754484E-1,5.552008E-1,6.7213553E-1,5.4269606E-1,5.9241456E-1,6.5998405E-1,6.84233E-1,-2.774953E-4,1.8320376E-2,-1.879713E-2,-1.8988306E-3,3.1396528E-3,2.2218721E-2,-2.6364684E-2,5.418886E-4],"split_indices":[0,0,0,0,0,0,0,0,0,0,0,0,0,0,0],"split_type":[0,0,0,0,0,0,0,0,0,0,0,0,0,0,0],"sum_hessian":[2E2,1.23E2,7.7E1,1.16E2,7E0,1.3E1,6.4E1,1.14E2,2E0,3E0,4E0,1.1E1,2E0,2E0,6.2E1],"tree_param":{"num_deleted":"0","num_feature":"1","num_nodes":"15","size_leaf_vector":"1"}},{"base_weights":[-1.16545765E-4,8.075474E-3,-4.9534347E-3,-4.0310374E-4,1.5867099E-1,-1.3147825E-1,3.5228317E-3,7.1997376E-4,-7.202945E-3,7.018649E-3,2.1206228E-2,-1.7901836E-2,-6.7150528E-3,1.6896402E-2,-2.1633871E-4],"categories":[],"categories_nodes":[],"categories_segments":[],"categories_sizes":[],"default_left":[0,0,0,0,0,0,0,0,0,0,0,0,0,0,0],"id":88,"left_children":[1,3,5,7,9,11,13,-1,-1,-1,-1,-1,-1,-1,-1],"loss_changes":[8.004404E-3,9.582665E-2,1.3666536E-1,3.9727185E-2,4.0132925E-3,1.2444004E-2,1.1325371E-1,0E0,0E0,0E0,0E0,0E0,0E0,0E0,0E0],"parents":[2147483647,0,0,1,1,2,2,3,3,4,4,5,5,6,6],"right_children":[2,4,6,8,10,12,14,-1,-1,-1,-1,-1,-1,-1,-1],"split_conditions":[3.2320294E-1,3.1435597E-1,3.4920958E-1,2.9214466E-1,3.2078007E-1,3.3089802E-1,3.636296E-1,7.1997376E-4,-7.202945E-3,7.018649E-3,2.1206228E-2,-1.7901836E-2,-6.7150528E-3,1.6896402E-2,-2.1633871E-4],"split_indices":[0,0,0,0,0,0,0,0,0,0,0,0,0,0,0],"split_type":[0,0,0,0,0,0,0,0,0,0,0,0,0,0,0],"sum_hessian":[2E2,7.4E1,1.26E2,7.1E1,3E0,7E0,1.19E2,6.5E1,6E0,2E0,1E0,3E0,4E0,3E0,1.16E2],"tree_param":{"num_deleted":"0","num_feature":"1","num_nodes":"15","size_leaf_vector":"1"}},{"base_weights":[-3.619974E-5,-1.1023654E-2,3.3886964E-3,-2.7490763E-3,-1.999644E-2,5.6072596E-2,-2.7000166E-3,-1.091236E-3,1.2061654E-2,2.3126039E-3,1.4913077E-2,-6.750544E-3,1.2480396E-4],"categories":[],"categories_nodes":[],"categories_segments":[],"categories_sizes":[],"default_left":[0,0,0,0,0,0,0,0,0,0,0,0,0],"id":89,"left_children":[1,3,5,7,-1,9,11,-1,-1,-1,-1,-1,-1],"loss_changes":[7.6011643E-3,7.449372E-2,4.955108E-2,4.8648424E-2,0E0,4.5606337E-2,3.5648156E-2,0E0,0E0,0E0,0E0,0E0,0E0],"parents":[2147483647,0,0,1,1,2,2,3,3,5,5,6,6],"right_children":[2,4,6,8,-1,10,12,-1,-1,-1,-1,-1,-1],"split_conditions":[2.2210781E-1,2.1233912E-1,2.848405E-1,1.9871569E-1,-1.999644E-2,2.7134904E-1,3.1098232E-1,-1.091236E-3,1.2061654E-2,2.3126039E-3,1.4913077E-2,-6.750544E-3,1.2480396E-4],"split_indices":[0,0,0,0,0,0,0,0,0,0,0,0,0],"split_type":[0,0,0,0,0,0,0,0,0,0,0,0,0],"sum_hessian":[2E2,4.7E1,1.53E2,4.6E1,1E0,1.5E1,1.38E2,4.4E1,2E0,1.2E1,3E0,7E0,1.31E2],"tree_param":{"num_deleted":"0","num_feature":"1","num_nodes":"13","size_leaf_vector":"1"}},{"base_weights":[-2.4753126E-5,2.318143E-3,-1.5883405E-2,-7.4469124E-4,7.63701E-2,-6.0207166E-2,3.6151998E-3,2.1403702E-4,-7.995977E-3,1.9703507E-3,8.253061E-3,-9.293711E-3,-3.3807668E-3,1.0870668E-2,-8.262476E-4],"categories":[],"categories_nodes":[],"categories_segments":[],"categories_sizes":[],"default_left":[0,0,0,0,0,0,0,0,0,0,0,0,0,0,0],"id":90,"left_children":[1,3,5,7,9,11,13,-1,-1,-1,-1,-1,-1,-1,-1],"loss_changes":[7.5050103E-3,3.9975226E-2,2.2688199E-2,3.9023E-2,8.1752613E-4,3.7704427E-3,2.4614796E-2,0E0,0E0,0E0,0E0,0E0,0E0,0E0,0E0],"parents":[2147483647,0,0,1,1,2,2,3,3,4,4,5,5,6,6],"right_children":[2,4,6,8,10,12,14,-1,-1,-1,-1,-1,-1,-1,-1],"split_conditions":[8.8721275E-1,8.607306E-1,9.075665E-1,8.172222E-1,8.6310345E-1,8.9482737E-1,9.082659E-1,2.1403702E-4,-7.995977E-3,1.9703507E-3,8.253061E-3,-9.293711E-3,-3.3807668E-3,1.0870668E-2,-8.262476E-4],"split_indices":[0,0,0,0,0,0,0,0,0,0,0,0,0,0,0],"split_type":[0,0,0,0,0,0,0,0,0,0,0,0,0,0,0],"sum_hessian":[2E2,1.75E2,2.5E1,1.69E2,6E0,7E0,1.8E1,1.64E2,5E0,1E0,5E0,2E0,5E0,1E0,1.7E1],"tree_param":{"num_deleted":"0","num_feature":"1","num_nodes":"15","size_leaf_vector":"1"}},{"base_weights":[-2.3218974E-5,-3.6058764E-3,1.0584712E-2,-2.578288E-4,-1.6869029E-2,1.37093365E-2,2.6232693E-3,-3.1593497E-4,8.393784E-3,-1.8574376E-2,1.0417243E-3],"categories":[],"categories_nodes":[],"categories_segments":[],"categories_sizes":[],"default_left":[0,0,0,0,0,0,0,0,0,0,0],"id":91,"left_children":[1,3,5,7,-1,-1,9,-1,-1,-1,-1],"loss_changes":[7.677087E-3,8.341578E-2,5.1007126E-2,3.6665216E-2,0E0,0E0,7.387319E-2,0E0,0E0,0E0,0E0],"parents":[2147483647,0,0,1,1,2,2,3,3,6,6],"right_children":[2,4,6,8,-1,-1,10,-1,-1,-1,-1],"split_conditions":[7.6078504E-1,7.319939E-1,7.709672E-1,7.2595567E-1,-1.6869029E-2,1.37093365E-2,7.7127033E-1,-3.1593497E-4,8.393784E-3,-1.8574376E-2,1.0417243E-3],"split_indices":[0,0,0,0,0,0,0,0,0,0,0],"split_type":[0,0,0,0,0,0,0,0,0,0,0],"sum_hessian":[2E2,1.5E2,5E1,1.48E2,2E0,2E0,4.8E1,1.44E2,4E0,1E0,4.7E1],"tree_param":{"num_deleted":"0","num_feature":"1","num_nodes":"11","size_leaf_vector":"1"}},{"base_weights":[-8.364192E-5,7.898739E-3,-4.7969874E-3,-2.090493E-3,1.2312331E-1,-1.21427596E-1,3.0183613E-3,6.4645155E-4,-1.1459851E-2,6.7168884E-3,2.0144774E-2,-1.6560918E-2,-6.179681E-3,1.5627455E-2,-2.2469643E-4],"categories":[],"categories_nodes":[],"categories_segments":[],"categories_sizes":[],"default_left":[0,0,0,0,0,0,0,0,0,0,0,0,0,0,0],"id":92,"left_children":[1,3,5,7,9,11,13,-1,-1,-1,-1,-1,-1,-1,-1],"loss_changes":[7.6002562E-3,8.658276E-2,1.1612813E-1,6.8116315E-2,1.2764566E-2,1.0842547E-2,9.718438E-2,0E0,0E0,0E0,0E0,0E0,0E0,0E0,0E0],"parents":[2147483647,0,0,1,1,2,2,3,3,4,4,5,5,6,6],"right_children":[2,4,6,8,10,12,14,-1,-1,-1,-1,-1,-1,-1,-1],"split_conditions":[3.2320294E-1,3.1098232E-1,3.4920958E-1,2.9214466E-1,3.2078007E-1,3.3089802E-1,3.636296E-1,6.4645155E-4,-1.1459851E-2,6.7168884E-3,2.0144774E-2,-1.6560918E-2,-6.179681E-3,1.5627455E-2,-2.2469643E-4],"split_indices":[0,0,0,0,0,0,0,0,0,0,0,0,0,0,0],"split_type":[0,0,0,0,0,0,0,0,0,0,0,0,0,0,0],"sum_hessian":[2E2,7.4E1,1.26E2,6.9E1,5E0,7E0,1.19E2,6.5E1,4E0,4E0,1E0,3E0,4E0,3E0,1.16E2],"tree_param":{"num_deleted":"0","num_feature":"1","num_nodes":"15","size_leaf_vector":"1"}},{"base_weights":[-3.1936597E-5,6.0360073E-3,-6.3569704E-4,-4.8799098E-2,8.4951374E-4,1.568842E-4,-1.503194E-2,1.5732417E-2,-7.680059E-5],"categories":[],"categories_nodes":[],"categories_segments":[],"categories_sizes":[],"default_left":[0,0,0,0,0,0,0,0,0],"id":93,"left_children":[1,-1,3,5,7,-1,-1,-1,-1],"loss_changes":[7.3672943E-3,0E0,1.4348016E-2,3.0916035E-2,4.9475484E-2,0E0,0E0,0E0,0E0],"parents":[2147483647,0,0,2,2,3,3,4,4],"right_children":[2,-1,4,6,8,-1,-1,-1,-1],"split_conditions":[6.9521307E-3,6.0360073E-3,3.438852E-2,3.1429186E-2,3.688695E-2,1.568842E-4,-1.503194E-2,1.5732417E-2,-7.680059E-5],"split_indices":[0,0,0,0,0,0,0,0,0],"split_type":[0,0,0,0,0,0,0,0,0],"sum_hessian":[2E2,1E0,1.99E2,5E0,1.94E2,4E0,1E0,1E0,1.93E2],"tree_param":{"num_deleted":"0","num_feature":"1","num_nodes":"9","size_leaf_vector":"1"}},{"base_weights":[5.186271E-6,-1.0731935E-2,3.3517876E-3,-2.866655E-3,-1.9020004E-2,6.793775E-2,-1.1255321E-3,-1.0478303E-3,1.1226363E-2,1.6832391E-3,7.861003E-3,-1.030257E-2,1.7528214E-4],"categories":[],"categories_nodes":[],"categories_segments":[],"categories_sizes":[],"default_left":[0,0,0,0,0,0,0,0,0,0,0,0,0],"id":94,"left_children":[1,3,5,7,-1,9,11,-1,-1,-1,-1,-1,-1],"loss_changes":[7.258476E-3,6.720996E-2,4.460895E-2,4.2363897E-2,0E0,4.130915E-3,4.2709768E-2,0E0,0E0,0E0,0E0,0E0,0E0],"parents":[2147483647,0,0,1,1,2,2,3,3,5,5,6,6],"right_children":[2,4,6,8,-1,10,12,-1,-1,-1,-1,-1,-1],"split_conditions":[2.2210781E-1,2.1233912E-1,2.517823E-1,1.9871569E-1,-1.9020004E-2,2.2793517E-1,2.7134904E-1,-1.0478303E-3,1.1226363E-2,1.6832391E-3,7.861003E-3,-1.030257E-2,1.7528214E-4],"split_indices":[0,0,0,0,0,0,0,0,0,0,0,0,0],"split_type":[0,0,0,0,0,0,0,0,0,0,0,0,0],"sum_hessian":[2E2,4.7E1,1.53E2,4.6E1,1E0,9E0,1.44E2,4.4E1,2E0,2E0,7E0,3E0,1.41E2],"tree_param":{"num_deleted":"0","num_feature":"1","num_nodes":"13","size_leaf_vector":"1"}},{"base_weights":[-4.222292E-5,2.208533E-3,-1.5276485E-2,-5.7153235E-4,6.94089E-2,-4.1654132E-2,1.4305324E-2,2.1042158E-4,-7.4059353E-3,1.8260599E-3,7.489019E-3,-1.715206E-3,-1.8009054E-2,1.3980289E-2,-2.122177E-3],"categories":[],"categories_nodes":[],"categories_segments":[],"categories_sizes":[],"default_left":[0,0,0,0,0,0,0,0,0,0,0,0,0,0,0],"id":95,"left_children":[1,3,5,7,9,11,13,-1,-1,-1,-1,-1,-1,-1,-1],"loss_changes":[6.9257487E-3,3.2920238E-2,2.0883637E-2,3.358377E-2,5.9496984E-4,4.4398777E-2,6.0928196E-2,0E0,0E0,0E0,0E0,0E0,0E0,0E0,0E0],"parents":[2147483647,0,0,1,1,2,2,3,3,4,4,5,5,6,6],"right_children":[2,4,6,8,10,12,14,-1,-1,-1,-1,-1,-1,-1,-1],"split_conditions":[8.8721275E-1,8.607306E-1,9.3672997E-1,8.172222E-1,8.6310345E-1,9.2969763E-1,9.429097E-1,2.1042158E-4,-7.4059353E-3,1.8260599E-3,7.489019E-3,-1.715206E-3,-1.8009054E-2,1.3980289E-2,-2.122177E-3],"split_indices":[0,0,0,0,0,0,0,0,0,0,0,0,0,0,0],"split_type":[0,0,0,0,0,0,0,0,0,0,0,0,0,0,0],"sum_hessian":[2E2,1.75E2,2.5E1,1.69E2,6E0,1.3E1,1.2E1,1.64E2,5E0,1E0,5E0,1.2E1,1E0,2E0,1E1],"tree_param":{"num_deleted":"0","num_feature":"1","num_nodes":"15","size_leaf_vector":"1"}},{"base_weights":[-6.658929E-5,-3.4991882E-3,1.0097901E-2,2.0981461E-3,-9.2045814E-2,5.607096E-2,-8.812741E-3,-2.3951118E-4,1.2659109E-2,-2.4722956E-2,-1.238909E-3,1.542684E-3,1.6398558E-2,-1.1494234E-2,3.9322927E-4],"categories":[],"categories_nodes":[],"categories_segments":[],"categories_sizes":[],"default_left":[0,0,0,0,0,0,0,0,0,0,0,0,0,0,0],"id":96,"left_children":[1,3,5,7,9,11,13,-1,-1,-1,-1,-1,-1,-1,-1],"loss_changes":[7.048349E-3,7.503251E-2,4.4832524E-2,8.0294386E-2,1.081899E-1,6.326164E-2,5.0499123E-2,0E0,0E0,0E0,0E0,0E0,0E0,0E0,0E0],"parents":[2147483647,0,0,1,1,2,2,3,3,4,4,5,5,6,6],"right_children":[2,4,6,8,10,12,14,-1,-1,-1,-1,-1,-1,-1,-1],"split_conditions":[7.6078504E-1,7.080726E-1,8.172222E-1,6.84233E-1,7.2595567E-1,8.0812037E-1,8.3244264E-1,-2.3951118E-4,1.2659109E-2,-2.4722956E-2,-1.238909E-3,1.542684E-3,1.6398558E-2,-1.1494234E-2,3.9322927E-4],"split_indices":[0,0,0,0,0,0,0,0,0,0,0,0,0,0,0],"split_type":[0,0,0,0,0,0,0,0,0,0,0,0,0,0,0],"sum_hessian":[2E2,1.5E2,5E1,1.42E2,8E0,1.4E1,3.6E1,1.38E2,4E0,2E0,6E0,1.1E1,3E0,3E0,3.3E1],"tree_param":{"num_deleted":"0","num_feature":"1","num_nodes":"15","size_leaf_vector":"1"}},{"base_weights":[-9.327638E-5,7.4893925E-3,-4.570496E-3,9.55063E-4,1.6399495E-2,-1.12188116E-1,2.6420993E-3,-9.814458E-4,2.0800522E-3,-1.53240515E-2,-5.6908564E-3,1.4450192E-2,-2.2303914E-4],"categories":[],"categories_nodes":[],"categories_segments":[],"categories_sizes":[],"default_left":[0,0,0,0,0,0,0,0,0,0,0,0,0],"id":97,"left_children":[1,3,5,7,-1,9,11,-1,-1,-1,-1,-1,-1],"loss_changes":[6.858034E-3,7.6542795E-2,9.887411E-2,1.580615E-2,0E0,9.434171E-3,8.326757E-2,0E0,0E0,0E0,0E0,0E0,0E0],"parents":[2147483647,0,0,1,1,2,2,3,3,5,5,6,6],"right_children":[2,4,6,8,-1,10,12,-1,-1,-1,-1,-1,-1],"split_conditions":[3.2320294E-1,3.1800348E-1,3.4920958E-1,2.2210781E-1,1.6399495E-2,3.3089802E-1,3.636296E-1,-9.814458E-4,2.0800522E-3,-1.53240515E-2,-5.6908564E-3,1.4450192E-2,-2.2303914E-4],"split_indices":[0,0,0,0,0,0,0,0,0,0,0,0,0],"split_type":[0,0,0,0,0,0,0,0,0,0,0,0,0],"sum_hessian":[2E2,7.4E1,1.26E2,7.2E1,2E0,7E0,1.19E2,4.7E1,2.5E1,3E0,4E0,3E0,1.16E2],"tree_param":{"num_deleted":"0","num_feature":"1","num_nodes":"13","size_leaf_vector":"1"}},{"base_weights":[-3.0659474E-5,5.8371276E-3,-6.145255E-4,-6.413006E-2,3.5093477E-4,3.4135283E-4,-9.960863E-3,4.9437718E-3,-1.1768974E-4],"categories":[],"categories_nodes":[],