{"learner":{"attributes":{"scikit_learn":"{\"_estimator_type\": \"regressor\"}"},"feature_names":[],"feature_types":[],"gradient_booster":{"model":{"gbtree_model_param":{"num_parallel_tree":"1","num_trees":"40"},"iteration_indptr":[0,1,2,3,4,5,6,7,8,9,10,11,12,13,14,15,16,17,18,19,20,21,22,23,24,25,26,27,28,29,30,31,32,33,34,35,36,37,38,39,40],"tree_info":[0,0,0,0,0,0,0,0,0,0,0,0,0,0,0,0,0,0,0,0,0,0,0,0,0,0,0,0,0,0,0,0,0,0,0,0,0,0,0,0],"trees":[{"base_weights":[1.1861621E-9,7.7413656E-2,-4.016197E-2,2.9409064E-2,1.661969E-1,-1.9530075E-2,-2.2910793E-1,1.4410335E-1,-4.2794596E-2,1.7890419E-1,-6.3035428E-3,1.4978236E-3,-2.2994523E-1,1.9770805E-2,-2.811516E-1,1.9484067E-2,-1.7453017E-2,-1.6424999E-2,2.9774026E-3,1.2340669E-2,2.6753617E-2,-2.1446342E-2,2.035368E-3,1.2441556E-2,-3.2251604E-2,1.6322363E-2,-3.3638787E-2],"categories":[],"categories_nodes":[],"categories_segments":[],"categories_sizes":[],"default_left":[0,0,0,0,0,0,0,0,0,0,0,0,0,0,0,0,0,0,0,0,0,0,0,0,0,0,0],"id":0,"left_children":[1,3,5,7,9,11,13,15,17,19,-1,21,23,-1,25,-1,-1,-1,-1,-1,-1,-1,-1,-1,-1,-1,-1],"loss_changes":[6.280352E-1,2.891905E-1,5.1400125E-1,3.871088E-1,8.118749E-2,5.357196E-1,3.4435582E-1,3.2500458E-1,2.6049203E-1,8.011782E-2,0E0,4.56372E-1,4.0096402E-1,0E0,3.49454E-1,0E0,0E0,0E0,0E0,0E0,0E0,0E0,0E0,0E0,0E0,0E0,0E0],"parents":[2147483647,0,0,1,1,2,2,3,3,4,4,5,5,6,6,7,7,8,8,9,9,11,11,12,12,14,14],"right_children":[2,4,6,8,10,12,14,16,18,20,-1,22,24,-1,26,-1,-1,-1,-1,-1,-1,-1,-1,-1,-1,-1,-1],"split_conditions":[3.4106636E-1,5.90893E-1,9.173136E-1,3.8920167E-1,9.3272847E-1,9.1441196E-1,1.4085703E-1,4.2413068E-1,2.473481E-1,6.9701576E-1,-6.3035428E-3,7.404465E-2,6.649627E-2,1.9770805E-2,1.8110184E-2,1.9484067E-2,-1.7453017E-2,-1.6424999E-2,2.9774026E-3,1.2340669E-2,2.6753617E-2,-2.1446342E-2,2.035368E-3,1.2441556E-2,-3.2251604E-2,1.6322363E-2,-3.3638787E-2],"split_indices":[0,4,1,1,2,3,2,4,2,1,0,2,2,0,4,0,0,0,0,0,0,0,0,0,0,0,0],"split_type":[0,0,0,0,0,0,0,0,0,0,0,0,0,0,0,0,0,0,0,0,0,0,0,0,0,0,0],"sum_hessian":[2E2,6.8E1,1.32E2,4.5E1,2.3E1,1.2E2,1.2E1,1.7E1,2.8E1,2.2E1,1E0,1.1E2,1E1,1E0,1.1E1,1.5E1,2E0,1E1,1.8E1,1.5E1,7E0,8E0,1.02E2,2E0,8E0,1E0,1E1],"tree_param":{"num_deleted":"0","num_feature":"5","num_nodes":"27","size_leaf_vector":"1"}},{"base_weights":[-7.658381E-5,6.998207E-2,-3.6422223E-2,2.6219971E-2,1.5094349E-1,-1.9639225E-1,-1.442271E-2,1.2980586E-1,-3.897886E-2,1.6271353E-1,-5.9883655E-3,-7.980278E-2,-2.78206E-1,3.9735157E-3,-2.134993E-1,1.7657438E-2,-1.6289482E-2,-7.866881E-4,-3.059937E-2,1.1183731E-2,2.4412675E-2,-1.897195E-2,2.409115E-3,-5.1722727E-3,-3.3552654E-2,-1.0114558E-2,4.5172484E-3,1.1612117E-2,-3.1041956E-2],"categories":[],"categories_nodes":[],"categories_segments":[],"categories_sizes":[],"default_left":[0,0,0,0,0,0,0,0,0,0,0,0,0,0,0,0,0,0,0,0,0,0,0,0,0,0,0,0,0],"id":1,"left_children":[1,3,5,7,9,11,13,15,17,19,-1,21,23,25,27,-1,-1,-1,-1,-1,-1,-1,-1,-1,-1,-1,-1,-1,-1],"loss_changes":[5.143605E-1,2.4051213E-1,4.6522945E-1,3.1572893E-1,6.9298506E-2,1.3041627E-1,4.3299478E-1,2.7516818E-1,2.3850623E-1,6.796342E-2,0E0,9.592799E-2,9.948492E-2,4.76626E-1,3.5551527E-1,0E0,0E0,0E0,0E0,0E0,0E0,0E0,0E0,0E0,0E0,0E0,0E0,0E0,0E0],"parents":[2147483647,0,0,1,1,2,2,3,3,4,4,5,5,6,6,7,7,8,8,9,9,11,11,12,12,13,13,14,14],"right_children":[2,4,6,8,10,12,14,16,18,20,-1,22,24,26,28,-1,-1,-1,-1,-1,-1,-1,-1,-1,-1,-1,-1,-1,-1],"split_conditions":[3.4106636E-1,5.90893E-1,3.886773E-1,3.8920167E-1,9.3272847E-1,5.8622986E-1,9.1441196E-1,4.2413068E-1,9.4023025E-1,6.9701576E-1,-5.9883655E-3,3.6778313E-1,3.5597268E-1,3.3490562E-1,6.649627E-2,1.7657438E-2,-1.6289482E-2,-7.866881E-4,-3.059937E-2,1.1183731E-2,2.4412675E-2,-1.897195E-2,2.409115E-3,-5.1722727E-3,-3.3552654E-2,-1.0114558E-2,4.5172484E-3,1.1612117E-2,-3.1041956E-2],"split_indices":[0,4,0,1,2,1,3,4,3,1,0,0,0,3,2,0,0,0,0,0,0,0,0,0,0,0,0,0,0],"split_type":[0,0,0,0,0,0,0,0,0,0,0,0,0,0,0,0,0,0,0,0,0,0,0,0,0,0,0,0,0],"sum_hessian":[2E2,6.8E1,1.32E2,4.5E1,2.3E1,1.5E1,1.17E2,1.7E1,2.8E1,2.2E1,1E0,7E0,8E0,1.08E2,9E0,1.5E1,2E0,2.6E1,2E0,1.5E1,7E0,3E0,4E0,2E0,6E0,3E1,7.8E1,2E0,7E0],"tree_param":{"num_deleted":"0","num_feature":"5","num_nodes":"29","size_leaf_vector":"1"}},{"base_weights":[-4.7055332E-4,6.2977895E-2,-3.338388E-2,9.02894E-2,-5.076654E-2,-1.5299288E-2,-1.9914171E-1,1.1547106E-1,-7.523441E-2,-2.8586492E-2,7.18593E-2,2.0902038E-3,-1.8938422E-1,1.8556401E-2,-2.466642E-1,5.3635677E-3,2.0245058E-2,-1.9747198E-2,9.637113E-3,-4.059735E-3,1.9243542E-2,-4.892914E-3,7.524643E-3,1.0837976E-2,-2.6759619E-2,1.5280381E-2,-2.9687071E-2],"categories":[],"categories_nodes":[],"categories_segments":[],"categories_sizes":[],"default_left":[0,0,0,0,0,0,0,0,0,0,0,0,0,0,0,0,0,0,0,0,0,0,0,0,0,0,0],"id":2,"left_children":[1,3,5,7,9,11,13,15,17,-1,19,21,23,-1,25,-1,-1,-1,-1,-1,-1,-1,-1,-1,-1,-1,-1],"loss_changes":[4.2185065E-1,2.1893436E-1,3.956424E-1,2.4210456E-1,4.2414996E-1,3.666929E-1,2.8344023E-1,2.5268364E-1,1.8684374E-1,0E0,1.4340824E-1,4.1797623E-1,2.851778E-1,0E0,2.860338E-1,0E0,0E0,0E0,0E0,0E0,0E0,0E0,0E0,0E0,0E0,0E0,0E0],"parents":[2147483647,0,0,1,1,2,2,3,3,4,4,5,5,6,6,7,7,8,8,10,10,11,11,12,12,14,14],"right_children":[2,4,6,8,10,12,14,16,18,-1,20,22,24,-1,26,-1,-1,-1,-1,-1,-1,-1,-1,-1,-1,-1,-1],"split_conditions":[3.4106636E-1,8.297418E-1,9.173136E-1,8.607306E-1,1.8143544E-1,9.1441196E-1,1.4085703E-1,4.8945275E-1,9.1486436E-1,-2.8586492E-2,8.92559E-1,7.290072E-1,6.649627E-2,1.8556401E-2,1.8110184E-2,5.3635677E-3,2.0245058E-2,-1.9747198E-2,9.637113E-3,-4.059735E-3,1.9243542E-2,-4.892914E-3,7.524643E-3,1.0837976E-2,-2.6759619E-2,1.5280381E-2,-2.9687071E-2],"split_indices":[0,3,1,2,2,3,2,3,2,0,3,0,2,0,4,0,0,0,0,0,0,0,0,0,0,0,0],"split_type":[0,0,0,0,0,0,0,0,0,0,0,0,0,0,0,0,0,0,0,0,0,0,0,0,0,0,0],"sum_hessian":[2E2,6.8E1,1.32E2,5.5E1,1.3E1,1.2E2,1.2E1,4.8E1,7E0,4E0,9E0,1.1E2,1E1,1E0,1.1E1,2.9E1,1.9E1,4E0,3E0,5E0,4E0,6.5E1,4.5E1,2E0,8E0,1E0,1E1],"tree_param":{"num_deleted":"0","num_feature":"5","num_nodes":"27","size_leaf_vector":"1"}},{"base_weights":[-4.5856225E-4,5.671047E-2,-3.0114237E-2,1.7817706E-2,1.28892E-1,-1.6960585E-1,-1.0944915E-2,2.3380427E-1,-8.319212E-3,1.3986191E-1,-6.170803E-3,-6.687822E-2,-2.4207419E-1,-2.409706E-3,-3.373247E-2,2.6814705E-2,4.8216614E-3,1.3780401E-3,-1.7461242E-2,1.0209517E-2,2.554032E-2,-1.6635416E-2,2.6078175E-3,-4.5012636E-3,-2.9194713E-2,-2.5651826E-2,8.955941E-4],"categories":[],"categories_nodes":[],"categories_segments":[],"categories_sizes":[],"default_left":[0,0,0,0,0,0,0,0,0,0,0,0,0,0,0,0,0,0,0,0,0,0,0,0,0,0,0],"id":3,"left_children":[1,3,5,7,9,11,13,15,17,19,-1,21,23,25,-1,-1,-1,-1,-1,-1,-1,-1,-1,-1,-1,-1,-1],"loss_changes":[3.4248042E-1,1.9140983E-1,3.537803E-1,2.6162535E-1,5.8811456E-2,1.0292253E-1,3.2790208E-1,1.893881E-2,1.567569E-1,7.42878E-2,0E0,7.831362E-2,7.5311065E-2,3.3731788E-1,0E0,0E0,0E0,0E0,0E0,0E0,0E0,0E0,0E0,0E0,0E0,0E0,0E0],"parents":[2147483647,0,0,1,1,2,2,3,3,4,4,5,5,6,6,7,7,8,8,9,9,11,11,12,12,13,13],"right_children":[2,4,6,8,10,12,14,16,18,20,-1,22,24,26,-1,-1,-1,-1,-1,-1,-1,-1,-1,-1,-1,-1,-1],"split_conditions":[3.4106636E-1,5.90893E-1,3.886773E-1,7.697991E-2,9.3272847E-1,5.8622986E-1,9.717821E-1,6.84233E-1,4.984422E-1,2.4929222E-1,-6.170803E-3,3.6778313E-1,3.5597268E-1,4.522729E-2,-3.373247E-2,2.6814705E-2,4.8216614E-3,1.3780401E-3,-1.7461242E-2,1.0209517E-2,2.554032E-2,-1.6635416E-2,2.6078175E-3,-4.5012636E-3,-2.9194713E-2,-2.5651826E-2,8.955941E-4],"split_indices":[0,4,0,4,2,1,4,3,4,0,0,0,0,3,0,0,0,0,0,0,0,0,0,0,0,0,0],"split_type":[0,0,0,0,0,0,0,0,0,0,0,0,0,0,0,0,0,0,0,0,0,0,0,0,0,0,0],"sum_hessian":[2E2,6.8E1,1.32E2,4.5E1,2.3E1,1.5E1,1.17E2,4E0,4.1E1,2.2E1,1E0,7E0,8E0,1.15E2,2E0,3E0,1E0,3.7E1,4E0,1.8E1,4E0,3E0,4E0,2E0,6E0,4E0,1.11E2],"tree_param":{"num_deleted":"0","num_feature":"5","num_nodes":"27","size_leaf_vector":"1"}},{"base_weights":[-7.166003E-4,8.331637E-3,-1.743711E-1,-1.7687841E-1,1.9479873E-2,-2.3000538E-1,1.6316876E-2,-2.5702123E-2,1.2250954E-2,2.0806774E-1,4.9438598E-3,2.9975563E-2,-3.0856788E-2,2.477496E-2,-1.3405728E-2,-5.9439396E-3,3.8815897E-3,-4.94539E-3,9.441725E-3],"categories":[],"categories_nodes":[],"categories_segments":[],"categories_sizes":[],"default_left":[0,0,0,0,0,0,0,0,0,0,0,0,0,0,0,0,0,0,0],"id":4,"left_children":[1,3,5,7,9,11,-1,-1,-1,13,15,17,-1,-1,-1,-1,-1,-1,-1],"loss_changes":[3.1727746E-1,3.9988047E-1,2.253176E-1,2.9541934E-1,4.9789077E-1,1.9307232E-1,0E0,0E0,0E0,2.0970273E-1,3.7304184E-1,2.0025006E-2,0E0,0E0,0E0,0E0,0E0,0E0,0E0],"parents":[2147483647,0,0,1,1,2,2,3,3,4,4,5,5,9,9,10,10,11,11],"right_children":[2,4,6,8,10,12,-1,-1,-1,14,16,18,-1,-1,-1,-1,-1,-1,-1],"split_conditions":[9.5023733E-1,4.6965968E-2,9.8727614E-1,6.311386E-1,1.2466268E-1,8.0233745E-2,1.6316876E-2,-2.5702123E-2,1.2250954E-2,8.0936116E-1,3.5675332E-1,3.5567272E-1,-3.0856788E-2,2.477496E-2,-1.3405728E-2,-5.9439396E-3,3.8815897E-3,-4.94539E-3,9.441725E-3],"split_indices":[3,2,3,4,2,2,0,0,0,0,3,0,0,0,0,0,0,0,0],"split_type":[0,0,0,0,0,0,0,0,0,0,0,0,0,0,0,0,0,0,0],"sum_hessian":[2E2,1.91E2,9E0,1E1,1.81E2,8E0,1E0,8E0,2E0,1.2E1,1.69E2,2E0,6E0,1.1E1,1E0,5.8E1,1.11E2,1E0,1E0],"tree_param":{"num_deleted":"0","num_feature":"5","num_nodes":"19","size_leaf_vector":"1"}},{"base_weights":[-7.155158E-4,5.1638998E-2,-2.78715E-2,7.472865E-2,-4.440813E-2,-1.20111415E-2,-1.7335089E-1,1.1436344E-1,-1.5298297E-2,-1.2760447E-1,1.9548384E-2,3.1206417E-3,-1.6361266E-1,1.738972E-2,-2.1677965E-1,5.2386685E-3,1.7684493E-2,-9.65017E-3,9.826868E-3,-2.3770671E-2,-3.0730811E-3,-1.8072953E-2,1.9154924E-3,8.91518E-3,-2.296883E-2,1.4277503E-2,-2.62446E-2],"categories":[],"categories_nodes":[],"categories_segments":[],"categories_sizes":[],"default_left":[0,0,0,0,0,0,0,0,0,0,0,0,0,0,0,0,0,0,0,0,0,0,0,0,0,0,0],"id":5,"left_children":[1,3,5,7,9,11,13,15,17,19,-1,21,23,-1,25,-1,-1,-1,-1,-1,-1,-1,-1,-1,-1,-1,-1],"loss_changes":[2.8720865E-1,1.5633954E-1,3.0479604E-1,2.0156866E-1,3.043585E-1,2.7808475E-1,2.3374468E-1,1.4175928E-1,1.7547953E-1,1.10021174E-1,0E0,3.3067942E-1,2.0419443E-1,0E0,2.3450524E-1,0E0,0E0,0E0,0E0,0E0,0E0,0E0,0E0,0E0,0E0,0E0,0E0],"parents":[2147483647,0,0,1,1,2,2,3,3,4,4,5,5,6,6,7,7,8,8,9,9,11,11,12,12,14,14],"right_children":[2,4,6,8,10,12,14,16,18,20,-1,22,24,-1,26,-1,-1,-1,-1,-1,-1,-1,-1,-1,-1,-1,-1],"split_conditions":[3.4106636E-1,8.297418E-1,9.173136E-1,7.0365787E-1,6.5196127E-1,9.1441196E-1,1.4085703E-1,3.720181E-1,6.322643E-1,1.8143544E-1,1.9548384E-2,7.404465E-2,6.649627E-2,1.738972E-2,1.8110184E-2,5.2386685E-3,1.7684493E-2,-9.65017E-3,9.826868E-3,-2.3770671E-2,-3.0730811E-3,-1.8072953E-2,1.9154924E-3,8.91518E-3,-2.296883E-2,1.4277503E-2,-2.62446E-2],"split_indices":[0,3,1,2,2,3,2,2,4,2,0,2,2,0,4,0,0,0,0,0,0,0,0,0,0,0,0],"split_type":[0,0,0,0,0,0,0,0,0,0,0,0,0,0,0,0,0,0,0,0,0,0,0,0,0,0,0],"sum_hessian":[2E2,6.8E1,1.32E2,5.5E1,1.3E1,1.2E2,1.2E1,3.8E1,1.7E1,1E1,3E0,1.1E2,1E1,1E0,1.1E1,2E1,1.8E1,1E1,7E0,4E0,6E0,8E0,1.02E2,2E0,8E0,1E0,1E1],"tree_param":{"num_deleted":"0","num_feature":"5","num_nodes":"27","size_leaf_vector":"1"}},{"base_weights":[-6.886699E-4,4.43863E-3,-2.5431782E-1,1.0705376E-2,-1.9788148E-1,-3.5496787E-3,-3.1542595E-2,6.371123E-2,-1.9303618E-2,-2.1740017E-2,-5.0143986E-3,-1.4190975E-2,8.520554E-3,-1.4056531E-2,5.367527E-4],"categories":[],"categories_nodes":[],"categories_segments":[],"categories_sizes":[],"default_left":[0,0,0,0,0,0,0,0,0,0,0,0,0,0,0],"id":6,"left_children":[1,3,5,7,9,-1,-1,11,13,-1,-1,-1,-1,-1,-1],"loss_changes":[2.6251578E-1,2.531604E-1,4.229036E-2,3.0822578E-1,6.4005405E-3,0E0,0E0,3.214691E-1,3.7172088E-1,0E0,0E0,0E0,0E0,0E0,0E0],"parents":[2147483647,0,0,1,1,2,2,3,3,4,4,7,7,8,8],"right_children":[2,4,6,8,10,-1,-1,12,14,-1,-1,-1,-1,-1,-1],"split_conditions":[9.856505E-1,9.823786E-1,3.5567272E-1,3.8920167E-1,4.148195E-1,-3.5496787E-3,-3.1542595E-2,2.6532203E-2,1.1119748E-1,-2.1740017E-2,-5.0143986E-3,-1.4190975E-2,8.520554E-3,-1.4056531E-2,5.367527E-4],"split_indices":[4,0,0,1,1,0,0,1,4,0,0,0,0,0,0],"split_type":[0,0,0,0,0,0,0,0,0,0,0,0,0,0,0],"sum_hessian":[2E2,1.97E2,3E0,1.92E2,5E0,1E0,2E0,6.9E1,1.23E2,4E0,1E0,6E0,6.3E1,2E1,1.03E2],"tree_param":{"num_deleted":"0","num_feature":"5","num_nodes":"15","size_leaf_vector":"1"}},{"base_weights":[-1.0229633E-3,3.7627316E-3,-2.3765913E-1,1.1069371E-2,-1.5090664E-1,-3.3721954E-3,-2.9439753E-2,-1.4719799E-1,2.067977E-2,-2.0501393E-1,1.4097586E-2,-2.1844242E-2,1.1560124E-2,1.8718502E-2,7.672342E-4,8.097852E-3,-2.5743837E-2],"categories":[],"categories_nodes":[],"categories_segments":[],"categories_sizes":[],"default_left":[0,0,0,0,0,0,0,0,0,0,0,0,0,0,0,0,0],"id":7,"left_children":[1,3,5,7,9,-1,-1,11,13,15,-1,-1,-1,-1,-1,-1,-1],"loss_changes":[2.2852041E-1,2.254329E-1,3.6356613E-2,2.9203635E-1,1.7103879E-1,0E0,0E0,2.3120496E-1,3.8840872E-1,1.4079088E-1,0E0,0E0,0E0,0E0,0E0,0E0,0E0],"parents":[2147483647,0,0,1,1,2,2,3,3,4,4,7,7,8,8,9,9],"right_children":[2,4,6,8,10,-1,-1,12,14,16,-1,-1,-1,-1,-1,-1,-1],"split_conditions":[9.856505E-1,9.5023733E-1,3.5567272E-1,4.6965968E-2,9.743948E-1,-3.3721954E-3,-2.9439753E-2,6.311386E-1,1.2466268E-1,2.8782677E-2,1.4097586E-2,-2.1844242E-2,1.1560124E-2,1.8718502E-2,7.672342E-4,8.097852E-3,-2.5743837E-2],"split_indices":[4,3,0,2,3,0,0,4,2,2,0,0,0,0,0,0,0],"split_type":[0,0,0,0,0,0,0,0,0,0,0,0,0,0,0,0,0],"sum_hessian":[2E2,1.97E2,3E0,1.89E2,8E0,1E0,2E0,1E1,1.79E2,7E0,1E0,8E0,2E0,1.2E1,1.67E2,1E0,6E0],"tree_param":{"num_deleted":"0","num_feature":"5","num_nodes":"17","size_leaf_vector":"1"}},{"base_weights":[-1.0557808E-3,4.462338E-2,-2.4746055E-2,1.9833516E-1,3.2112885E-2,-1.4694242E-1,-7.967344E-3,2.2961807E-2,3.6601783E-3,-1.3004993E-1,5.0808255E-2,-1.6721185E-2,-1.8895607E-1,-2.3409209E-1,2.020297E-3,1.5841642E-3,-1.915749E-2,-1.3714456E-3,8.682645E-3,-4.157495E-3,4.1346936E-3,3.6554902E-3,-2.1278024E-2,-1.4044539E-3,-2.8559282E-2,1.6030777E-3,-1.4529178E-2],"categories":[],"categories_nodes":[],"categories_segments":[],"categories_sizes":[],"default_left":[0,0,0,0,0,0,0,0,0,0,0,0,0,0,0,0,0,0,0,0,0,0,0,0,0,0,0],"id":8,"left_children":[1,3,5,7,9,11,13,-1,-1,15,17,19,21,23,25,-1,-1,-1,-1,-1,-1,-1,-1,-1,-1,-1,-1],"loss_changes":[2.1861675E-1,1.2631863E-1,2.715188E-1,1.6893E-2,2.036677E-1,8.437756E-2,2.6697037E-1,0E0,0E0,6.586666E-2,1.3830626E-1,8.935054E-3,7.224947E-2,5.265203E-2,2.3761521E-1,0E0,0E0,0E0,0E0,0E0,0E0,0E0,0E0,0E0,0E0,0E0,0E0],"parents":[2147483647,0,0,1,1,2,2,3,3,4,4,5,5,6,6,9,9,10,10,11,11,12,12,13,13,14,14],"right_children":[2,4,6,8,10,12,14,-1,-1,16,18,20,22,24,26,-1,-1,-1,-1,-1,-1,-1,-1,-1,-1,-1,-1],"split_conditions":[3.4106636E-1,7.697991E-2,3.886773E-1,6.84233E-1,1.20635875E-1,3.095276E-1,4.522729E-2,2.2961807E-2,3.6601783E-3,1.0410858E-1,3.6426985E-1,8.0233745E-2,3.1183135E-2,4.3612653E-1,9.1441196E-1,1.5841642E-3,-1.915749E-2,-1.3714456E-3,8.682645E-3,-4.157495E-3,4.1346936E-3,3.6554902E-3,-2.1278024E-2,-1.4044539E-3,-2.8559282E-2,1.6030777E-3,-1.4529178E-2],"split_indices":[0,4,0,3,4,2,3,0,0,3,2,2,4,0,3,0,0,0,0,0,0,0,0,0,0,0,0],"split_type":[0,0,0,0,0,0,0,0,0,0,0,0,0,0,0,0,0,0,0,0,0,0,0,0,0,0,0],"sum_hessian":[2E2,6.8E1,1.32E2,4E0,6.4E1,1.5E1,1.17E2,3E0,1E0,6E0,5.8E1,4E0,1.1E1,4E0,1.13E2,2E0,4E0,2.1E1,3.7E1,3E0,1E0,1E0,1E1,1E0,3E0,1.04E2,9E0],"tree_param":{"num_deleted":"0","num_feature":"5","num_nodes":"27","size_leaf_vector":"1"}},{"base_weights":[-1.1699804E-3,3.2942798E-3,-2.2185835E-1,4.504056E-2,-2.0918202E-2,-2.9957115E-3,-2.7583975E-2,2.3298755E-2,2.4670633E-2,-1.2219657E-1,-6.5627863E-4,7.83305E-3,-6.649477E-3,-1.680292E-2,2.0880891E-2,2.2169477E-3,-1.9980323E-2],"categories":[],"categories_nodes":[],"categories_segments":[],"categories_sizes":[],"default_left":[0,0,0,0,0,0,0,0,0,0,0,0,0,0,0,0,0],"id":9,"left_children":[1,3,5,7,9,-1,-1,11,-1,13,15,-1,-1,-1,-1,-1,-1],"loss_changes":[1.9875814E-1,2.0107682E-1,3.317301E-2,3.1432623E-1,2.5848374E-1,0E0,0E0,3.3628863E-1,0E0,3.5367382E-1,4.8627153E-1,0E0,0E0,0E0,0E0,0E0,0E0],"parents":[2147483647,0,0,1,1,2,2,3,3,4,4,7,7,9,9,10,10],"right_children":[2,4,6,8,10,-1,-1,12,-1,14,16,-1,-1,-1,-1,-1,-1],"split_conditions":[9.856505E-1,3.8920167E-1,3.5567272E-1,3.3799517E-1,1.1119748E-1,-2.9957115E-3,-2.7583975E-2,6.134152E-1,2.4670633E-2,9.1429883E-1,8.9455223E-1,7.83305E-3,-6.649477E-3,-1.680292E-2,2.0880891E-2,2.2169477E-3,-1.9980323E-2],"split_indices":[4,1,0,1,4,0,0,0,0,2,2,0,0,0,0,0,0],"split_type":[0,0,0,0,0,0,0,0,0,0,0,0,0,0,0,0,0],"sum_hessian":[2E2,1.97E2,3E0,7.2E1,1.25E2,1E0,2E0,6.6E1,6E0,2E1,1.05E2,4.1E1,2.5E1,1.8E1,2E0,9.5E1,1E1],"tree_param":{"num_deleted":"0","num_feature":"5","num_nodes":"17","size_leaf_vector":"1"}},{"base_weights":[-1.1445769E-3,3.0263122E-3,-2.0731744E-1,8.235452E-3,-1.6503875E-1,-2.8459267E-3,-2.574504E-2,5.0892964E-2,-1.5911816E-2,-1.8130077E-2,-4.186429E-3,-1.3660746E-2,7.0605623E-3,-1.0978273E-2,3.1958878E-4],"categories":[],"categories_nodes":[],"categories_segments":[],"categories_sizes":[],"default_left":[0,0,0,0,0,0,0,0,0,0,0,0,0,0,0],"id":10,"left_children":[1,3,5,7,9,-1,-1,11,13,-1,-1,-1,-1,-1,-1],"loss_changes":[1.7347217E-1,1.747031E-1,2.8539926E-2,1.9961183E-1,4.428372E-3,0E0,0E0,2.6837444E-1,2.2276437E-1,0E0,0E0,0E0,0E0,0E0,0E0],"parents":[2147483647,0,0,1,1,2,2,3,3,4,4,7,7,8,8],"right_children":[2,4,6,8,10,-1,-1,12,14,-1,-1,-1,-1,-1,-1],"split_conditions":[9.856505E-1,9.823786E-1,3.5567272E-1,3.8920167E-1,4.148195E-1,-2.8459267E-3,-2.574504E-2,2.6532203E-2,1.1119748E-1,-1.8130077E-2,-4.186429E-3,-1.3660746E-2,7.0605623E-3,-1.0978273E-2,3.1958878E-4],"split_indices":[4,0,0,1,1,0,0,1,4,0,0,0,0,0,0],"split_type":[0,0,0,0,0,0,0,0,0,0,0,0,0,0,0],"sum_hessian":[2E2,1.97E2,3E0,1.92E2,5E0,1E0,2E0,6.9E1,1.23E2,4E0,1E0,6E0,6.3E1,2E1,1.03E2],"tree_param":{"num_deleted":"0","num_feature":"5","num_nodes":"15","size_leaf_vector":"1"}},{"base_weights":[-1.369268E-3,3.6614534E-2,-2.1064855E-2,5.6756712E-2,-4.6569508E-2,-1.293279E-1,-6.2066047E-3,7.708676E-2,-7.4859425E-2,-1.1516765E-1,1.5371776E-1,-9.343693E-3,-1.68544E-1,-2.1179113E-1,2.8647042E-3,3.033518E-3,1.433598E-2,-1.8380277E-2,8.003461E-3,-2.0101642E-2,-3.7394576E-3,3.927612E-3,1.7877294E-2,-3.0685272E-3,3.8011314E-3,2.728033E-3,-1.8882623E-2,-1.4610573E-3,-2.5743363E-2,1.5142544E-3,-1.2633908E-2],"categories":[],"categories_nodes":[],"categories_segments":[],"categories_sizes":[],"default_left":[0,0,0,0,0,0,0,0,0,0,0,0,0,0,0,0,0,0,0,0,0,0,0,0,0,0,0,0,0,0,0],"id":11,"left_children":[1,3,5,7,9,11,13,15,17,19,21,23,25,27,29,-1,-1,-1,-1,-1,-1,-1,-1,-1,-1,-1,-1,-1,-1,-1,-1],"loss_changes":[1.5114206E-1,1.1825318E-1,2.1314105E-1,1.5561336E-1,2.1005398E-1,7.371014E-2,2.2066736E-1,1.4747125E-1,1.4970797E-1,6.592703E-2,4.447907E-3,6.2195407E-3,5.2812368E-2,4.123783E-2,1.8275622E-1,0E0,0E0,0E0,0E0,0E0,0E0,0E0,0E0,0E0,0E0,0E0,0E0,0E0,0E0,0E0,0E0],"parents":[2147483647,0,0,1,1,2,2,3,3,4,4,5,5,6,6,7,7,8,8,9,9,10,10,11,11,12,12,13,13,14,14],"right_children":[2,4,6,8,10,12,14,16,18,20,22,24,26,28,30,-1,-1,-1,-1,-1,-1,-1,-1,-1,-1,-1,-1,-1,-1,-1,-1],"split_conditions":[3.4106636E-1,8.297418E-1,3.886773E-1,8.607306E-1,6.5196127E-1,3.095276E-1,4.522729E-2,4.8945275E-1,9.1486436E-1,1.8143544E-1,1.2154475E-2,8.0233745E-2,3.1183135E-2,4.3612653E-1,9.1441196E-1,3.033518E-3,1.433598E-2,-1.8380277E-2,8.003461E-3,-2.0101642E-2,-3.7394576E-3,3.927612E-3,1.7877294E-2,-3.0685272E-3,3.8011314E-3,2.728033E-3,-1.8882623E-2,-1.4610573E-3,-2.5743363E-2,1.5142544E-3,-1.2633908E-2],"split_indices":[0,3,0,2,2,2,3,3,2,2,0,2,4,0,3,0,0,0,0,0,0,0,0,0,0,0,0,0,0,0,0],"split_type":[0,0,0,0,0,0,0,0,0,0,0,0,0,0,0,0,0,0,0,0,0,0,0,0,0,0,0,0,0,0,0],"sum_hessian":[2E2,6.8E1,1.32E2,5.5E1,1.3E1,1.5E1,1.17E2,4.8E1,7E0,1E1,3E0,4E0,1.1E1,4E0,1.13E2,2.9E1,1.9E1,4E0,3E0,4E0,6E0,1E0,2E0,3E0,1E0,1E0,1E1,1E0,3E0,1.04E2,9E0],"tree_param":{"num_deleted":"0","num_feature":"5","num_nodes":"31","size_leaf_vector":"1"}},{"base_weights":[-1.4750758E-3,2.4161795E-3,-1.9372344E-1,-1.4147187E-2,4.9193077E-2,-2.550204E-3,-2.4129657E-2,-1.9293086E-1,-2.469487E-3,1.15591235E-1,-3.308774E-2,-2.613358E-2,-1.1517244E-2,1.7712014E-2,-1.6265077E-3,2.1682953E-2,-8.3661824E-4,3.9526126E-3,-1.8325625E-2],"categories":[],"categories_nodes":[],"categories_segments":[],"categories_sizes":[],"default_left":[0,0,0,0,0,0,0,0,0,0,0,0,0,0,0,0,0,0,0],"id":12,"left_children":[1,3,5,7,9,-1,-1,11,13,15,17,-1,-1,-1,-1,-1,-1,-1,-1],"loss_changes":[1.5083365E-1,1.5410295E-1,2.5857702E-2,3.0642754E-1,2.8791595E-1,0E0,0E0,1.7772824E-2,3.472596E-1,3.657419E-1,2.6894698E-1,0E0,0E0,0E0,0E0,0E0,0E0,0E0,0E0],"parents":[2147483647,0,0,1,1,2,2,3,3,4,4,7,7,8,8,9,9,10,10],"right_children":[2,4,6,8,10,-1,-1,12,14,16,18,-1,-1,-1,-1,-1,-1,-1,-1],"split_conditions":[9.856505E-1,6.903948E-1,3.5567272E-1,4.6965968E-2,8.4922343E-1,-2.550204E-3,-2.4129657E-2,3.9224404E-1,1.3637148E-1,5.416342E-1,6.7170066E-1,-2.613358E-2,-1.1517244E-2,1.7712014E-2,-1.6265077E-3,2.1682953E-2,-8.3661824E-4,3.9526126E-3,-1.8325625E-2],"split_indices":[4,4,0,2,4,0,0,1,2,2,3,0,0,0,0,0,0,0,0],"split_type":[0,0,0,0,0,0,0,0,0,0,0,0,0,0,0,0,0,0,0],"sum_hessian":[2E2,1.97E2,3E0,1.46E2,5.1E1,1E0,2E0,8E0,1.38E2,2.8E1,2.3E1,3E0,5E0,9E0,1.29E2,1.5E1,1.3E1,1.6E1,7E0],"tree_param":{"num_deleted":"0","num_feature":"5","num_nodes":"19","size_leaf_vector":"1"}},{"base_weights":[-1.5353975E-3,2.09833E-3,-1.8102106E-1,3.665895E-2,-1.794154E-2,-2.4226934E-3,-2.2521012E-2,1.7276796E-2,2.1693686E-2,-9.634403E-2,6.491619E-3,8.048813E-3,-4.6442677E-3,6.1297393E-4,-1.5599357E-2,1.3560436E-2,-1.8780277E-3],"categories":[],"categories_nodes":[],"categories_segments":[],"categories_sizes":[],"default_left":[0,0,0,0,0,0,0,0,0,0,0,0,0,0,0,0,0],"id":13,"left_children":[1,3,5,7,9,-1,-1,11,-1,13,15,-1,-1,-1,-1,-1,-1],"loss_changes":[1.3147244E-1,1.3779059E-1,2.2258192E-2,2.5132677E-1,2.419936E-1,0E0,0E0,2.7360016E-1,0E0,1.8433157E-1,3.1905028E-1,0E0,0E0,0E0,0E0,0E0,0E0],"parents":[2147483647,0,0,1,1,2,2,3,3,4,4,7,7,9,9,10,10],"right_children":[2,4,6,8,10,-1,-1,12,-1,14,16,-1,-1,-1,-1,-1,-1],"split_conditions":[9.856505E-1,3.8920167E-1,3.5567272E-1,3.3799517E-1,5.543541E-1,-2.4226934E-3,-2.2521012E-2,4.983678E-1,2.1693686E-2,3.8610265E-1,6.232981E-1,8.048813E-3,-4.6442677E-3,6.1297393E-4,-1.5599357E-2,1.3560436E-2,-1.8780277E-3],"split_indices":[4,1,0,1,1,0,0,4,0,0,1,0,0,0,0,0,0],"split_type":[0,0,0,0,0,0,0,0,0,0,0,0,0,0,0,0,0],"sum_hessian":[2E2,1.97E2,3E0,7.2E1,1.25E2,1E0,2E0,6.6E1,6E0,2.9E1,9.6E1,3.3E1,3.3E1,1.1E1,1.8E1,1.5E1,8.1E1],"tree_param":{"num_deleted":"0","num_feature":"5","num_nodes":"17","size_leaf_vector":"1"}},{"base_weights":[-1.397528E-3,1.9985675E-3,-1.6915488E-1,-1.3731651E-2,4.6428252E-2,-2.3015589E-3,-2.1019612E-2,6.965946E-3,-9.818966E-2,1.0581033E-1,-2.7259607E-2,2.6894049E-3,-9.302286E-3,9.1208046E-4,-1.4693542E-2,1.9802345E-2,-7.1339676E-4,1.4684384E-2,-8.080493E-3],"categories":[],"categories_nodes":[],"categories_segments":[],"categories_sizes":[],"default_left":[0,0,0,0,0,0,0,0,0,0,0,0,0,0,0,0,0,0,0],"id":14,"left_children":[1,3,5,7,9,-1,-1,11,13,15,17,-1,-1,-1,-1,-1,-1,-1,-1],"loss_changes":[1.1485178E-1,1.3901748E-1,1.9153155E-2,2.5765142E-1,2.3042274E-1,0E0,0E0,2.3961963E-1,1.5303713E-1,3.034461E-1,2.3560387E-1,0E0,0E0,0E0,0E0,0E0,0E0,0E0,0E0],"parents":[2147483647,0,0,1,1,2,2,3,3,4,4,7,7,8,8,9,9,10,10],"right_children":[2,4,6,8,10,-1,-1,12,14,16,18,-1,-1,-1,-1,-1,-1,-1,-1],"split_conditions":[9.856505E-1,6.903948E-1,3.5567272E-1,5.707783E-1,8.4922343E-1,-2.3015589E-3,-2.1019612E-2,8.521815E-1,2.9444888E-1,5.416342E-1,1.7231987E-1,2.6894049E-3,-9.302286E-3,9.1208046E-4,-1.4693542E-2,1.9802345E-2,-7.1339676E-4,1.4684384E-2,-8.080493E-3],"split_indices":[4,4,0,4,4,0,0,1,0,2,2,0,0,0,0,0,0,0,0],"split_type":[0,0,0,0,0,0,0,0,0,0,0,0,0,0,0,0,0,0,0],"sum_hessian":[2E2,1.97E2,3E0,1.46E2,5.1E1,1E0,2E0,1.18E2,2.8E1,2.8E1,2.3E1,9.9E1,1.9E1,9E0,1.9E1,1.5E1,1.3E1,5E0,1.8E1],"tree_param":{"num_deleted":"0","num_feature":"5","num_nodes":"19","size_leaf_vector":"1"}},{"base_weights":[-1.3474451E-3,-9.8938234E-2,4.823276E-3,-1.7289495E-1,9.219892E-3,1.3222985E-1,-5.28133E-3,-2.3635821E-2,-1.0177028E-2,1.8984196E-1,-5.926092E-2,-1.8570893E-1,1.0433613E-3,-1.7624498E-4,2.0917865E-2,9.5779303E-4,-1.3288873E-2,6.45611E-3,-2.4867516E-2,4.5413296E-3,-2.4377992E-3],"categories":[],"categories_nodes":[],"categories_segments":[],"categories_sizes":[],"default_left":[0,0,0,0,0,0,0,0,0,0,0,0,0,0,0,0,0,0,0,0,0],"id":15,"left_children":[1,3,5,7,-1,9,11,-1,-1,13,15,17,19,-1,-1,-1,-1,-1,-1,-1,-1],"loss_changes":[1.2152052E-1,1.8557125E-1,2.4530305E-1,1.6569972E-2,0E0,1.6570081E-1,2.021771E-1,0E0,0E0,4.11236E-2,2.1546617E-2,1.1060609E-1,1.951134E-1,0E0,0E0,0E0,0E0,0E0,0E0,0E0,0E0],"parents":[2147483647,0,0,1,1,2,2,3,3,5,5,6,6,9,9,10,10,11,11,12,12],"right_children":[2,4,6,8,-1,10,12,-1,-1,14,16,18,20,-1,-1,-1,-1,-1,-1,-1,-1],"split_conditions":[4.6965968E-2,6.311386E-1,1.2466268E-1,3.9224404E-1,9.219892E-3,6.966508E-1,2.6532203E-2,-2.3635821E-2,-1.0177028E-2,5.1425815E-2,6.1062E-1,5.6375496E-2,4.0895295E-1,-1.7624498E-4,2.0917865E-2,9.5779303E-4,-1.3288873E-2,6.45611E-3,-2.4867516E-2,4.5413296E-3,-2.4377992E-3],"split_indices":[2,4,2,1,0,3,1,0,0,2,0,3,1,0,0,0,0,0,0,0,0],"split_type":[0,0,0,0,0,0,0,0,0,0,0,0,0,0,0,0,0,0,0,0,0],"sum_hessian":[2E2,1.1E1,1.89E2,8E0,3E0,1.3E1,1.76E2,3E0,5E0,1E1,3E0,5E0,1.71E2,1E0,9E0,2E0,1E0,1E0,4E0,6.2E1,1.09E2],"tree_param":{"num_deleted":"0","num_feature":"5","num_nodes":"21","size_leaf_vector":"1"}},{"base_weights":[-1.3743599E-3,4.0801074E-3,-1.059627E-1,-1.1029033E-1,1.0970188E-2,-1.37988E-1,9.113249E-3,-1.5936244E-1,7.368944E-3,1.1611993E-1,-1.2786854E-3,2.5126776E-2,-1.8818175E-2,-2.1863135E-2,-9.328944E-3,1.48101095E-2,-1.0381326E-2,-1.626125E-2,8.037231E-4,-2.2343695E-3,6.003386E-3],"categories":[],"categories_nodes":[],"categories_segments":[],"categories_sizes":[],"default_left":[0,0,0,0,0,0,0,0,0,0,0,0,0,0,0,0,0,0,0,0,0],"id":16,"left_children":[1,3,5,7,9,11,-1,13,-1,15,17,19,-1,-1,-1,-1,-1,-1,-1,-1,-1],"loss_changes":[1.1509756E-1,1.5251005E-1,7.569551E-2,1.1105436E-1,2.3455825E-1,7.8414515E-2,0E0,1.4848679E-2,0E0,1.4901552E-1,2.4779443E-1,6.312545E-3,0E0,0E0,0E0,0E0,0E0,0E0,0E0,0E0,0E0],"parents":[2147483647,0,0,1,1,2,2,3,3,4,4,5,5,7,7,9,9,10,10,11,11],"right_children":[2,4,6,8,10,12,-1,14,-1,16,18,20,-1,-1,-1,-1,-1,-1,-1,-1,-1],"split_conditions":[9.5023733E-1,4.6965968E-2,9.8727614E-1,6.311386E-1,1.4489487E-1,8.0233745E-2,9.113249E-3,3.9224404E-1,7.368944E-3,8.0936116E-1,1.7701049E-1,3.5567272E-1,-1.8818175E-2,-2.1863135E-2,-9.328944E-3,1.48101095E-2,-1.0381326E-2,-1.626125E-2,8.037231E-4,-2.2343695E-3,6.003386E-3],"split_indices":[3,2,3,4,2,2,0,1,0,0,2,0,0,0,0,0,0,0,0,0,0],"split_type":[0,0,0,0,0,0,0,0,0,0,0,0,0,0,0,0,0,0,0,0,0],"sum_hessian":[2E2,1.91E2,9E0,1E1,1.81E2,8E0,1E0,8E0,2E0,1.8E1,1.63E2,2E0,6E0,3E0,5E0,1.6E1,2E0,8E0,1.55E2,1E0,1E0],"tree_param":{"num_deleted":"0","num_feature":"5","num_nodes":"21","size_leaf_vector":"1"}},{"base_weights":[-1.4398356E-3,-3.7091978E-2,1.5104925E-2,5.427345E-3,-1.0363922E-1,1.9261232E-1,1.2275694E-3,1.7200771E-1,-2.3284355E-2,-1.604035E-1,3.703531E-2,-7.6122493E-3,2.3092981E-2,1.7082004E-1,-1.1396891E-2,1.8881151E-2,4.3994337E-3,1.4216467E-2,-6.241742E-3,-1.9022642E-2,5.2119913E-3,-8.121273E-3,1.2422668E-2,1.8687904E-3,1.8750057E-2,-1.7355857E-2,1.619499E-4],"categories":[],"categories_nodes":[],"categories_segments":[],"categories_sizes":[],"default_left":[0,0,0,0,0,0,0,0,0,0,0,0,0,0,0,0,0,0,0,0,0,0,0,0,0,0,0],"id":17,"left_children":[1,3,5,7,9,11,13,15,17,19,21,-1,-1,23,25,-1,-1,-1,-1,-1,-1,-1,-1,-1,-1,-1,-1],"loss_changes":[1.1912137E-1,1.8165329E-1,3.397036E-1,1.9531731E-1,2.0557278E-1,1.2055132E-1,2.7813753E-1,4.600033E-3,2.3548198E-1,1.23999834E-1,9.257045E-2,0E0,0E0,1.9334823E-2,2.5568306E-1,0E0,0E0,0E0,0E0,0E0,0E0,0E0,0E0,0E0,0E0,0E0,0E0],"parents":[2147483647,0,0,1,1,2,2,3,3,4,4,5,5,6,6,7,7,8,8,9,9,10,10,13,13,14,14],"right_children":[2,4,6,8,10,12,14,16,18,20,22,-1,-1,24,26,-1,-1,-1,-1,-1,-1,-1,-1,-1,-1,-1,-1],"split_conditions":[3.5675332E-1,2.1494038E-1,3.7461263E-1,1.4991742E-1,7.257195E-1,3.1429186E-2,7.697991E-2,4.0728804E-2,1.4092423E-1,8.105533E-1,3.8313854E-1,-7.6122493E-3,2.3092981E-2,4.0941164E-1,1.07891425E-1,1.8881151E-2,4.3994337E-3,1.4216467E-2,-6.241742E-3,-1.9022642E-2,5.2119913E-3,-8.121273E-3,1.2422668E-2,1.8687904E-3,1.8750057E-2,-1.7355857E-2,1.619499E-4],"split_indices":[3,3,3,0,4,0,4,0,1,2,0,0,0,3,4,0,0,0,0,0,0,0,0,0,0,0,0],"split_type":[0,0,0,0,0,0,0,0,0,0,0,0,0,0,0,0,0,0,0,0,0,0,0,0,0,0,0],"sum_hessian":[2E2,6.3E1,1.37E2,3.9E1,2.4E1,9E0,1.28E2,5E0,3.4E1,1.7E1,7E0,1E0,8E0,8E0,1.2E2,4E0,1E0,6E0,2.8E1,1.5E1,2E0,3E0,4E0,1E0,7E0,8E0,1.12E2],"tree_param":{"num_deleted":"0","num_feature":"5","num_nodes":"27","size_leaf_vector":"1"}},{"base_weights":[-1.0936044E-3,-1.17723204E-1,3.0987076E-3,1.0619193E-2,-2.2852765E-1,-5.445331E-2,1.2672266E-2,-2.6165059E-2,-4.8017926E-3,7.512689E-2,-1.563339E-1,2.2730246E-2,-6.73998E-2,-9.591426E-3,1.6180232E-2,-1.0165065E-2,-2.5630688E-2,-2.545536E-4,8.778572E-3,7.43365E-3,-1.5627403E-2],"categories":[],"categories_nodes":[],"categories_segments":[],"categories_sizes":[],"default_left":[0,0,0,0,0,0,0,0,0,0,0,0,0,0,0,0,0,0,0,0,0],"id":18,"left_children":[1,3,5,-1,7,9,11,-1,-1,13,15,17,19,-1,-1,-1,-1,-1,-1,-1,-1],"loss_changes":[9.864327E-2,1.9794333E-1,1.0813067E-1,0E0,1.7331153E-2,3.8139266E-1,1.3683303E-1,0E0,0E0,2.08245E-1,6.141582E-2,2.4687265E-1,2.5095418E-1,0E0,0E0,0E0,0E0,0E0,0E0,0E0,0E0],"parents":[2147483647,0,0,1,1,2,2,4,4,5,5,6,6,9,9,10,10,11,11,12,12],"right_children":[2,4,6,-1,8,10,12,-1,-1,14,16,18,20,-1,-1,-1,-1,-1,-1,-1,-1],"split_conditions":[2.6532203E-2,1.1976213E-1,1.1119748E-1,1.0619193E-2,2.651131E-2,6.93613E-2,8.877042E-1,-2.6165059E-2,-4.8017926E-3,2.2359584E-1,9.783416E-2,6.9701576E-1,3.8389122E-1,-9.591426E-3,1.6180232E-2,-1.0165065E-2,-2.5630688E-2,-2.545536E-4,8.778572E-3,7.43365E-3,-1.5627403E-2],"split_indices":[1,4,4,0,1,4,2,0,0,3,4,1,1,0,0,0,0,0,0,0,0],"split_type":[0,0,0,0,0,0,0,0,0,0,0,0,0,0,0,0,0,0,0,0,0],"sum_hessian":[2E2,6E0,1.94E2,2E0,4E0,2.7E1,1.67E2,3E0,1E0,1.2E1,1.5E1,1.49E2,1.8E1,4E0,8E0,1.1E1,4E0,1.08E2,4.1E1,7E0,1.1E1],"tree_param":{"num_deleted":"0","num_feature":"5","num_nodes":"21","size_leaf_vector":"1"}},{"base_weights":[-1.2291346E-3,2.5901448E-3,-1.257874E-1,-1.1273124E-2,4.4410016E-2,-1.3944282E-2,-2.8755174E-3,7.1370807E-3,-1.7498608E-1,1.2381772E-1,-5.6918007E-3,5.2104904E-3,-1.7754788E-3,-2.5227983E-2,-5.06104E-3,7.526921E-4,2.0770859E-2,-2.1991663E-2,3.4190272E-3],"categories":[],"categories_nodes":[],"categories_segments":[],"categories_sizes":[],"default_left":[0,0,0,0,0,0,0,0,0,0,0,0,0,0,0,0,0,0,0],"id":19,"left_children":[1,3,5,7,9,-1,-1,11,13,15,17,-1,-1,-1,-1,-1,-1,-1,-1],"loss_changes":[9.5946096E-2,1.14133626E-1,3.940396E-3,4.473193E-1,1.956498E-1,0E0,0E0,1.5091574E-1,1.3143396E-1,1.8379551E-1,2.723746E-1,0E0,0E0,0E0,0E0,0E0,0E0,0E0,0E0],"parents":[2147483647,0,0,1,1,2,2,3,3,4,4,7,7,8,8,9,9,10,10],"right_children":[2,4,6,8,10,-1,-1,12,14,16,18,-1,-1,-1,-1,-1,-1,-1,-1],"split_conditions":[9.823786E-1,7.378969E-1,4.148195E-1,6.6252226E-1,8.353025E-1,-1.3944282E-2,-2.8755174E-3,3.8920167E-1,7.072386E-1,5.163003E-1,1.8657006E-1,5.2104904E-3,-1.7754788E-3,-2.5227983E-2,-5.06104E-3,7.526921E-4,2.0770859E-2,-2.1991663E-2,3.4190272E-3],"split_indices":[0,0,1,0,0,0,0,1,0,1,2,0,0,0,0,0,0,0,0],"split_type":[0,0,0,0,0,0,0,0,0,0,0,0,0,0,0,0,0,0,0],"sum_hessian":[2E2,1.95E2,5E0,1.47E2,4.8E1,4E0,1E0,1.33E2,1.4E1,1.8E1,3E1,4.7E1,8.6E1,8E0,6E0,8E0,1E1,4E0,2.6E1],"tree_param":{"num_deleted":"0","num_feature":"5","num_nodes":"19","size_leaf_vector":"1"}},{"base_weights":[-1.3088232E-3,1.6985639E-3,-1.4984728E-1,6.485273E-3,-9.9542916E-2,-2.0292476E-3,-1.8626807E-2,-9.559297E-2,1.2687359E-2,-1.8306613E-2,-1.9651165E-2,-1.4060721E-2,7.1314075E-3,9.75524E-3,2.6557347E-4,9.232677E-3,-9.670499E-3],"categories":[],"categories_nodes":[],"categories_segments":[],"categories_sizes":[],"default_left":[0,0,0,0,0,0,0,0,0,0,0,0,0,0,0,0,0],"id":20,"left_children":[1,3,5,7,9,-1,-1,11,13,15,-1,-1,-1,-1,-1,-1,-1],"loss_changes":[9.004377E-2,9.659904E-2,1.5094116E-2,1.2150143E-1,6.729898E-2,0E0,0E0,9.2672415E-2,1.5298109E-1,6.0969323E-2,0E0,0E0,0E0,0E0,0E0,0E0,0E0],"parents":[2147483647,0,0,1,1,2,2,3,3,4,4,7,7,8,8,9,9],"right_children":[2,4,6,8,10,-1,-1,12,14,16,-1,-1,-1,-1,-1,-1,-1],"split_conditions":[9.856505E-1,9.5023733E-1,3.5567272E-1,4.6965968E-2,3.8089085E-1,-2.0292476E-3,-1.8626807E-2,6.311386E-1,1.4489487E-1,4.4741237E-1,-1.9651165E-2,-1.4060721E-2,7.1314075E-3,9.75524E-3,2.6557347E-4,9.232677E-3,-9.670499E-3],"split_indices":[4,3,0,2,1,0,0,4,2,0,0,0,0,0,0,0,0],"split_type":[0,0,0,0,0,0,0,0,0,0,0,0,0,0,0,0,0],"sum_hessian":[2E2,1.97E2,3E0,1.89E2,8E0,1E0,2E0,1E1,1.79E2,5E0,3E0,8E0,2E0,1.8E1,1.61E2,2E0,3E0],"tree_param":{"num_deleted":"0","num_feature":"5","num_nodes":"17","size_leaf_vector":"1"}},{"base_weights":[-1.3652887E-3,-1.09921955E-1,2.5386186E-3,9.229851E-3,-2.0926984E-1,9.530885E-3,-6.674816E-2,-2.3740977E-2,-4.8355064E-3,-5.6306566E-3,6.553737E-2,5.334836E-3,-2.1180329E-1,-1.281088E-2,2.6996736E-4,1.2311681E-2,-2.1329154E-3,-1.6945524E-2,7.471739E-3,-2.8110046E-2,-4.8805983E-3],"categories":[],"categories_nodes":[],"categories_segments":[],"categories_sizes":[],"default_left":[0,0,0,0,0,0,0,0,0,0,0,0,0,0,0,0,0,0,0,0,0],"id":21,"left_children":[1,3,5,-1,7,9,11,-1,-1,13,15,17,19,-1,-1,-1,-1,-1,-1,-1,-1],"loss_changes":[8.546188E-2,1.5994653E-1,9.510813E-2,0E0,1.1160687E-2,1.5151677E-1,1.8933812E-1,0E0,0E0,1.4420581E-1,1.9269155E-1,1.7031722E-1,5.4052114E-2,0E0,0E0,0E0,0E0,0E0,0E0,0E0,0E0],"parents":[2147483647,0,0,1,1,2,2,4,4,5,5,6,6,9,9,10,10,11,11,12,12],"right_children":[2,4,6,-1,8,10,12,-1,-1,14,16,18,20,-1,-1,-1,-1,-1,-1,-1,-1],"split_conditions":[2.6532203E-2,1.1976213E-1,8.902638E-1,9.229851E-3,2.651131E-2,6.903948E-1,6.4087474E-1,-2.3740977E-2,-4.8355064E-3,4.6965968E-2,6.2894285E-1,1.6122128E-1,5.7628834E-1,-1.281088E-2,2.6996736E-4,1.2311681E-2,-2.1329154E-3,-1.6945524E-2,7.471739E-3,-2.8110046E-2,-4.8805983E-3],"split_indices":[1,4,4,0,1,4,1,0,0,2,2,1,2,0,0,0,0,0,0,0,0],"split_type":[0,0,0,0,0,0,0,0,0,0,0,0,0,0,0,0,0,0,0,0,0],"sum_hessian":[2E2,6E0,1.94E2,2E0,4E0,1.77E2,1.7E1,3E0,1E0,1.4E2,3.7E1,1.2E1,5E0,8E0,1.32E2,2.2E1,1.5E1,3E0,9E0,3E0,2E0],"tree_param":{"num_deleted":"0","num_feature":"5","num_nodes":"21","size_leaf_vector":"1"}},{"base_weights":[-1.548024E-3,2.047437E-3,-1.1874176E-2,-1.0609778E-2,4.023561E-2,5.424785E-3,-1.6447093E-1,8.399297E-2,-4.7071956E-2,-2.4840387E-4,1.3128787E-2,-2.4917383E-2,-4.4171778E-3,-1.997086E-3,1.52568E-2,9.164358E-3,-1.8055728E-2],"categories":[],"categories_nodes":[],"categories_segments":[],"categories_sizes":[],"default_left":[0,0,0,0,0,0,0,0,0,0,0,0,0,0,0,0,0],"id":22,"left_children":[1,3,-1,5,7,9,11,13,15,-1,-1,-1,-1,-1,-1,-1,-1],"loss_changes":[8.493758E-2,9.516464E-2,0E0,3.6602247E-1,1.9115078E-1,1.3470903E-1,1.316492E-1,2.3831455E-1,3.3132717E-1,0E0,0E0,0E0,0E0,0E0,0E0,0E0,0E0],"parents":[2147483647,0,0,1,1,3,3,4,4,5,5,6,6,7,7,8,8],"right_children":[2,4,-1,6,8,10,12,14,16,-1,-1,-1,-1,-1,-1,-1,-1],"split_conditions":[9.823786E-1,7.378969E-1,-1.1874176E-2,6.6367114E-1,5.519068E-1,9.255685E-1,7.072386E-1,3.2207915E-1,4.9251768E-1,-2.4840387E-4,1.3128787E-2,-2.4917383E-2,-4.4171778E-3,-1.997086E-3,1.52568E-2,9.164358E-3,-1.8055728E-2],"split_indices":[0,0,0,0,2,2,0,1,3,0,0,0,0,0,0,0,0],"split_type":[0,0,0,0,0,0,0,0,0,0,0,0,0,0,0,0,0],"sum_hessian":[2E2,1.95E2,5E0,1.47E2,4.8E1,1.34E2,1.3E1,3.2E1,1.6E1,1.27E2,7E0,7E0,6E0,1.3E1,1.9E1,8E0,8E0],"tree_param":{"num_deleted":"0","num_feature":"5","num_nodes":"17","size_leaf_vector":"1"}},{"base_weights":[-1.5124126E-3,1.270785E-3,-1.3890259E-1,8.573442E-3,-5.20307E-2,-2.2889525E-3,-1.6994378E-2,-7.689861E-5,1.5131174E-1,-1.4408572E-1,3.6945526E-2,-1.5391781E-3,4.0209573E-3,2.0777928E-2,1.4665633E-3,-1.7841993E-2,1.167953E-2,8.6462395E-3,-1.569315E-2],"categories":[],"categories_nodes":[],"categories_segments":[],"categories_sizes":[],"default_left":[0,0,0,0,0,0,0,0,0,0,0,0,0,0,0,0,0,0,0],"id":23,"left_children":[1,3,5,7,9,-1,-1,11,13,15,17,-1,-1,-1,-1,-1,-1,-1,-1],"loss_changes":[7.7035695E-2,7.751609E-2,1.0514796E-2,2.1609025E-1,2.0190032E-1,0E0,0E0,1.03038E-1,7.411347E-2,1.2832436E-1,1.3837107E-1,0E0,0E0,0E0,0E0,0E0,0E0,0E0,0E0],"parents":[2147483647,0,0,1,1,2,2,3,3,4,4,7,7,8,8,9,9,10,10],"right_children":[2,4,6,8,10,-1,-1,12,14,16,18,-1,-1,-1,-1,-1,-1,-1,-1],"split_conditions":[9.856505E-1,8.877042E-1,3.5567272E-1,8.287375E-1,9.2658764E-1,-2.2889525E-3,-1.6994378E-2,7.290072E-1,6.815027E-1,8.714606E-1,8.738901E-1,-1.5391781E-3,4.0209573E-3,2.0777928E-2,1.4665633E-3,-1.7841993E-2,1.167953E-2,8.6462395E-3,-1.569315E-2],"split_indices":[4,2,0,2,2,0,0,0,4,0,3,0,0,0,0,0,0,0,0],"split_type":[0,0,0,0,0,0,0,0,0,0,0,0,0,0,0,0,0,0,0],"sum_hessian":[2E2,1.97E2,3E0,1.74E2,2.3E1,1E0,2E0,1.65E2,9E0,1.1E1,1.2E1,1.2E2,4.5E1,6E0,3E0,1E1,1E0,1E1,2E0],"tree_param":{"num_deleted":"0","num_feature":"5","num_nodes":"19","size_leaf_vector":"1"}},{"base_weights":[-1.3998111E-3,3.0060165E-2,-1.3457063E-2,-4.2128365E-2,7.457695E-2,1.8345142E-2,-4.298995E-2,-9.945888E-2,1.7268714E-1,1.5833722E-1,3.4739353E-2,-2.284463E-2,1.2452129E-1,-1.65386E-2,-1.494562E-1,4.153811E-3,-1.4271075E-2,1.914261E-2,4.886571E-3,1.1811405E-3,1.7180866E-2,5.9929834E-4,1.8415956E-2,-1.36559E-4,-2.244745E-2,2.368344E-3,1.6604586E-2,-1.7706344E-2,1.4061155E-3,1.1095554E-2,-1.7598245E-2],"categories":[],"categories_nodes":[],"categories_segments":[],"categories_sizes":[],"default_left":[0,0,0,0,0,0,0,0,0,0,0,0,0,0,0,0,0,0,0,0,0,0,0,0,0,0,0,0,0,0,0],"id":24,"left_children":[1,3,5,7,9,11,13,15,17,19,21,23,25,27,29,-1,-1,-1,-1,-1,-1,-1,-1,-1,-1,-1,-1,-1,-1,-1,-1],"loss_changes":[7.664801E-2,1.8310347E-1,1.3791345E-1,2.8811592E-1,1.1128774E-1,3.1335402E-1,2.1155761E-1,1.1569883E-1,2.2472292E-3,1.9683748E-2,1.0627853E-1,2.2489592E-1,7.981238E-2,3.07035E-1,1.2314236E-1,0E0,0E0,0E0,0E0,0E0,0E0,0E0,0E0,0E0,0E0,0E0,0E0,0E0,0E0,0E0,0E0],"parents":[2147483647,0,0,1,1,2,2,3,3,4,4,5,5,6,6,7,7,8,8,9,9,10,10,11,11,12,12,13,13,14,14],"right_children":[2,4,6,8,10,12,14,16,18,20,22,24,26,28,30,-1,-1,-1,-1,-1,-1,-1,-1,-1,-1,-1,-1,-1,-1,-1,-1],"split_conditions":[2.4398965E-1,3.6426985E-1,4.5454106E-1,1.834045E-1,5.426446E-1,6.7189276E-1,8.5648984E-1,1.2706052E-1,4.5328882E-1,3.720181E-1,9.025529E-1,6.232981E-1,4.2710778E-1,1.3401523E-1,1.8110184E-2,4.153811E-3,-1.4271075E-2,1.914261E-2,4.886571E-3,1.1811405E-3,1.7180866E-2,5.9929834E-4,1.8415956E-2,-1.36559E-4,-2.244745E-2,2.368344E-3,1.6604586E-2,-1.7706344E-2,1.4061155E-3,1.1095554E-2,-1.7598245E-2],"split_indices":[0,2,2,0,2,1,1,4,1,2,1,1,0,1,4,0,0,0,0,0,0,0,0,0,0,0,0,0,0,0,0],"split_type":[0,0,0,0,0,0,0,0,0,0,0,0,0,0,0,0,0,0,0,0,0,0,0,0,0,0,0,0,0,0,0],"sum_hessian":[2E2,5.5E1,1.45E2,2.1E1,3.4E1,7E1,7.5E1,1.7E1,4E0,1E1,2.4E1,5.1E1,1.9E1,6.1E1,1.4E1,4E0,1.3E1,3E0,1E0,1E0,9E0,2.1E1,3E0,4.7E1,4E0,6E0,1.3E1,9E0,5.2E1,1E0,1.3E1],"tree_param":{"num_deleted":"0","num_feature":"5","num_nodes":"31","size_leaf_vector":"1"}},{"base_weights":[-1.1360793E-3,2.269713E-3,-1.12202615E-1,1.9996098E-4,2.0293567E-2,-1.2307139E-2,-2.8929375E-3,2.795459E-3,-1.6684374E-2,-3.5775482E-4,8.453445E-3],"categories":[],"categories_nodes":[],"categories_segments":[],"categories_sizes":[],"default_left":[0,0,0,0,0,0,0,0,0,0,0],"id":25,"left_children":[1,3,5,7,-1,-1,-1,9,-1,-1,-1],"loss_changes":[7.628684E-2,8.136385E-2,1.8700883E-3,8.501091E-2,0E0,0E0,0E0,1.008406E-1,0E0,0E0,0E0],"parents":[2147483647,0,0,1,1,2,2,3,3,7,7],"right_children":[2,4,6,8,-1,-1,-1,10,-1,-1,-1],"split_conditions":[9.823786E-1,9.758521E-1,9.929648E-1,9.624473E-1,2.0293567E-2,-1.2307139E-2,-2.8929375E-3,9.0845054E-1,-1.6684374E-2,-3.5775482E-4,8.453445E-3],"split_indices":[0,0,0,0,0,0,0,0,0,0,0],"split_type":[0,0,0,0,0,0,0,0,0,0,0],"sum_hessian":[2E2,1.95E2,5E0,1.94E2,1E0,4E0,1E0,1.92E2,2E0,1.79E2,1.3E1],"tree_param":{"num_deleted":"0","num_feature":"5","num_nodes":"11","size_leaf_vector":"1"}},{"base_weights":[-1.0398667E-3,2.4410788E-2,-1.4235771E-2,-2.5254577E-2,4.819574E-2,-9.935756E-2,-2.5731924E-3,-1.0343837E-1,1.3426983E-1,9.9274136E-2,9.989893E-3,-6.51128E-3,-1.2976371E-1,-1.7737928E-1,5.1163128E-3,3.8501273E-3,-1.5396002E-2,1.5978334E-2,-2.2162348E-3,3.350505E-3,1.3211096E-2,-1.2354582E-2,3.7393586E-3,-2.4825882E-3,3.3373565E-3,-5.1593897E-3,-1.7822875E-2,-2.4092838E-3,-2.0967767E-2,1.7509464E-2,-1.05512496E-4],"categories":[],"categories_nodes":[],"categories_segments":[],"categories_sizes":[],"default_left":[0,0,0,0,0,0,0,0,0,0,0,0,0,0,0,0,0,0,0,0,0,0,0,0,0,0,0,0,0,0,0],"id":26,"left_children":[1,3,5,7,9,11,13,15,17,19,21,23,25,27,29,-1,-1,-1,-1,-1,-1,-1,-1,-1,-1,-1,-1,-1,-1,-1,-1],"loss_changes":[6.785223E-2,8.272605E-2,1.3177869E-1,3.0074975E-1,9.072845E-2,4.4324636E-2,1.5951985E-1,1.20664075E-1,3.5470247E-2,3.8766563E-2,1.0708222E-1,4.4809035E-3,3.626652E-2,1.9702822E-2,1.19771965E-1,0E0,0E0,0E0,0E0,0E0,0E0,0E0,0E0,0E0,0E0,0E0,0E0,0E0,0E0,0E0,0E0],"parents":[2147483647,0,0,1,1,2,2,3,3,4,4,5,5,6,6,7,7,8,8,9,9,10,10,11,11,12,12,13,13,14,14],"right_children":[2,4,6,8,10,12,14,16,18,20,22,24,26,28,30,-1,-1,-1,-1,-1,-1,-1,-1,-1,-1,-1,-1,-1,-1,-1,-1],"split_conditions":[3.4106636E-1,2.5179905E-1,3.886773E-1,1.834045E-1,6.2894285E-1,3.095276E-1,4.522729E-2,1.2706052E-1,7.7127033E-1,4.7347176E-1,1.2915942E-1,8.0233745E-2,4.0941164E-1,4.3612653E-1,5.6375496E-2,3.8501273E-3,-1.5396002E-2,1.5978334E-2,-2.2162348E-3,3.350505E-3,1.3211096E-2,-1.2354582E-2,3.7393586E-3,-2.4825882E-3,3.3373565E-3,-5.1593897E-3,-1.7822875E-2,-2.4092838E-3,-2.0967767E-2,1.7509464E-2,-1.05512496E-4],"split_indices":[0,2,0,0,2,2,3,4,1,1,4,2,3,0,3,0,0,0,0,0,0,0,0,0,0,0,0,0,0,0,0],"split_type":[0,0,0,0,0,0,0,0,0,0,0,0,0,0,0,0,0,0,0,0,0,0,0,0,0,0,0,0,0,0,0],"sum_hessian":[2E2,6.8E1,1.32E2,2.2E1,4.6E1,1.5E1,1.17E2,1.5E1,7E0,1.9E1,2.7E1,4E0,1.1E1,4E0,1.13E2,4E0,1.1E1,6E0,1E0,7E0,1.2E1,4E0,2.3E1,3E0,1E0,5E0,6E0,1E0,3E0,3E0,1.1E2],"tree_param":{"num_deleted":"0","num_feature":"5","num_nodes":"31","size_leaf_vector":"1"}},{"base_weights":[-1.025129E-3,1.5689287E-3,-1.2917471E-1,2.7433673E-2,-1.3428653E-2,-2.0256608E-3,-1.5872853E-2,1.1801061E-2,1.7314099E-2,-5.3453367E-2,1.8329274E-2,5.5805827E-3,-3.255079E-3,-1.3955388E-3,-1.9711634E-2,8.921446E-3,-2.7196056E-3],"categories":[],"categories_nodes":[],"categories_segments":[],"categories_sizes":[],"default_left":[0,0,0,0,0,0,0,0,0,0,0,0,0,0,0,0,0],"id":27,"left_children":[1,3,5,7,9,-1,-1,11,-1,13,15,-1,-1,-1,-1,-1,-1],"loss_changes":[6.702057E-2,7.717429E-2,9.660482E-3,1.6423512E-1,1.6113862E-1,0E0,0E0,1.3257994E-1,0E0,3.1501544E-1,2.3154835E-1,0E0,0E0,0E0,0E0,0E0,0E0],"parents":[2147483647,0,0,1,1,2,2,3,3,4,4,7,7,9,9,10,10],"right_children":[2,4,6,8,10,-1,-1,12,-1,14,16,-1,-1,-1,-1,-1,-1],"split_conditions":[9.856505E-1,3.8920167E-1,3.5567272E-1,3.3799517E-1,6.7189276E-1,-2.0256608E-3,-1.5872853E-2,4.983678E-1,1.7314099E-2,6.232981E-1,4.3747494E-1,5.5805827E-3,-3.255079E-3,-1.3955388E-3,-1.9711634E-2,8.921446E-3,-2.7196056E-3],"split_indices":[4,1,0,1,1,0,0,4,0,1,2,0,0,0,0,0,0],"split_type":[0,0,0,0,0,0,0,0,0,0,0,0,0,0,0,0,0],"sum_hessian":[2E2,1.97E2,3E0,7.2E1,1.25E2,1E0,2E0,6.6E1,6E0,5.5E1,7E1,3.3E1,3.3E1,4.4E1,1.1E1,2.7E1,4.3E1],"tree_param":{"num_deleted":"0","num_feature":"5","num_nodes":"17","size_leaf_vector":"1"}},{"base_weights":[-9.881174E-4,-2.7331872E-2,1.1236436E-2,8.0415115E-2,-4.4160284E-2,1.504713E-1,3.5593167E-4,1.7456095E-1,-1.6606355E-2,5.017104E-3,-1.01096384E-1,-7.090214E-3,1.8294638E-2,1.1797265E-1,-8.395361E-3,8.431538E-3,2.211663E-2,-7.876719E-3,3.758413E-3,-2.4342172E-2,-6.415443E-3,6.097119E-3,1.739817E-2,-1.2559664E-2,1.01354985E-4],"categories":[],"categories_nodes":[],"categories_segments":[],"categories_sizes":[],"default_left":[0,0,0,0,0,0,0,0,0,0,0,0,0,0,0,0,0,0,0,0,0,0,0,0,0],"id":28,"left_children":[1,3,5,7,9,11,13,15,-1,17,19,-1,-1,21,23,-1,-1,-1,-1,-1,-1,-1,-1,-1,-1],"loss_changes":[6.503728E-2,1.1959664E-1,2.0900892E-1,2.378327E-1,1.5730546E-1,8.486247E-2,1.337699E-1,1.0793775E-2,0E0,8.754715E-2,1.21085584E-1,0E0,0E0,1.8125504E-2,1.335584E-1,0E0,0E0,0E0,0E0,0E0,0E0,0E0,0E0,0E0,0E0],"parents":[2147483647,0,0,1,1,2,2,3,3,4,4,5,5,6,6,7,7,9,9,10,10,13,13,14,14],"right_children":[2,4,6,8,10,12,14,16,-1,18,20,-1,-1,22,24,-1,-1,-1,-1,-1,-1,-1,-1,-1,-1],"split_conditions":[3.5675332E-1,1.4092423E-1,3.7461263E-1,3.3519724E-1,4.5913577E-1,3.1429186E-2,7.697991E-2,4.937956E-1,-1.6606355E-2,1.20635875E-1,4.9549133E-1,-7.090214E-3,1.8294638E-2,3.2078007E-1,1.07891425E-1,8.431538E-3,2.211663E-2,-7.876719E-3,3.758413E-3,-2.4342172E-2,-6.415443E-3,6.097119E-3,1.739817E-2,-1.2559664E-2,1.01354985E-4],"split_indices":[3,1,3,4,0,0,4,0,0,4,0,0,0,1,4,0,0,0,0,0,0,0,0,0,0],"split_type":[0,0,0,0,0,0,0,0,0,0,0,0,0,0,0,0,0,0,0,0,0,0,0,0,0],"sum_hessian":[2E2,6.3E1,1.37E2,8E0,5.5E1,9E0,1.28E2,6E0,2E0,3E1,2.5E1,1E0,8E0,8E0,1.2E2,3E0,3E0,8E0,2.2E1,4E0,2.1E1,5E0,3E0,8E0,1.12E2],"tree_param":{"num_deleted":"0","num_feature":"5","num_nodes":"25","size_leaf_vector":"1"}},{"base_weights":[-8.827939E-4,2.2187536E-3,-1.0205288E-1,2.456321E-4,1.9348873E-2,-1.2198152E-2,-4.146374E-3,2.6497236E-3,-1.5449946E-2,-2.7563152E-4,7.196667E-3],"categories":[],"categories_nodes":[],"categories_segments":[],"categories_sizes":[],"default_left":[0,0,0,0,0,0,0,0,0,0,0],"id":29,"left_children":[1,3,5,7,-1,-1,-1,9,-1,-1,-1],"loss_changes":[6.329698E-2,7.392265E-2,2.1869503E-3,7.2953545E-2,0E0,0E0,0E0,7.252127E-2,0E0,0E0,0E0],"parents":[2147483647,0,0,1,1,2,2,3,3,7,7],"right_children":[2,4,6,8,-1,-1,-1,10,-1,-1,-1],"split_conditions":[9.823786E-1,9.758521E-1,3.990027E-1,9.624473E-1,1.9348873E-2,-1.2198152E-2,-4.146374E-3,9.0845054E-1,-1.5449946E-2,-2.7563152E-4,7.196667E-3],"split_indices":[0,0,2,0,0,0,0,0,0,0,0],"split_type":[0,0,0,0,0,0,0,0,0,0,0],"sum_hessian":[2E2,1.95E2,5E0,1.94E2,1E0,3E0,2E0,1.92E2,2E0,1.79E2,1.3E1],"tree_param":{"num_deleted":"0","num_feature":"5","num_nodes":"11","size_leaf_vector":"1"}},{"base_weights":[-8.2200905E-4,1.5690099E-3,-1.18971944E-1,-9.461266E-3,3.2720577E-2,-1.9156635E-3,-1.4585817E-2,5.0913836E-3,-6.885105E-2,7.578602E-2,-2.0680191E-2,-8.773622E-5,1.7691216E-2,-1.487341E-2,-2.5466983E-3,1.3873589E-2,-1.56998E-4,3.499598E-3,-1.3640704E-2],"categories":[],"categories_nodes":[],"categories_segments":[],"categories_sizes":[],"default_left":[0,0,0,0,0,0,0,0,0,0,0,0,0,0,0,0,0,0,0],"id":30,"left_children":[1,3,5,7,9,-1,-1,11,13,15,17,-1,-1,-1,-1,-1,-1,-1,-1],"loss_changes":[5.6968912E-2,6.834444E-2,7.940475E-3,1.2739952E-1,1.211531E-1,0E0,0E0,1.2219619E-1,9.671609E-2,1.414348E-1,1.5941116E-1,0E0,0E0,0E0,0E0,0E0,0E0,0E0,0E0],"parents":[2147483647,0,0,1,1,2,2,3,3,4,4,7,7,8,8,9,9,10,10],"right_children":[2,4,6,8,10,-1,-1,12,14,16,18,-1,-1,-1,-1,-1,-1,-1,-1],"split_conditions":[9.856505E-1,6.903948E-1,3.5567272E-1,5.707783E-1,8.4922343E-1,-1.9156635E-3,-1.4585817E-2,9.2969763E-1,5.968428E-1,5.416342E-1,6.7170066E-1,-8.773622E-5,1.7691216E-2,-1.487341E-2,-2.5466983E-3,1.3873589E-2,-1.56998E-4,3.499598E-3,-1.3640704E-2],"split_indices":[4,4,0,4,4,0,0,2,4,2,3,0,0,0,0,0,0,0,0],"split_type":[0,0,0,0,0,0,0,0,0,0,0,0,0,0,0,0,0,0,0],"sum_hessian":[2E2,1.97E2,3E0,1.46E2,5.1E1,1E0,2E0,1.18E2,2.8E1,2.8E1,2.3E1,1.15E2,3E0,9E0,1.9E1,1.5E1,1.3E1,1.6E1,7E0],"tree_param":{"num_deleted":"0","num_feature":"5","num_nodes":"19","size_leaf_vector":"1"}},{"base_weights":[-8.03203E-4,-2.4442699E-2,1.0165862E-2,8.4286835E-3,-7.60592E-2,1.3436954E-1,4.5886514E-4,1.3778119E-2,-1.3986852E-2,-1.2091847E-1,3.438154E-2,-6.717536E-3,1.6422734E-2,1.071335E-1,-7.479404E-3,1.1297896E-2,-4.4151465E-3,-1.44571215E-2,4.5535685E-3,-5.962523E-3,1.0271065E-2,5.619304E-3,1.5676083E-2,-1.1493976E-2,1.14557486E-4],"categories":[],"categories_nodes":[],"categories_segments":[],"categories_sizes":[],"default_left":[0,0,0,0,0,0,0,0,0,0,0,0,0,0,0,0,0,0,0,0,0,0,0,0,0],"id":31,"left_children":[1,3,5,7,9,11,13,-1,15,17,19,-1,-1,21,23,-1,-1,-1,-1,-1,-1,-1,-1,-1,-1],"loss_changes":[5.2368414E-2,1.09230265E-1,1.6631731E-1,1.1790735E-1,1.2801462E-1,7.120891E-2,1.1004004E-1,0E0,1.390338E-1,7.74509E-2,5.751134E-2,0E0,0E0,1.3943486E-2,1.1227971E-1,0E0,0E0,0E0,0E0,0E0,0E0,0E0,0E0,0E0,0E0],"parents":[2147483647,0,0,1,1,2,2,3,3,4,4,5,5,6,6,8,8,9,9,10,10,13,13,14,14],"right_children":[2,4,6,8,10,12,14,-1,16,18,20,-1,-1,22,24,-1,-1,-1,-1,-1,-1,-1,-1,-1,-1],"split_conditions":[3.5675332E-1,2.1494038E-1,3.7461263E-1,1.4991742E-1,7.257195E-1,3.1429186E-2,7.697991E-2,1.3778119E-2,1.4092423E-1,8.105533E-1,3.8313854E-1,-6.717536E-3,1.6422734E-2,3.2078007E-1,1.07891425E-1,1.1297896E-2,-4.4151465E-3,-1.44571215E-2,4.5535685E-3,-5.962523E-3,1.0271065E-2,5.619304E-3,1.5676083E-2,-1.1493976E-2,1.14557486E-4],"split_indices":[3,3,3,0,4,0,4,0,1,2,0,0,0,1,4,0,0,0,0,0,0,0,0,0,0],"split_type":[0,0,0,0,0,0,0,0,0,0,0,0,0,0,0,0,0,0,0,0,0,0,0,0,0],"sum_hessian":[2E2,6.3E1,1.37E2,3.9E1,2.4E1,9E0,1.28E2,5E0,3.4E1,1.7E1,7E0,1E0,8E0,8E0,1.2E2,6E0,2.8E1,1.5E1,2E0,3E0,4E0,5E0,3E0,8E0,1.12E2],"tree_param":{"num_deleted":"0","num_feature":"5","num_nodes":"25","size_leaf_vector":"1"}},{"base_weights":[-5.5030995E-4,5.2778646E-3,-4.375301E-2,-2.9884342E-3,1.1987737E-1,-1.1643185E-1,3.862848E-2,1.0135432E-2,-3.479969E-2,-5.8563813E-3,1.6142198E-1,8.168042E-3,-1.397479E-1,8.691963E-2,-1.3521816E-2,-1.8426424E-3,6.492205E-3,-2.1210968E-2,-1.8624917E-3,-2.1018372E-3,1.840285E-2,-5.3415564E-3,-2.1717764E-2,-3.474695E-3,2.155356E-2],"categories":[],"categories_nodes":[],"categories_segments":[],"categories_sizes":[],"default_left":[0,0,0,0,0,0,0,0,0,0,0,0,0,0,0,0,0,0,0,0,0,0,0,0,0],"id":32,"left_children":[1,3,5,7,9,11,13,15,17,-1,19,-1,21,23,-1,-1,-1,-1,-1,-1,-1,-1,-1,-1,-1],"loss_changes":[5.0841287E-2,1.6898006E-1,1.4819498E-1,7.0072986E-2,9.841274E-2,7.146421E-2,1.1249616E-1,1.8740837E-1,1.3657898E-1,0E0,4.5111418E-2,0E0,6.861563E-2,1.6397186E-1,0E0,0E0,0E0,0E0,0E0,0E0,0E0,0E0,0E0,0E0,0E0],"parents":[2147483647,0,0,1,1,2,2,3,3,4,4,5,5,6,6,7,7,8,8,10,10,12,12,13,13],"right_children":[2,4,6,8,10,12,14,16,18,-1,20,-1,22,24,-1,-1,-1,-1,-1,-1,-1,-1,-1,-1,-1],"split_conditions":[8.877042E-1,8.2253724E-1,9.2969763E-1,6.966508E-1,6.107796E-2,1.8110184E-2,8.738901E-1,4.944203E-1,7.2003657E-1,-5.8563813E-3,1.3001923E-2,8.168042E-3,4.5243952E-1,5.8058834E-1,-1.3521816E-2,-1.8426424E-3,6.492205E-3,-2.1210968E-2,-1.8624917E-3,-2.1018372E-3,1.840285E-2,-5.3415564E-3,-2.1717764E-2,-3.474695E-3,2.155356E-2],"split_indices":[2,2,2,3,1,4,3,3,3,0,3,0,1,3,0,0,0,0,0,0,0,0,0,0,0],"split_type":[0,0,0,0,0,0,0,0,0,0,0,0,0,0,0,0,0,0,0,0,0,0,0,0,0],"sum_hessian":[2E2,1.77E2,2.3E1,1.66E2,1.1E1,1.2E1,1.1E1,1.18E2,4.8E1,2E0,9E0,1E0,1.1E1,9E0,2E0,7.8E1,4E1,3E0,4.5E1,1E0,8E0,6E0,5E0,5E0,4E0],"tree_param":{"num_deleted":"0","num_feature":"5","num_nodes":"25","size_leaf_vector":"1"}},{"base_weights":[-6.0630025E-4,-8.1856176E-2,2.3134712E-3,6.9463192E-3,-1.5627657E-1,2.7156124E-2,-1.1201934E-2,-1.8237902E-2,-2.5933378E-3,-6.5402605E-2,4.7789585E-2,-4.6638213E-2,1.7404681E-2,-8.921963E-4,-1.9025356E-2,5.9184716E-3,-1.1799203E-2,-1.8530143E-3,-2.1648386E-2,7.621503E-3,-2.0415648E-3],"categories":[],"categories_nodes":[],"categories_segments":[],"categories_sizes":[],"default_left":[0,0,0,0,0,0,0,0,0,0,0,0,0,0,0,0,0,0,0,0,0],"id":33,"left_children":[1,3,5,-1,7,9,11,-1,-1,13,15,17,19,-1,-1,-1,-1,-1,-1,-1,-1],"loss_changes":[4.787282E-2,8.9684196E-2,6.5777116E-2,0E0,1.2281679E-2,1.3490225E-1,1.2955314E-1,0E0,0E0,8.997418E-2,1.1466217E-1,2.6810843E-1,1.5947609E-1,0E0,0E0,0E0,0E0,0E0,0E0,0E0,0E0],"parents":[2147483647,0,0,1,1,2,2,4,4,5,5,6,6,9,9,10,10,11,11,12,12],"right_children":[2,4,6,-1,8,10,12,-1,-1,14,16,18,20,-1,-1,-1,-1,-1,-1,-1,-1],"split_conditions":[2.6532203E-2,1.1976213E-1,3.8920167E-1,6.9463192E-3,2.651131E-2,1.6162871E-1,6.7189276E-1,-1.8237902E-2,-2.5933378E-3,1.3637148E-1,9.414648E-1,6.4087474E-1,4.3747494E-1,-8.921963E-4,-1.9025356E-2,5.9184716E-3,-1.1799203E-2,-1.8530143E-3,-2.1648386E-2,7.621503E-3,-2.0415648E-3],"split_indices":[1,4,1,0,1,2,1,0,0,2,4,1,2,0,0,0,0,0,0,0,0],"split_type":[0,0,0,0,0,0,0,0,0,0,0,0,0,0,0,0,0,0,0,0,0],"sum_hessian":[2E2,6E0,1.94E2,2E0,4E0,6.8E1,1.26E2,3E0,1E0,1.2E1,5.6E1,5.6E1,7E1,9E0,3E0,5.3E1,3E0,4.9E1,7E0,2.7E1,4.3E1],"tree_param":{"num_deleted":"0","num_feature":"5","num_nodes":"21","size_leaf_vector":"1"}},{"base_weights":[-8.3225715E-4,1.8896696E-3,-8.960982E-2,-4.8306124E-6,1.8565862E-2,-1.07601404E-1,-3.57511E-3,2.0890776E-3,-1.3471131E-2,-1.22769205E-2,-3.1048998E-3,-2.747761E-4,6.412779E-3],"categories":[],"categories_nodes":[],"categories_segments":[],"categories_sizes":[],"default_left":[0,0,0,0,0,0,0,0,0,0,0,0,0],"id":34,"left_children":[1,3,5,7,-1,9,-1,11,-1,-1,-1,-1,-1],"loss_changes":[4.8740182E-2,6.8238355E-2,1.9671544E-3,5.5283714E-2,0E0,8.3266944E-4,0E0,5.8089957E-2,0E0,0E0,0E0,0E0,0E0],"parents":[2147483647,0,0,1,1,2,2,3,3,5,5,7,7],"right_children":[2,4,6,8,-1,10,-1,12,-1,-1,-1,-1,-1],"split_conditions":[9.823786E-1,9.758521E-1,3.990027E-1,9.624473E-1,1.8565862E-2,4.148195E-1,-3.57511E-3,9.0845054E-1,-1.3471131E-2,-1.22769205E-2,-3.1048998E-3,-2.747761E-4,6.412779E-3],"split_indices":[0,0,2,0,0,1,0,0,0,0,0,0,0],"split_type":[0,0,0,0,0,0,0,0,0,0,0,0,0],"sum_hessian":[2E2,1.95E2,5E0,1.94E2,1E0,3E0,2E0,1.92E2,2E0,2E0,1E0,1.79E2,1.3E1],"tree_param":{"num_deleted":"0","num_feature":"5","num_nodes":"13","size_leaf_vector":"1"}},{"base_weights":[-7.8746025E-4,-5.9282172E-2,3.240152E-3,-1.0424222E-1,3.350235E-2,7.641119E-2,-2.1522976E-3,-1.6514294E-2,-4.6268035E-2,5.0569116E-3,-1.7382354E-3,1.2023699E-1,-5.225613E-2,-1.23818144E-1,1.3764972E-3,-1.2961709E-3,-5.033696E-3,1.3135496E-2,1.0087669E-3,8.0670416E-4,-1.1661283E-2,2.7443678E-3,-1.6849453E-2,-4.1035186E-3,1.2820701E-3],"categories":[],"categories_nodes":[],"categories_segments":[],"categories_sizes":[],"default_left":[0,0,0,0,0,0,0,0,0,0,0,0,0,0,0,0,0,0,0,0,0,0,0,0,0],"id":35,"left_children":[1,3,5,7,9,11,13,-1,15,-1,-1,17,19,21,23,-1,-1,-1,-1,-1,-1,-1,-1,-1,-1],"loss_changes":[4.754648E-2,5.7723112E-2,7.47384E-2,2.4135187E-2,5.2211965E-3,7.958946E-2,7.616252E-2,0E0,1.6067177E-4,0E0,0E0,1.0921285E-2,1.646952E-2,3.8413264E-2,8.449476E-2,0E0,0E0,0E0,0E0,0E0,0E0,0E0,0E0,0E0,0E0],"parents":[2147483647,0,0,1,1,2,2,3,3,4,4,5,5,6,6,8,8,11,11,12,12,13,13,14,14],"right_children":[2,4,6,8,10,12,14,-1,16,-1,-1,18,20,22,24,-1,-1,-1,-1,-1,-1,-1,-1,-1,-1],"split_conditions":[5.1425815E-2,6.311386E-1,1.2466268E-1,3.9224404E-1,2.8782677E-2,6.966508E-1,2.651131E-2,-1.6514294E-2,1.9710537E-2,5.0569116E-3,-1.7382354E-3,7.982952E-1,6.1062E-1,5.6375496E-2,2.7687764E-1,-1.2961709E-3,-5.033696E-3,1.3135496E-2,1.0087669E-3,8.0670416E-4,-1.1661283E-2,2.7443678E-3,-1.6849453E-2,-4.1035186E-3,1.2820701E-3],"split_indices":[2,4,2,1,2,3,1,0,2,0,0,1,0,3,2,0,0,0,0,0,0,0,0,0,0],"split_type":[0,0,0,0,0,0,0,0,0,0,0,0,0,0,0,0,0,0,0,0,0,0,0,0,0],"sum_hessian":[2E2,1.2E1,1.88E2,8E0,4E0,1.2E1,1.76E2,3E0,5E0,3E0,1E0,9E0,3E0,4E0,1.72E2,1E0,4E0,8E0,1E0,2E0,1E0,1E0,3E0,3.6E1,1.36E2],"tree_param":{"num_deleted":"0","num_feature":"5","num_nodes":"25","size_leaf_vector":"1"}},{"base_weights":[-8.7371067E-4,2.396086E-2,-1.0393315E-2,-3.779236E-2,5.6693386E-2,1.48190595E-2,-3.3810228E-2,-9.007831E-2,1.3708115E-1,3.5625853E-2,1.5960468E-2,-3.0635104E-2,6.8088554E-2,-1.459607E-1,-1.656672E-2,1.2612599E-2,-1.1290032E-2,1.6015131E-2,2.2400261E-3,5.913372E-3,-2.1132814E-2,-5.163938E-4,-2.0280624E-2,3.2752862E-3,2.2164037E-2,-4.3469947E-3,-2.3975749E-2,-1.6454635E-2,3.4400105E-4],"categories":[],"categories_nodes":[],"categories_segments":[],"categories_sizes":[],"default_left":[0,0,0,0,0,0,0,0,0,0,0,0,0,0,0,0,0,0,0,0,0,0,0,0,0,0,0,0,0],"id":36,"left_children":[1,3,5,7,9,11,13,15,17,19,-1,21,23,25,27,-1,-1,-1,-1,-1,-1,-1,-1,-1,-1,-1,-1,-1,-1],"loss_changes":[4.7768503E-2,1.1533755E-1,8.6698845E-2,1.9521658E-1,7.4533194E-2,1.7399964E-1,1.4455587E-1,9.318715E-2,9.641096E-3,1.9826822E-1,0E0,1.699833E-1,1.71794E-1,8.571078E-2,1.9892547E-1,0E0,0E0,0E0,0E0,0E0,0E0,0E0,0E0,0E0,0E0,0E0,0E0,0E0,0E0],"parents":[2147483647,0,0,1,1,2,2,3,3,4,4,5,5,6,6,7,7,8,8,9,9,11,11,12,12,13,13,14,14],"right_children":[2,4,6,8,10,12,14,16,18,20,-1,22,24,26,28,-1,-1,-1,-1,-1,-1,-1,-1,-1,-1,-1,-1,-1,-1],"split_conditions":[2.4398965E-1,2.5179905E-1,4.5454106E-1,1.834045E-1,9.025529E-1,5.54178E-1,5.142344E-1,9.398194E-2,4.5328882E-1,8.3889806E-1,1.5960468E-2,5.2273285E-1,3.978556E-1,6.031521E-1,1.3401523E-1,1.2612599E-2,-1.1290032E-2,1.6015131E-2,2.2400261E-3,5.913372E-3,-2.1132814E-2,-5.163938E-4,-2.0280624E-2,3.2752862E-3,2.2164037E-2,-4.3469947E-3,-2.3975749E-2,-1.6454635E-2,3.4400105E-4],"split_indices":[0,2,2,0,1,1,2,3,1,1,0,1,2,1,1,0,0,0,0,0,0,0,0,0,0,0,0,0,0],"split_type":[0,0,0,0,0,0,0,0,0,0,0,0,0,0,0,0,0,0,0,0,0,0,0,0,0,0,0,0,0],"sum_hessian":[2E2,5.5E1,1.45E2,1.9E1,3.6E1,7E1,7.5E1,1.5E1,4E0,3.1E1,5E0,3.8E1,3.2E1,9E0,6.6E1,1E0,1.4E1,3E0,1E0,2.9E1,2E0,3.4E1,4E0,2.7E1,5E0,5E0,4E0,7E0,5.9E1],"tree_param":{"num_deleted":"0","num_feature":"5","num_nodes":"29","size_leaf_vector":"1"}},{"base_weights":[-8.832108E-4,3.9820164E-3,-4.2774778E-2,-9.04246E-3,4.5991786E-2,-7.015048E-2,9.110955E-2,6.101734E-3,-9.94555E-2,6.4049795E-2,-7.60409E-2,1.5069959E-2,-1.04086794E-1,1.26712015E-2,-7.848904E-4,-5.789189E-4,7.8487275E-3,-1.5754975E-2,-1.0945876E-3,-4.265831E-3,8.952125E-3,-1.5365121E-2,5.278647E-3,-6.337844E-3,1.14644505E-2,7.4597746E-3,-1.2519366E-2],"categories":[],"categories_nodes":[],"categories_segments":[],"categories_sizes":[],"default_left":[0,0,0,0,0,0,0,0,0,0,0,0,0,0,0,0,0,0,0,0,0,0,0,0,0,0,0],"id":37,"left_children":[1,3,5,7,9,11,13,15,17,19,21,23,25,-1,-1,-1,-1,-1,-1,-1,-1,-1,-1,-1,-1,-1,-1],"loss_changes":[4.1136544E-2,9.945098E-2,8.336009E-2,1.9093017E-1,9.9628106E-2,5.3625792E-2,1.5087202E-2,1.0374209E-1,1.0111348E-1,1.0710321E-1,6.810069E-2,5.4134775E-2,5.8368266E-2,0E0,0E0,0E0,0E0,0E0,0E0,0E0,0E0,0E0,0E0,0E0,0E0,0E0,0E0],"parents":[2147483647,0,0,1,1,2,2,3,3,4,4,5,5,6,6,7,7,8,8,9,9,10,10,11,11,12,12],"right_children":[2,4,6,8,10,12,14,16,18,20,22,24,26,-1,-1,-1,-1,-1,-1,-1,-1,-1,-1,-1,-1,-1,-1],"split_conditions":[9.148459E-1,6.9701576E-1,9.8663956E-1,6.232981E-1,8.877042E-1,2.4929222E-1,6.158501E-1,5.543541E-1,6.7189276E-1,1.07891425E-1,9.484533E-1,3.965428E-1,1.8110184E-2,1.26712015E-2,-7.848904E-4,-5.789189E-4,7.8487275E-3,-1.5754975E-2,-1.0945876E-3,-4.265831E-3,8.952125E-3,-1.5365121E-2,5.278647E-3,-6.337844E-3,1.14644505E-2,7.4597746E-3,-1.2519366E-2],"split_indices":[1,1,1,1,2,0,0,1,1,4,2,2,4,0,0,0,0,0,0,0,0,0,0,0,0,0,0],"split_type":[0,0,0,0,0,0,0,0,0,0,0,0,0,0,0,0,0,0,0,0,0,0,0,0,0,0,0],"sum_hessian":[2E2,1.8E2,2E1,1.38E2,4.2E1,1.7E1,3E0,1.19E2,1.9E1,3.7E1,5E0,5E0,1.2E1,2E0,1E0,1.03E2,1.6E1,1.1E1,8E0,7E0,3E1,3E0,2E0,3E0,2E0,1E0,1.1E1],"tree_param":{"num_deleted":"0","num_feature":"5","num_nodes":"27","size_leaf_vector":"1"}},{"base_weights":[-8.099439E-4,1.2451771E-3,-1.02335945E-1,2.268365E-2,-1.1185408E-2,-2.2226304E-3,-1.2163039E-2,9.213949E-3,1.4836741E-2,-6.111536E-2,4.37216E-3,2.109141E-3,-9.560593E-3,3.933659E-4,-1.0469991E-2,1.2401152E-2,-6.31103E-4],"categories":[],"categories_nodes":[],"categories_segments":[],"categories_sizes":[],"default_left":[0,0,0,0,0,0,0,0,0,0,0,0,0,0,0,0,0],"id":38,"left_children":[1,3,5,7,9,-1,-1,11,-1,13,15,-1,-1,-1,-1,-1,-1],"loss_changes":[4.206572E-2,5.301929E-2,3.4792908E-3,1.22216284E-1,9.814258E-2,0E0,0E0,8.5431084E-2,0E0,8.5465826E-2,1.24761246E-1,0E0,0E0,0E0,0E0,0E0,0E0],"parents":[2147483647,0,0,1,1,2,2,3,3,4,4,7,7,9,9,10,10],"right_children":[2,4,6,8,10,-1,-1,12,-1,14,16,-1,-1,-1,-1,-1,-1],"split_conditions":[9.856505E-1,3.8920167E-1,3.5567272E-1,3.3799517E-1,5.543541E-1,-2.2226304E-3,-1.2163039E-2,3.1171107E-1,1.4836741E-2,4.4844553E-1,5.9359246E-1,2.109141E-3,-9.560593E-3,3.933659E-4,-1.0469991E-2,1.2401152E-2,-6.31103E-4],"split_indices":[4,1,0,1,1,0,0,1,0,0,1,0,0,0,0,0,0],"split_type":[0,0,0,0,0,0,0,0,0,0,0,0,0,0,0,0,0],"sum_hessian":[2E2,1.97E2,3E0,7.2E1,1.25E2,1E0,2E0,6.6E1,6E0,2.9E1,9.6E1,6E1,6E0,1.2E1,1.7E1,7E0,8.9E1],"tree_param":{"num_deleted":"0","num_feature":"5","num_nodes":"17","size_leaf_vector":"1"}},{"base_weights":[-7.553639E-4,2.4396402E-3,-6.2023904E-2,-3.4345826E-3,5.9414603E-2,-8.1575096E-2,5.696839E-3,-8.298824E-3,7.765527E-2,-6.1635118E-2,1.2507573E-1,3.80947E-3,-1.0129566E-1,6.2384707E-4,-7.180764E-3,-3.1222345E-3,1.9277737E-2,2.138724E-3,-9.912151E-3,1.5313645E-2,-9.179607E-3,-1.1084854E-2,-1.7212763E-3],"categories":[],"categories_nodes":[],"categories_segments":[],"categories_sizes":[],"default_left":[0,0,0,0,0,0,0,0,0,0,0,0,0,0,0,0,0,0,0,0,0,0,0],"id":39,"left_children":[1,3,5,7,9,11,-1,13,15,17,19,-1,21,-1,-1,-1,-1,-1,-1,-1,-1,-1,-1],"loss_changes":[3.949772E-2,6.4463325E-2,2.791161E-2,6.967155E-2,1.5077776E-1,2.509842E-2,0E0,1.5370686E-1,1.3136113E-1,2.3905395E-2,8.708425E-2,0E0,4.5178607E-3,0E0,0E0,0E0,0E0,0E0,0E0,0E0,0E0,0E0,0E0],"parents":[2147483647,0,0,1,1,2,2,3,3,4,4,5,5,7,7,8,8,9,9,10,10,12,12],"right_children":[2,4,6,8,10,12,-1,14,16,18,20,-1,22,-1,-1,-1,-1,-1,-1,-1,-1,-1,-1],"split_conditions":[9.5023733E-1,8.92559E-1,9.8727614E-1,9.2969763E-1,1.7701049E-1,2.8782677E-2,5.696839E-3,6.966508E-1,5.8058834E-1,1.8123306E-1,9.0115803E-1,3.80947E-3,9.848412E-1,6.2384707E-4,-7.180764E-3,-3.1222345E-3,1.9277737E-2,2.138724E-3,-9.912151E-3,1.5313645E-2,-9.179607E-3,-1.1084854E-2,-1.7212763E-3],"split_indices":[3,3,3,2,2,2,0,3,3,1,0,0,0,0,0,0,0,0,0,0,0,0,0],"split_type":[0,0,0,0,0,0,0,0,0,0,0,0,0,0,0,0,0,0,0,0,0,0,0],"sum_hessian":[2E2,1.91E2,9E0,1.74E2,1.7E1,8E0,1E0,1.65E2,9E0,6E0,1.1E1,1E0,7E0,1.35E2,3E1,5E0,4E0,2E0,4E0,1E1,1E0,6E0,1E0],"tree_param":{"num_deleted":"0","num_feature":"5","num_nodes":"23","size_leaf_vector":"1"}}]},"name":"gbtree"},"learner_model_param":{"base_score":"5.4365164E-1","boost_from_average":"1","num_class":"0","num_feature":"5","num_target":"1"},"objective":{"name":"reg:squarederror","reg_loss_param":{"scale_pos_weight":"1"}}},"version":[3,0,3]}