{"learner":{"attributes":{"scikit_learn":"{\"_estimator_type\": \"regressor\"}"},"feature_names":[],"feature_types":[],"gradient_booster":{"model":{"gbtree_model_param":{"num_parallel_tree":"1","num_trees":"150"},"iteration_indptr":[0,1,2,3,4,5,6,7,8,9,10,11,12,13,14,15,16,17,18,19,20,21,22,23,24,25,26,27,28,29,30,31,32,33,34,35,36,37,38,39,40,41,42,43,44,45,46,47,48,49,50,51,52,53,54,55,56,57,58,59,60,61,62,63,64,65,66,67,68,69,70,71,72,73,74,75,76,77,78,79,80,81,82,83,84,85,86,87,88,89,90,91,92,93,94,95,96,97,98,99,100,101,102,103,104,105,106,107,108,109,110,111,112,113,114,115,116,117,118,119,120,121,122,123,124,125,126,127,128,129,130,131,132,133,134,135,136,137,138,139,140,141,142,143,144,145,146,147,148,149,150],"tree_info":[0,0,0,0,0,0,0,0,0,0,0,0,0,0,0,0,0,0,0,0,0,0,0,0,0,0,0,0,0,0,0,0,0,0,0,0,0,0,0,0,0,0,0,0,0,0,0,0,0,0,0,0,0,0,0,0,0,0,0,0,0,0,0,0,0,0,0,0,0,0,0,0,0,0,0,0,0,0,0,0,0,0,0,0,0,0,0,0,0,0,0,0,0,0,0,0,0,0,0,0,0,0,0,0,0,0,0,0,0,0,0,0,0,0,0,0,0,0,0,0,0,0,0,0,0,0,0,0,0,0,0,0,0,0,0,0,0,0,0,0,0,0,0,0,0,0,0,0,0,0],"trees":[{"base_weights":[-4.0032972E-9,4.969304E-2,-8.595554E-2,-8.8137075E-2,8.400265E-2,-1.6983598E-1,-2.8125115E-2,-1.3782628E-1,2.1961013E-2,-1.4994457E-1,1.02623224E-1,-2.1850967E-1,1.1723439E-1,1.4218478E-2,-3.0572822E-2,1.2506111E-1,-1.6881847E-1,1.8674234E-2,-2.2472018E-1,1.7630479E-1,2.2055108E-2,8.383479E-3,-2.7729207E-1,-3.8933754E-3,1.9928401E-2,1.22557856E-1,-7.118706E-2,2.7780326E-3,1.5981136E-2,-3.0142784E-2,-4.424245E-3,-3.045628E-2,-8.8697495E-3,1.2383063E-2,2.8007299E-2,7.7366023E-3,-1.2855545E-2,-3.1930216E-2,-7.0597394E-3,-2.188033E-3,1.6040265E-3,1.9770997E-2,-1.89902E-2,-2.3865515E-2,3.4039603E-3],"categories":[],"categories_nodes":[],"categories_segments":[],"categories_sizes":[],"default_left":[0,0,0,0,0,0,0,0,0,0,0,0,0,0,0,0,0,0,0,0,0,0,0,0,0,0,0,0,0,0,0,0,0,0,0,0,0,0,0,0,0,0,0,0,0],"id":0,"left_children":[1,3,5,7,9,11,13,15,-1,17,19,21,23,25,-1,27,29,-1,31,33,35,-1,37,39,-1,41,43,-1,-1,-1,-1,-1,-1,-1,-1,-1,-1,-1,-1,-1,-1,-1,-1,-1,-1],"loss_changes":[8.628212E-1,6.127027E-1,3.5418564E-1,4.2785263E-1,4.6407962E-1,4.4480008E-1,5.333091E-1,2.0850408E-1,0E0,2.433725E-1,5.6600463E-1,4.853325E-1,5.0468326E-2,3.7883586E-1,0E0,5.7019778E-3,3.33583E-1,0E0,4.9008906E-2,2.3757577E-1,4.0147504E-1,0E0,1.6848981E-1,1.4266027E-3,0E0,4.6022174E-1,4.1343218E-1,0E0,0E0,0E0,0E0,0E0,0E0,0E0,0E0,0E0,0E0,0E0,0E0,0E0,0E0,0E0,0E0,0E0,0E0],"parents":[2147483647,0,0,1,1,2,2,3,3,4,4,5,5,6,6,7,7,9,9,10,10,11,11,12,12,13,13,15,15,16,16,18,18,19,19,20,20,22,22,23,23,25,25,26,26],"right_children":[2,4,6,8,10,12,14,16,-1,18,20,22,24,26,-1,28,30,-1,32,34,36,-1,38,40,-1,42,44,-1,-1,-1,-1,-1,-1,-1,-1,-1,-1,-1,-1,-1,-1,-1,-1,-1,-1],"split_conditions":[6.094937E-1,2.3344819E-1,4.1117814E-1,8.898598E-1,5.0353084E-2,8.675086E-1,9.0927035E-1,8.921301E-2,2.1961013E-2,2.2244468E-1,5.8562404E-1,1.2417739E-1,4.2640582E-1,6.6348594E-1,-3.0572822E-2,1.6116872E-1,1.9608179E-1,1.8674234E-2,2.2571352E-1,3.7957877E-1,7.837372E-1,8.383479E-3,7.47231E-1,3.323906E-1,1.9928401E-2,8.6603385E-1,7.971582E-1,2.7780326E-3,1.5981136E-2,-3.0142784E-2,-4.424245E-3,-3.045628E-2,-8.8697495E-3,1.2383063E-2,2.8007299E-2,7.7366023E-3,-1.2855545E-2,-3.1930216E-2,-7.0597394E-3,-2.188033E-3,1.6040265E-3,1.9770997E-2,-1.89902E-2,-2.3865515E-2,3.4039603E-3],"split_indices":[4,8,9,7,5,5,6,5,0,2,5,6,1,9,0,0,4,0,3,5,2,0,7,0,0,4,4,0,0,0,0,0,0,0,0,0,0,0,0,0,0,0,0,0,0],"split_type":[0,0,0,0,0,0,0,0,0,0,0,0,0,0,0,0,0,0,0,0,0,0,0,0,0,0,0,0,0,0,0,0,0,0,0,0,0,0,0,0,0,0,0,0,0],"sum_hessian":[2E2,1.27E2,7.3E1,2.5E1,1.02E2,2.9E1,4.4E1,2.2E1,3E0,7E0,9.5E1,2.5E1,4E0,3.9E1,5E0,2E0,2E1,1E0,6E0,4.9E1,4.6E1,4E0,2.1E1,2E0,2E0,1.7E1,2.2E1,1E0,1E0,9E0,1.1E1,3E0,3E0,3.4E1,1.5E1,3.4E1,1.2E1,1.7E1,4E0,1E0,1E0,1.4E1,3E0,8E0,1.4E1],"tree_param":{"num_deleted":"0","num_feature":"10","num_nodes":"45","size_leaf_vector":"1"}},{"base_weights":[-2.0270131E-4,4.4886027E-2,-7.819127E-2,-7.9086706E-2,7.574432E-2,-1.7711516E-1,-3.8272887E-2,-1.24730945E-1,2.0313935E-2,-1.375316E-1,9.272832E-2,1.0502819E-1,-2.4967995E-1,-1.13743044E-1,3.0709762E-2,1.1880805E-1,-1.5358266E-1,1.7740522E-2,-2.0786618E-1,1.6109818E-1,2.100224E-2,4.438986E-3,1.7379075E-2,5.4870863E-3,-2.9394478E-2,-1.4280477E-1,1.5666509E-2,1.7559378E-1,-8.189035E-2,2.6391298E-3,1.5182078E-2,-2.7429936E-2,-4.0186862E-3,-2.817206E-2,-8.204519E-3,-1.7839189E-3,1.8648105E-2,7.014062E-3,-1.1668881E-2,2.8445143E-3,-1.78477E-2,-1.2658034E-2,2.4204183E-2,3.7139931E-3,-2.2044191E-2],"categories":[],"categories_nodes":[],"categories_segments":[],"categories_sizes":[],"default_left":[0,0,0,0,0,0,0,0,0,0,0,0,0,0,0,0,0,0,0,0,0,0,0,0,0,0,0,0,0,0,0,0,0,0,0,0,0,0,0,0,0,0,0,0,0],"id":1,"left_children":[1,3,5,7,9,11,13,15,-1,17,19,21,23,25,27,29,31,-1,33,35,37,-1,-1,-1,-1,39,-1,41,43,-1,-1,-1,-1,-1,-1,-1,-1,-1,-1,-1,-1,-1,-1,-1,-1],"loss_changes":[7.103072E-1,4.956656E-1,2.854385E-1,3.602696E-1,3.858475E-1,4.5617056E-1,2.846241E-1,1.7985675E-1,0E0,2.1408413E-1,4.673912E-1,1.3133686E-2,2.4530423E-1,2.2669423E-1,4.8748416E-1,5.146038E-3,2.764408E-1,0E0,4.193321E-2,2.2588181E-1,3.329485E-1,0E0,0E0,0E0,0E0,1.5168956E-1,0E0,2.9166326E-1,2.8854832E-1,0E0,0E0,0E0,0E0,0E0,0E0,0E0,0E0,0E0,0E0,0E0,0E0,0E0,0E0,0E0,0E0],"parents":[2147483647,0,0,1,1,2,2,3,3,4,4,5,5,6,6,7,7,9,9,10,10,11,11,12,12,13,13,14,14,15,15,16,16,18,18,19,19,20,20,25,25,27,27,28,28],"right_children":[2,4,6,8,10,12,14,16,-1,18,20,22,24,26,28,30,32,-1,34,36,38,-1,-1,-1,-1,40,-1,42,44,-1,-1,-1,-1,-1,-1,-1,-1,-1,-1,-1,-1,-1,-1,-1,-1],"split_conditions":[6.094937E-1,2.3344819E-1,7.077552E-1,8.898598E-1,5.0353084E-2,7.465167E-2,6.08768E-1,8.921301E-2,2.0313935E-2,2.2244468E-1,5.6849444E-1,9.2817056E-1,1.1076756E-1,9.588324E-1,7.298398E-1,1.6116872E-1,1.9608179E-1,1.7740522E-2,2.2571352E-1,1.5207727E-1,7.837372E-1,4.438986E-3,1.7379075E-2,5.4870863E-3,-2.9394478E-2,1.2417739E-1,1.5666509E-2,3.742643E-2,3.5927635E-1,2.6391298E-3,1.5182078E-2,-2.7429936E-2,-4.0186862E-3,-2.817206E-2,-8.204519E-3,-1.7839189E-3,1.8648105E-2,7.014062E-3,-1.1668881E-2,2.8445143E-3,-1.78477E-2,-1.2658034E-2,2.4204183E-2,3.7139931E-3,-2.2044191E-2],"split_indices":[4,8,4,7,5,2,9,5,0,2,5,3,6,8,9,0,4,0,3,1,2,0,0,0,0,6,0,8,7,0,0,0,0,0,0,0,0,0,0,0,0,0,0,0,0],"split_type":[0,0,0,0,0,0,0,0,0,0,0,0,0,0,0,0,0,0,0,0,0,0,0,0,0,0,0,0,0,0,0,0,0,0,0,0,0,0,0,0,0,0,0,0,0],"sum_hessian":[2E2,1.27E2,7.3E1,2.5E1,1.02E2,2E1,5.3E1,2.2E1,3E0,7E0,9.5E1,4E0,1.6E1,2.5E1,2.8E1,2E0,2E1,1E0,6E0,4.8E1,4.7E1,3E0,1E0,2E0,1.4E1,2.3E1,2E0,1.2E1,1.6E1,1E0,1E0,9E0,1.1E1,3E0,3E0,6E0,4.2E1,3.5E1,1.2E1,4E0,1.9E1,2E0,1E1,9E0,7E0],"tree_param":{"num_deleted":"0","num_feature":"10","num_nodes":"45","size_leaf_vector":"1"}},{"base_weights":[-2.2197718E-4,4.0399466E-2,-7.0483096E-2,-7.0920855E-2,6.8107516E-2,-5.259726E-2,-2.6442308E-2,-1.1285034E-1,1.8790392E-2,-1.2610796E-1,8.3582684E-2,-1.380343E-1,1.2795454E-2,2.5358829E-3,-1.7455871E-1,1.6853495E-2,-1.9227621E-1,1.4533255E-1,1.880506E-2,-1.8169585E-1,1.1661263E-1,1.01497665E-1,-5.7179987E-2,-1.0643659E-2,1.6536063E-2,-2.5716184E-2,4.207987E-3,-2.6059156E-2,-7.58918E-3,9.660496E-3,2.4934141E-2,7.3996857E-3,-9.620334E-3,-2.6662296E-2,-1.9150194E-3,8.1997516E-4,1.8615462E-2,1.6925309E-2,-1.779596E-2,-2.0050077E-2,3.262448E-3],"categories":[],"categories_nodes":[],"categories_segments":[],"categories_sizes":[],"default_left":[0,0,0,0,0,0,0,0,0,0,0,0,0,0,0,0,0,0,0,0,0,0,0,0,0,0,0,0,0,0,0,0,0,0,0,0,0,0,0,0,0],"id":2,"left_children":[1,3,5,7,9,11,-1,13,-1,15,17,19,21,23,25,-1,27,29,31,33,35,37,39,-1,-1,-1,-1,-1,-1,-1,-1,-1,-1,-1,-1,-1,-1,-1,-1,-1,-1],"loss_changes":[5.765232E-1,3.9964223E-1,2.427817E-1,3.0336714E-1,3.2010868E-1,3.8726643E-1,0E0,1.6420949E-1,0E0,1.8837333E-1,3.8126785E-1,3.547364E-1,2.5408268E-1,1.7729114E-1,2.792466E-1,0E0,3.5879135E-2,2.2424924E-1,3.117997E-1,3.5381198E-1,3.616982E-2,3.7094563E-1,3.025707E-1,0E0,0E0,0E0,0E0,0E0,0E0,0E0,0E0,0E0,0E0,0E0,0E0,0E0,0E0,0E0,0E0,0E0,0E0],"parents":[2147483647,0,0,1,1,2,2,3,3,4,4,5,5,7,7,9,9,10,10,11,11,12,12,13,13,14,14,16,16,17,17,18,18,19,19,20,20,21,21,22,22],"right_children":[2,4,6,8,10,12,-1,14,-1,16,18,20,22,24,26,-1,28,30,32,34,36,38,40,-1,-1,-1,-1,-1,-1,-1,-1,-1,-1,-1,-1,-1,-1,-1,-1,-1,-1],"split_conditions":[6.094937E-1,2.3344819E-1,9.0927035E-1,8.898598E-1,5.0353084E-2,4.1117814E-1,-2.6442308E-2,3.33892E-1,1.8790392E-2,2.2244468E-1,5.6849444E-1,8.675086E-1,6.6348594E-1,2.5241685E-1,7.302484E-1,1.6853495E-2,2.2571352E-1,3.7957877E-1,6.8016803E-1,5.553763E-1,4.2640582E-1,8.6603385E-1,7.971582E-1,-1.0643659E-2,1.6536063E-2,-2.5716184E-2,4.207987E-3,-2.6059156E-2,-7.58918E-3,9.660496E-3,2.4934141E-2,7.3996857E-3,-9.620334E-3,-2.6662296E-2,-1.9150194E-3,8.1997516E-4,1.8615462E-2,1.6925309E-2,-1.779596E-2,-2.0050077E-2,3.262448E-3],"split_indices":[4,8,6,7,5,9,0,1,0,2,5,5,9,1,1,0,3,5,3,7,1,4,4,0,0,0,0,0,0,0,0,0,0,0,0,0,0,0,0,0,0],"split_type":[0,0,0,0,0,0,0,0,0,0,0,0,0,0,0,0,0,0,0,0,0,0,0,0,0,0,0,0,0,0,0,0,0,0,0,0,0,0,0,0,0],"sum_hessian":[2E2,1.27E2,7.3E1,2.5E1,1.02E2,6.8E1,5E0,2.2E1,3E0,7E0,9.5E1,2.9E1,3.9E1,8E0,1.4E1,1E0,6E0,4.8E1,4.7E1,2.5E1,4E0,1.7E1,2.2E1,5E0,3E0,1E1,4E0,3E0,3E0,3.4E1,1.4E1,3.2E1,1.5E1,1.6E1,9E0,2E0,2E0,1.4E1,3E0,8E0,1.4E1],"tree_param":{"num_deleted":"0","num_feature":"10","num_nodes":"41","size_leaf_vector":"1"}},{"base_weights":[-3.7136406E-4,3.6506042E-2,-6.415429E-2,6.606042E-2,-5.057658E-2,-4.772595E-2,-2.423878E-2,-6.2199984E-2,8.871707E-2,-1.3666415E-1,1.941752E-1,-1.245356E-1,1.1074437E-2,-1.1351778E-1,1.8091047E-2,2.0247054E-1,6.022793E-2,1.3716129E-2,-1.537886E-1,2.4583296E-1,-1.0954349E-2,-1.6462539E-1,1.0883844E-1,-6.6457324E-2,8.4386855E-2,1.0595298E-2,-1.6305365E-2,2.7361799E-2,-8.777386E-4,-1.3560115E-2,8.171278E-3,-2.1342658E-2,-6.3904943E-3,2.741662E-2,1.0722218E-2,7.5855935E-3,-2.1179726E-2,7.653097E-4,1.7374432E-2,-1.5151895E-3,-2.1734323E-2,-1.0804053E-2,1.36019215E-2],"categories":[],"categories_nodes":[],"categories_segments":[],"categories_sizes":[],"default_left":[0,0,0,0,0,0,0,0,0,0,0,0,0,0,0,0,0,0,0,0,0,0,0,0,0,0,0,0,0,0,0,0,0,0,0,0,0,0,0,0,0,0,0],"id":3,"left_children":[1,3,5,7,9,11,-1,13,15,17,19,21,23,25,-1,27,29,-1,31,33,-1,35,37,39,41,-1,-1,-1,-1,-1,-1,-1,-1,-1,-1,-1,-1,-1,-1,-1,-1,-1,-1],"loss_changes":[4.751239E-1,3.3277124E-1,2.0510975E-1,2.8448957E-1,7.218496E-1,3.1301332E-1,0E0,2.0767495E-1,2.5354618E-1,1.3832158E-1,1.681343E-1,2.9859504E-1,2.3296976E-1,1.5860777E-1,0E0,2.428776E-1,2.9297328E-1,0E0,1.1501247E-1,2.0216107E-3,0E0,3.1100887E-1,3.1507928E-2,1.5153217E-1,2.2334066E-1,0E0,0E0,0E0,0E0,0E0,0E0,0E0,0E0,0E0,0E0,0E0,0E0,0E0,0E0,0E0,0E0,0E0,0E0],"parents":[2147483647,0,0,1,1,2,2,3,3,4,4,5,5,7,7,8,8,9,9,10,10,11,11,12,12,13,13,15,15,16,16,18,18,19,19,21,21,22,22,23,23,24,24],"right_children":[2,4,6,8,10,12,-1,14,16,18,20,22,24,26,-1,28,30,-1,32,34,-1,36,38,40,42,-1,-1,-1,-1,-1,-1,-1,-1,-1,-1,-1,-1,-1,-1,-1,-1,-1,-1],"split_conditions":[6.094937E-1,7.837372E-1,9.0927035E-1,1.5201947E-1,6.1031866E-1,4.1117814E-1,-2.423878E-2,8.5266906E-1,2.4497443E-1,1.6541041E-2,8.1691253E-1,8.675086E-1,5.046341E-1,8.921301E-2,1.8091047E-2,6.875958E-1,1.4110376E-1,1.3716129E-2,5.078775E-1,7.500379E-1,-1.0954349E-2,1.2417739E-1,4.2640582E-1,8.8792366E-1,1.5573779E-1,1.0595298E-2,-1.6305365E-2,2.7361799E-2,-8.777386E-4,-1.3560115E-2,8.171278E-3,-2.1342658E-2,-6.3904943E-3,2.741662E-2,1.0722218E-2,7.5855935E-3,-2.1179726E-2,7.653097E-4,1.7374432E-2,-1.5151895E-3,-2.1734323E-2,-1.0804053E-2,1.36019215E-2],"split_indices":[4,2,6,8,9,9,0,7,6,0,1,5,6,5,0,5,5,0,8,9,0,6,1,4,7,0,0,0,0,0,0,0,0,0,0,0,0,0,0,0,0,0,0],"split_type":[0,0,0,0,0,0,0,0,0,0,0,0,0,0,0,0,0,0,0,0,0,0,0,0,0,0,0,0,0,0,0,0,0,0,0,0,0,0,0,0,0,0,0],"sum_hessian":[2E2,1.27E2,7.3E1,9.5E1,3.2E1,6.8E1,5E0,1.4E1,8.1E1,2.4E1,8E0,2.9E1,3.9E1,1.2E1,2E0,1.5E1,6.6E1,1E0,2.3E1,7E0,1E0,2.5E1,4E0,1.9E1,2E1,2E0,1E1,1.1E1,4E0,6E0,6E1,1.3E1,1E1,5E0,2E0,4E0,2.1E1,2E0,2E0,1.5E1,4E0,4E0,1.6E1],"tree_param":{"num_deleted":"0","num_feature":"10","num_nodes":"43","size_leaf_vector":"1"}},{"base_weights":[-3.0188827E-4,3.3219844E-2,-5.8281347E-2,5.9803095E-2,-4.5119908E-2,-1.3885581E-1,-2.5867552E-2,2.3431833E-1,4.3444388E-2,-1.2355842E-1,1.7777815E-1,1.159364E-1,-1.8776208E-1,-2.4701973E-2,-1.2611319E-2,8.584281E-2,3.0623509E-2,-8.679616E-2,6.486884E-2,1.3030323E-2,-1.3956529E-1,2.2601701E-1,-1.0406633E-2,2.1818548E-3,1.4003617E-2,2.1944463E-2,-2.3116636E-1,2.3623711E-1,-3.2668103E-2,1.3066405E-2,2.7347715E-3,-1.4862723E-2,1.6884979E-2,9.055985E-3,-3.1132356E-3,-1.9360838E-2,-5.809541E-3,2.51319E-2,1.0007403E-2,4.3520333E-5,2.896915E-3,-1.1294271E-2,-2.5131037E-2,2.8254459E-2,4.865736E-3,1.2082892E-2,-5.285706E-3],"categories":[],"categories_nodes":[],"categories_segments":[],"categories_sizes":[],"default_left":[0,0,0,0,0,0,0,0,0,0,0,0,0,0,0,0,0,0,0,0,0,0,0,0,0,0,0,0,0,0,0,0,0,0,0,0,0,0,0,0,0,0,0,0,0,0,0],"id":4,"left_children":[1,3,5,7,9,11,13,15,17,19,21,23,25,-1,27,29,-1,31,33,-1,35,37,-1,-1,-1,39,41,43,45,-1,-1,-1,-1,-1,-1,-1,-1,-1,-1,-1,-1,-1,-1,-1,-1,-1,-1],"loss_changes":[3.9259407E-1,2.6926154E-1,1.8967572E-1,2.6388514E-1,5.9893113E-1,2.8344816E-1,1.5519357E-1,5.91349E-2,2.5396994E-1,1.1977407E-1,1.4588347E-1,6.0174875E-3,1.689117E-1,0E0,2.6725456E-1,6.91393E-3,0E0,2.3058484E-1,1.9272965E-1,0E0,9.442145E-2,3.4233928E-4,0E0,0E0,0E0,5.9177575E-4,7.338822E-3,2.099751E-2,1.5823492E-1,0E0,0E0,0E0,0E0,0E0,0E0,0E0,0E0,0E0,0E0,0E0,0E0,0E0,0E0,0E0,0E0,0E0,0E0],"parents":[2147483647,0,0,1,1,2,2,3,3,4,4,5,5,6,6,7,7,8,8,9,9,10,10,11,11,12,12,14,14,15,15,17,17,18,18,20,20,21,21,25,25,26,26,27,27,28,28],"right_children":[2,4,6,8,10,12,14,16,18,20,22,24,26,-1,28,30,-1,32,34,-1,36,38,-1,-1,-1,40,42,44,46,-1,-1,-1,-1,-1,-1,-1,-1,-1,-1,-1,-1,-1,-1,-1,-1,-1,-1],"split_conditions":[6.094937E-1,7.837372E-1,7.077552E-1,1.0259151E-1,6.1031866E-1,2.0467322E-1,4.74127E-2,4.6290687E-1,1.5201947E-1,1.6541041E-2,8.1691253E-1,2.1574982E-1,7.465167E-2,-2.4701973E-2,1.8152495E-1,7.1020745E-2,3.0623509E-2,8.5266906E-1,8.46943E-1,1.3030323E-2,5.078775E-1,7.500379E-1,-1.0406633E-2,2.1818548E-3,1.4003617E-2,2.2485277E-1,9.3237385E-2,4.076062E-1,1.416753E-1,1.3066405E-2,2.7347715E-3,-1.4862723E-2,1.6884979E-2,9.055985E-3,-3.1132356E-3,-1.9360838E-2,-5.809541E-3,2.51319E-2,1.0007403E-2,4.3520333E-5,2.896915E-3,-1.1294271E-2,-2.5131037E-2,2.8254459E-2,4.865736E-3,1.2082892E-2,-5.285706E-3],"split_indices":[4,2,4,6,9,6,2,8,8,0,1,0,2,0,2,2,0,7,0,0,8,9,0,0,0,1,0,0,5,0,0,0,0,0,0,0,0,0,0,0,0,0,0,0,0,0,0],"split_type":[0,0,0,0,0,0,0,0,0,0,0,0,0,0,0,0,0,0,0,0,0,0,0,0,0,0,0,0,0,0,0,0,0,0,0,0,0,0,0,0,0,0,0,0,0,0,0],"sum_hessian":[2E2,1.27E2,7.3E1,9.5E1,3.2E1,2E1,5.3E1,7E0,8.8E1,2.4E1,8E0,3E0,1.7E1,2E0,5.1E1,3E0,4E0,1.2E1,7.6E1,1E0,2.3E1,7E0,1E0,1E0,2E0,3E0,1.4E1,3E0,4.8E1,1E0,2E0,1E1,2E0,6E1,1.6E1,1.3E1,1E1,5E0,2E0,1E0,2E0,3E0,1.1E1,2E0,1E0,5E0,4.3E1],"tree_param":{"num_deleted":"0","num_feature":"10","num_nodes":"47","size_leaf_vector":"1"}},{"base_weights":[5.117956E-5,3.0421164E-2,-5.248138E-2,5.1449835E-2,-5.014719E-2,-3.7921857E-2,-2.1116896E-2,-2.1535048E-2,7.801153E-2,1.4224008E-2,-1.6100062E-1,-1.0308902E-1,1.1901557E-2,-6.0981836E-2,2.3039116E-2,2.2335367E-1,4.9540948E-2,5.0628103E-2,-1.8467253E-2,-1.1720677E-2,-1.9685553E-2,-1.4771235E-1,6.463227E-2,-1.9358608E-1,3.3794776E-2,2.7937856E-5,-1.9119686E-2,-7.921076E-3,2.5806049E-2,-1.6235173E-2,7.841113E-3,1.1423636E-3,1.653856E-2,1.980266E-3,-3.7383677E-3,-2.3299834E-2,-5.012138E-4,1.3836348E-2,-7.979717E-3,-2.4796778E-2,-1.5220508E-3,-5.9000333E-3,9.2843985E-3],"categories":[],"categories_nodes":[],"categories_segments":[],"categories_sizes":[],"default_left":[0,0,0,0,0,0,0,0,0,0,0,0,0,0,0,0,0,0,0,0,0,0,0,0,0,0,0,0,0,0,0,0,0,0,0,0,0,0,0,0,0,0,0],"id":5,"left_children":[1,3,5,7,9,11,-1,13,15,17,19,21,23,25,-1,27,29,31,-1,33,-1,35,37,39,41,-1,-1,-1,-1,-1,-1,-1,-1,-1,-1,-1,-1,-1,-1,-1,-1,-1,-1],"loss_changes":[3.2227454E-1,2.1944347E-1,1.6296278E-1,1.9941738E-1,1.9495586E-1,2.2525957E-1,0E0,2.923047E-1,2.9928294E-1,1.396813E-1,5.12169E-2,2.3407549E-1,1.8649362E-1,1.9948165E-1,0E0,1.464538E-1,4.0424263E-1,7.00948E-2,0E0,3.1672462E-3,0E0,2.9092008E-1,8.5583724E-2,3.5025075E-2,2.0821849E-1,0E0,0E0,0E0,0E0,0E0,0E0,0E0,0E0,0E0,0E0,0E0,0E0,0E0,0E0,0E0,0E0,0E0,0E0],"parents":[2147483647,0,0,1,1,2,2,3,3,4,4,5,5,7,7,8,8,9,9,10,10,11,11,12,12,13,13,15,15,16,16,17,17,19,19,21,21,22,22,23,23,24,24],"right_children":[2,4,6,8,10,12,-1,14,16,18,20,22,24,26,-1,28,30,32,-1,34,-1,36,38,40,42,-1,-1,-1,-1,-1,-1,-1,-1,-1,-1,-1,-1,-1,-1,-1,-1,-1,-1],"split_conditions":[6.094937E-1,7.7261335E-1,9.0927035E-1,3.3998653E-1,6.6202074E-1,4.1117814E-1,-2.1116896E-2,8.6788964E-1,2.4497443E-1,6.875958E-1,6.8931356E-2,7.123039E-1,1.19050294E-1,7.03152E-1,2.3039116E-2,1.8034203E-2,1.4110376E-1,6.0381407E-1,-1.8467253E-2,1.0053494E-1,-1.9685553E-2,5.553763E-1,3.5161653E-1,4.1701367E-1,3.3605516E-1,2.7937856E-5,-1.9119686E-2,-7.921076E-3,2.5806049E-2,-1.6235173E-2,7.841113E-3,1.1423636E-3,1.653856E-2,1.980266E-3,-3.7383677E-3,-2.3299834E-2,-5.012138E-4,1.3836348E-2,-7.979717E-3,-2.4796778E-2,-1.5220508E-3,-5.9000333E-3,9.2843985E-3],"split_indices":[4,3,6,8,2,9,0,5,6,5,6,5,0,0,0,0,5,2,0,0,0,7,2,2,6,0,0,0,0,0,0,0,0,0,0,0,0,0,0,0,0,0,0],"split_type":[0,0,0,0,0,0,0,0,0,0,0,0,0,0,0,0,0,0,0,0,0,0,0,0,0,0,0,0,0,0,0,0,0,0,0,0,0,0,0,0,0,0,0],"sum_hessian":[2E2,1.27E2,7.3E1,1.01E2,2.6E1,6.8E1,5E0,2.7E1,7.4E1,1.7E1,9E0,2.9E1,3.9E1,2.4E1,3E0,1.1E1,6.3E1,1.5E1,2E0,2E0,7E0,2.3E1,6E0,3E0,3.6E1,1.7E1,7E0,1E0,1E1,7E0,5.6E1,1.2E1,3E0,1E0,1E0,1.4E1,9E0,4E0,2E0,2E0,1E0,1.4E1,2.2E1],"tree_param":{"num_deleted":"0","num_feature":"10","num_nodes":"43","size_leaf_vector":"1"}},{"base_weights":[-3.061135E-4,2.7310362E-2,-4.8071016E-2,4.955592E-2,-3.823158E-2,-1.19080745E-1,-1.9565916E-2,2.0469047E-1,3.5054434E-2,-1.07213624E-1,1.5763316E-1,1.0653036E-1,-1.6260095E-1,-2.1501852E-2,-7.913536E-3,8.069979E-2,2.6294494E-2,-7.412912E-2,5.303277E-2,1.198675E-2,-1.21669814E-1,2.0002367E-2,-9.074544E-3,2.0978244E-3,1.2805499E-2,1.352185E-2,-1.9872697E-1,9.624667E-2,-4.8821155E-2,1.2411687E-2,2.4855137E-3,-1.2838877E-2,1.4953263E-2,7.579297E-3,-3.1755746E-3,-1.660947E-2,-5.406819E-3,-4.228741E-4,2.0848296E-3,-9.269677E-3,-2.175098E-2,1.4290069E-2,-1.3800296E-2,4.408354E-4,-1.5152471E-2],"categories":[],"categories_nodes":[],"categories_segments":[],"categories_sizes":[],"default_left":[0,0,0,0,0,0,0,0,0,0,0,0,0,0,0,0,0,0,0,0,0,0,0,0,0,0,0,0,0,0,0,0,0,0,0,0,0,0,0,0,0,0,0,0,0],"id":6,"left_children":[1,3,5,7,9,11,13,15,17,19,21,23,25,-1,27,29,-1,31,33,-1,35,-1,-1,-1,-1,37,39,41,43,-1,-1,-1,-1,-1,-1,-1,-1,-1,-1,-1,-1,-1,-1,-1,-1],"loss_changes":[2.664516E-1,1.885208E-1,1.4745641E-1,2.087941E-1,4.6276838E-1,2.235134E-1,1.2128279E-1,3.65645E-2,1.786328E-1,9.665248E-2,1.129113E-1,4.6795383E-3,1.1721423E-1,0E0,2.2626807E-1,6.613504E-3,0E0,1.7696384E-1,1.510017E-1,0E0,6.3096195E-2,0E0,0E0,0E0,0E0,6.0835684E-4,9.710729E-3,1.8365102E-1,2.0840864E-1,0E0,0E0,0E0,0E0,0E0,0E0,0E0,0E0,0E0,0E0,0E0,0E0,0E0,0E0,0E0,0E0],"parents":[2147483647,0,0,1,1,2,2,3,3,4,4,5,5,6,6,7,7,8,8,9,9,10,10,11,11,12,12,14,14,15,15,17,17,18,18,20,20,25,25,26,26,27,27,28,28],"right_children":[2,4,6,8,10,12,14,16,18,20,22,24,26,-1,28,30,-1,32,34,-1,36,-1,-1,-1,-1,38,40,42,44,-1,-1,-1,-1,-1,-1,-1,-1,-1,-1,-1,-1,-1,-1,-1,-1],"split_conditions":[6.094937E-1,7.837372E-1,7.077552E-1,1.0259151E-1,6.1031866E-1,2.0467322E-1,4.74127E-2,4.6290687E-1,1.5201947E-1,1.6541041E-2,8.1691253E-1,2.1574982E-1,7.465167E-2,-2.1501852E-2,4.112871E-1,7.1020745E-2,2.6294494E-2,8.5266906E-1,8.46943E-1,1.198675E-2,5.078775E-1,2.0002367E-2,-9.074544E-3,2.0978244E-3,1.2805499E-2,2.2485277E-1,9.3237385E-2,8.867569E-1,8.6902845E-1,1.2411687E-2,2.4855137E-3,-1.2838877E-2,1.4953263E-2,7.579297E-3,-3.1755746E-3,-1.660947E-2,-5.406819E-3,-4.228741E-4,2.0848296E-3,-9.269677E-3,-2.175098E-2,1.4290069E-2,-1.3800296E-2,4.408354E-4,-1.5152471E-2],"split_indices":[4,2,4,6,9,6,2,8,8,0,1,0,2,0,2,2,0,7,0,0,8,0,0,0,0,1,0,9,4,0,0,0,0,0,0,0,0,0,0,0,0,0,0,0,0],"split_type":[0,0,0,0,0,0,0,0,0,0,0,0,0,0,0,0,0,0,0,0,0,0,0,0,0,0,0,0,0,0,0,0,0,0,0,0,0,0,0,0,0,0,0,0,0],"sum_hessian":[2E2,1.27E2,7.3E1,9.5E1,3.2E1,2E1,5.3E1,7E0,8.8E1,2.4E1,8E0,3E0,1.7E1,2E0,5.1E1,3E0,4E0,1.2E1,7.6E1,1E0,2.3E1,7E0,1E0,1E0,2E0,3E0,1.4E1,1.4E1,3.7E1,1E0,2E0,1E1,2E0,6E1,1.6E1,1.3E1,1E1,1E0,2E0,3E0,1.1E1,1.2E1,2E0,2.5E1,1.2E1],"tree_param":{"num_deleted":"0","num_feature":"10","num_nodes":"45","size_leaf_vector":"1"}},{"base_weights":[-2.8331933E-4,5.376404E-2,-2.152757E-2,-1.7204544E-1,8.881828E-2,-1.0061657E-1,5.5166557E-3,5.3817492E-2,-2.5630268E-1,1.060761E-1,-8.7717324E-2,5.790568E-2,-1.4634359E-1,-3.81699E-2,5.5947836E-2,-1.1004031E-3,9.173027E-3,-2.9263834E-2,-3.731218E-3,-4.314852E-2,1.3396639E-1,-1.0908038E-2,-3.7115158E-3,1.7097734E-2,1.1741625E-3,1.4669985E-2,-1.7269257E-1,-1.2885237E-1,1.1637835E-2,1.0135308E-1,-1.00065276E-1,6.451106E-3,-1.6693586E-2,1.9251904E-2,5.4959436E-3,3.0457804E-3,-8.7263845E-3,-3.0524493E-3,3.3599727E-3,2.1255568E-3,-2.001062E-2,-1.7396262E-2,5.029296E-3,8.358604E-3,-1.090517E-2,1.4242242E-2,-8.072712E-3,4.908982E-3,-1.5523808E-2],"categories":[],"categories_nodes":[],"categories_segments":[],"categories_sizes":[],"default_left":[0,0,0,0,0,0,0,0,0,0,0,0,0,0,0,0,0,0,0,0,0,0,0,0,0,0,0,0,0,0,0,0,0,0,0,0,0,0,0,0,0,0,0,0,0,0,0,0,0],"id":7,"left_children":[1,3,5,7,9,11,13,15,17,19,21,23,25,27,29,-1,-1,-1,-1,31,33,-1,-1,-1,35,37,39,41,43,45,47,-1,-1,-1,-1,-1,-1,-1,-1,-1,-1,-1,-1,-1,-1,-1,-1,-1,-1],"loss_changes":[2.3194474E-1,4.664688E-1,3.1069565E-1,1.6603823E-1,1.6163567E-1,2.7667794E-1,2.4228047E-1,8.382094E-3,3.6824048E-2,1.9722861E-1,1.3565496E-3,5.753178E-2,1.2556714E-1,2.6798418E-1,3.714164E-1,0E0,0E0,0E0,0E0,1.1738437E-1,1.6983587E-1,0E0,0E0,0E0,2.0786375E-2,5.303214E-3,1.3717389E-1,1.7845619E-1,3.477676E-1,3.1061396E-1,1.06372245E-1,0E0,0E0,0E0,0E0,0E0,0E0,0E0,0E0,0E0,0E0,0E0,0E0,0E0,0E0,0E0,0E0,0E0,0E0],"parents":[2147483647,0,0,1,1,2,2,3,3,4,4,5,5,6,6,7,7,8,8,9,9,10,10,11,11,12,12,13,13,14,14,19,19,20,20,24,24,25,25,26,26,27,27,28,28,29,29,30,30],"right_children":[2,4,6,8,10,12,14,16,18,20,22,24,26,28,30,-1,-1,-1,-1,32,34,-1,-1,-1,36,38,40,42,44,46,48,-1,-1,-1,-1,-1,-1,-1,-1,-1,-1,-1,-1,-1,-1,-1,-1,-1,-1],"split_conditions":[2.8209704E-1,1.0966777E-1,2.4992692E-1,3.6453444E-1,9.566737E-1,3.33892E-1,5.193875E-1,4.0517122E-1,5.3620815E-1,1.19050294E-1,7.265161E-1,2.6603696E-1,1.181239E-2,2.6915658E-1,7.854934E-1,-1.1004031E-3,9.173027E-3,-2.9263834E-2,-3.731218E-3,9.3237385E-2,5.903151E-1,-1.0908038E-2,-3.7115158E-3,1.7097734E-2,9.0015966E-1,5.1587975E-1,1.0925953E-1,7.690939E-1,7.82376E-1,8.205594E-1,6.207096E-1,6.451106E-3,-1.6693586E-2,1.9251904E-2,5.4959436E-3,3.0457804E-3,-8.7263845E-3,-3.0524493E-3,3.3599727E-3,2.1255568E-3,-2.001062E-2,-1.7396262E-2,5.029296E-3,8.358604E-3,-1.090517E-2,1.4242242E-2,-8.072712E-3,4.908982E-3,-1.5523808E-2],"split_indices":[2,1,8,6,6,1,9,0,0,0,0,3,8,3,0,0,0,0,0,0,0,0,0,0,2,1,6,7,2,3,9,0,0,0,0,0,0,0,0,0,0,0,0,0,0,0,0,0,0],"split_type":[0,0,0,0,0,0,0,0,0,0,0,0,0,0,0,0,0,0,0,0,0,0,0,0,0,0,0,0,0,0,0,0,0,0,0,0,0,0,0,0,0,0,0,0,0,0,0,0,0],"sum_hessian":[2E2,5.6E1,1.44E2,7E0,4.9E1,3.6E1,1.08E2,2E0,5E0,4.5E1,4E0,8E0,2.8E1,5.8E1,5E1,1E0,1E0,4E0,1E0,7E0,3.8E1,2E0,2E0,2E0,6E0,4E0,2.4E1,2E1,3.8E1,3.9E1,1.1E1,4E0,3E0,2.1E1,1.7E1,5E0,1E0,1E0,3E0,3E0,2.1E1,1.6E1,4E0,2.4E1,1.4E1,3.2E1,7E0,3E0,8E0],"tree_param":{"num_deleted":"0","num_feature":"10","num_nodes":"49","size_leaf_vector":"1"}},{"base_weights":[-5.0650566E-4,2.269884E-2,-4.063864E-2,1.1864095E-2,1.3686258E-1,-2.8571116E-2,-1.7264206E-2,-5.3626757E-2,3.3806358E-2,9.17242E-3,1.6421902E-1,-7.746301E-2,2.7112862E-2,-7.6851316E-2,1.8101143E-2,1.3536997E-1,1.1389816E-2,2.4297535E-3,-1.0538906E-3,1.7589344E-2,3.5411865E-3,8.377702E-2,-1.11373246E-1,-1.4313759E-1,6.262679E-2,1.157296E-2,-1.0459022E-2,-5.020404E-3,2.242858E-2,-1.3241211E-2,3.3337963E-3,3.5567307E-3,1.3620086E-2,8.136531E-3,-1.2747126E-2,-2.0844484E-2,-8.3487434E-4,1.0158492E-2,-9.715051E-3],"categories":[],"categories_nodes":[],"categories_segments":[],"categories_sizes":[],"default_left":[0,0,0,0,0,0,0,0,0,0,0,0,0,0,0,0,0,0,0,0,0,0,0,0,0,0,0,0,0,0,0,0,0,0,0,0,0,0,0],"id":8,"left_children":[1,3,5,7,9,11,-1,13,15,17,19,21,23,25,-1,27,29,-1,-1,-1,-1,31,33,35,37,-1,-1,-1,-1,-1,-1,-1,-1,-1,-1,-1,-1,-1,-1],"loss_changes":[1.8810974E-1,1.5670392E-1,1.12946056E-1,1.71381E-1,3.6918342E-2,1.899524E-1,0E0,1.7739204E-1,2.0108491E-1,1.1504777E-3,7.305011E-3,2.1163493E-1,2.084909E-1,1.6167969E-1,0E0,2.7526745E-1,2.3797207E-1,0E0,0E0,0E0,0E0,1.2847073E-2,1.065557E-1,5.1075876E-2,1.8415853E-1,0E0,0E0,0E0,0E0,0E0,0E0,0E0,0E0,0E0,0E0,0E0,0E0,0E0,0E0],"parents":[2147483647,0,0,1,1,2,2,3,3,4,4,5,5,7,7,8,8,9,9,10,10,11,11,12,12,13,13,15,15,16,16,21,21,22,22,23,23,24,24],"right_children":[2,4,6,8,10,12,-1,14,16,18,20,22,24,26,-1,28,30,-1,-1,-1,-1,32,34,36,38,-1,-1,-1,-1,-1,-1,-1,-1,-1,-1,-1,-1,-1,-1],"split_conditions":[6.094937E-1,9.0127385E-1,9.0927035E-1,3.3998653E-1,3.1841668E-1,5.320892E-1,-1.7264206E-2,8.977151E-1,2.4497443E-1,9.30832E-2,8.950895E-1,2.3643172E-1,1.0966777E-1,1.8798792E-1,1.8101143E-2,1.18517846E-1,1.4110376E-1,2.4297535E-3,-1.0538906E-3,1.7589344E-2,3.5411865E-3,5.783531E-1,4.0967803E-2,5.3620815E-1,7.568382E-1,1.157296E-2,-1.0459022E-2,-5.020404E-3,2.242858E-2,-1.3241211E-2,3.3337963E-3,3.5567307E-3,1.3620086E-2,8.136531E-3,-1.2747126E-2,-2.0844484E-2,-8.3487434E-4,1.0158492E-2,-9.715051E-3],"split_indices":[4,7,6,8,6,6,0,5,6,0,8,2,1,5,0,0,5,0,0,0,0,3,6,0,0,0,0,0,0,0,0,0,0,0,0,0,0,0,0],"split_type":[0,0,0,0,0,0,0,0,0,0,0,0,0,0,0,0,0,0,0,0,0,0,0,0,0,0,0,0,0,0,0,0,0,0,0,0,0,0,0],"sum_hessian":[2E2,1.27E2,7.3E1,1.17E2,1E1,6.8E1,5E0,2.9E1,8.8E1,2E0,8E0,3.6E1,3.2E1,2.7E1,2E0,1.5E1,7.3E1,1E0,1E0,7E0,1E0,6E0,3E1,5E0,2.7E1,3E0,2.4E1,5E0,1E1,9E0,6.4E1,4E0,2E0,2E0,2.8E1,3E0,2E0,2.2E1,5E0],"tree_param":{"num_deleted":"0","num_feature":"10","num_nodes":"39","size_leaf_vector":"1"}},{"base_weights":[-3.3999103E-4,4.4762705E-2,-1.8067671E-2,-1.49644E-1,7.4972525E-2,-4.9863618E-2,3.0485965E-2,5.0072927E-2,-2.245618E-1,-4.377866E-2,9.532222E-2,-9.483111E-2,6.46815E-3,1.3651991E-1,-1.6809084E-2,-5.2243174E-4,8.0333715E-3,-2.5738735E-2,-3.0217052E-3,7.5676455E-3,-1.3058703E-1,1.6587153E-1,2.6763191E-2,-1.07883535E-1,1.4126725E-2,-8.021134E-2,4.2112485E-2,1.7786555E-1,-5.265622E-2,-1.4838037E-1,1.9583361E-2,-2.0296678E-3,-1.5308544E-2,2.38989E-4,2.0419722E-2,5.708524E-3,-6.866348E-3,-1.20683955E-2,5.9891953E-3,1.3528307E-3,-1.7620571E-2,1.3846087E-2,-3.4042895E-3,2.103377E-2,-2.2135535E-3,3.7137867E-4,-1.1088312E-2,3.3037864E-5,-1.9091634E-2,6.64564E-3,-1.1279545E-2],"categories":[],"categories_nodes":[],"categories_segments":[],"categories_sizes":[],"default_left":[0,0,0,0,0,0,0,0,0,0,0,0,0,0,0,0,0,0,0,0,0,0,0,0,0,0,0,0,0,0,0,0,0,0,0,0,0,0,0,0,0,0,0,0,0,0,0,0,0,0,0],"id":9,"left_children":[1,3,5,7,9,11,13,15,17,19,21,23,25,27,29,-1,-1,-1,-1,-1,31,33,35,37,-1,39,41,43,45,47,49,-1,-1,-1,-1,-1,-1,-1,-1,-1,-1,-1,-1,-1,-1,-1,-1,-1,-1,-1,-1],"loss_changes":[1.6152157E-1,3.459797E-1,2.2537242E-1,1.309433E-1,1.2500063E-1,2.2352602E-1,2.9315785E-1,5.439702E-3,3.049931E-2,9.2839986E-2,2.0354277E-1,1.6624156E-1,1.2696321E-1,1.5015462E-1,1.99222E-1,0E0,0E0,0E0,0E0,0E0,9.299658E-3,1.310885E-1,7.047091E-2,1.08165085E-1,0E0,1.10365495E-1,2.1749958E-1,1.02072924E-1,1.3540799E-2,5.6993112E-2,2.1226086E-1,0E0,0E0,0E0,0E0,0E0,0E0,0E0,0E0,0E0,0E0,0E0,0E0,0E0,0E0,0E0,0E0,0E0,0E0,0E0,0E0],"parents":[2147483647,0,0,1,1,2,2,3,3,4,4,5,5,6,6,7,7,8,8,9,9,10,10,11,11,12,12,13,13,14,14,20,20,21,21,22,22,23,23,25,25,26,26,27,27,28,28,29,29,30,30],"right_children":[2,4,6,8,10,12,14,16,18,20,22,24,26,28,30,-1,-1,-1,-1,-1,32,34,36,38,-1,40,42,44,46,48,50,-1,-1,-1,-1,-1,-1,-1,-1,-1,-1,-1,-1,-1,-1,-1,-1,-1,-1,-1,-1],"split_conditions":[2.8209704E-1,1.0966777E-1,6.1031866E-1,3.6453444E-1,1.19050294E-1,5.5307E-1,6.655591E-1,4.0517122E-1,5.3620815E-1,8.176606E-2,5.5410653E-1,8.867701E-1,1.7538029E-1,8.3717906E-1,1.869143E-1,-5.2243174E-4,8.0333715E-3,-2.5738735E-2,-3.0217052E-3,7.5676455E-3,9.3237385E-2,1.0034019E-1,8.569741E-1,9.8537564E-1,1.4126725E-2,1.19970866E-1,6.6625065E-1,8.5007375E-1,9.229936E-1,2.1366535E-1,7.854934E-1,-2.0296678E-3,-1.5308544E-2,2.38989E-4,2.0419722E-2,5.708524E-3,-6.866348E-3,-1.20683955E-2,5.9891953E-3,1.3528307E-3,-1.7620571E-2,1.3846087E-2,-3.4042895E-3,2.103377E-2,-2.2135535E-3,3.7137867E-4,-1.1088312E-2,3.3037864E-5,-1.9091634E-2,6.64564E-3,-1.1279545E-2],"split_indices":[2,1,9,6,0,7,9,0,0,0,0,8,3,3,8,0,0,0,0,0,0,3,6,6,0,3,3,4,3,1,0,0,0,0,0,0,0,0,0,0,0,0,0,0,0,0,0,0,0,0,0],"split_type":[0,0,0,0,0,0,0,0,0,0,0,0,0,0,0,0,0,0,0,0,0,0,0,0,0,0,0,0,0,0,0,0,0,0,0,0,0,0,0,0,0,0,0,0,0,0,0,0,0,0,0],"sum_hessian":[2E2,5.6E1,1.44E2,7E0,4.9E1,8.7E1,5.7E1,2E0,5E0,7E0,4.2E1,4.8E1,3.9E1,1.7E1,4E1,1E0,1E0,4E0,1E0,3E0,4E0,2E1,2.2E1,4.6E1,2E0,1.1E1,2.8E1,1.4E1,3E0,8E0,3.2E1,1E0,3E0,4E0,1.6E1,1.7E1,5E0,4.3E1,3E0,6E0,5E0,1.2E1,1.6E1,1.2E1,2E0,2E0,1E0,2E0,6E0,2.4E1,8E0],"tree_param":{"num_deleted":"0","num_feature":"10","num_nodes":"51","size_leaf_vector":"1"}},{"base_weights":[-4.2980717E-4,-5.768705E-3,1.2909219E-1,1.341253E-1,-1.094684E-2,3.4304024E-3,1.3773279E-2,1.6214913E-1,-1.7008827E-3,-7.1680516E-2,1.295562E-4,4.4495314E-3,1.7678084E-2,-1.746287E-1,1.1261073E-2,1.7125469E-2,-5.1286317E-2,-2.0261554E-2,-1.38007E-3,-8.619216E-3,1.0746308E-2,-8.06896E-3,3.9677196E-3,-8.316809E-3,6.7769573E-3],"categories":[],"categories_nodes":[],"categories_segments":[],"categories_sizes":[],"default_left":[0,0,0,0,0,0,0,0,0,0,0,0,0,0,0,0,0,0,0,0,0,0,0,0,0],"id":10,"left_children":[1,3,5,7,9,-1,-1,11,-1,13,15,-1,-1,17,19,21,23,-1,-1,-1,-1,-1,-1,-1,-1],"loss_changes":[1.3973714E-1,1.4199992E-1,1.8274337E-3,3.2405466E-2,1.264788E-1,0E0,0E0,2.4629235E-3,0E0,2.495884E-1,1.4069587E-1,0E0,0E0,5.5717677E-2,1.6864082E-1,2.701153E-1,1.5746477E-1,0E0,0E0,0E0,0E0,0E0,0E0,0E0,0E0],"parents":[2147483647,0,0,1,1,2,2,3,3,4,4,7,7,9,9,10,10,13,13,14,14,15,15,16,16],"right_children":[2,4,6,8,10,-1,-1,12,-1,14,16,-1,-1,18,20,22,24,-1,-1,-1,-1,-1,-1,-1,-1],"split_conditions":[9.424881E-1,4.5555573E-2,9.4447017E-1,8.3677423E-1,1.7551108E-1,3.4304024E-3,1.3773279E-2,3.166743E-2,-1.7008827E-3,4.1222197E-1,7.568382E-1,4.4495314E-3,1.7678084E-2,9.390531E-1,5.6241167E-1,1.5201947E-1,8.675086E-1,-2.0261554E-2,-1.38007E-3,-8.619216E-3,1.0746308E-2,-8.06896E-3,3.9677196E-3,-8.316809E-3,6.7769573E-3],"split_indices":[0,6,0,2,7,0,0,1,0,5,0,0,0,9,1,8,5,0,0,0,0,0,0,0,0],"split_type":[0,0,0,0,0,0,0,0,0,0,0,0,0,0,0,0,0,0,0,0,0,0,0,0,0],"sum_hessian":[2E2,1.93E2,7E0,6E0,1.87E2,1E0,6E0,5E0,1E0,2.8E1,1.59E2,1E0,4E0,1.2E1,1.6E1,1.2E2,3.9E1,1E1,2E0,8E0,8E0,2.2E1,9.8E1,3.1E1,8E0],"tree_param":{"num_deleted":"0","num_feature":"10","num_nodes":"25","size_leaf_vector":"1"}},{"base_weights":[-3.2475695E-4,1.886074E-2,-3.350609E-2,1.1212706E-3,7.6772295E-2,-7.281763E-2,-1.8206934E-3,4.0445942E-2,-3.983137E-2,1.5691128E-1,-3.1562755E-3,-9.801372E-2,5.6900408E-2,7.824069E-2,-4.9197048E-2,-1.5822407E-2,8.367787E-2,-6.2838696E-2,8.5935995E-2,2.218178E-1,-1.7265294E-2,1.8130034E-2,-4.2457245E-2,3.2131728E-2,-1.2770323E-1,-5.4630414E-3,1.2108487E-2,1.390386E-1,-1.3891265E-1,-1.8989241E-1,4.4123048E-5,-1.4843999E-2,1.9909716E-3,1.1011134E-3,1.2747359E-2,-1.0270431E-2,8.3619467E-4,1.2602612E-2,1.4339321E-3,2.3373175E-2,5.133915E-3,2.706508E-3,-5.584057E-3,1.15089705E-2,-9.58873E-3,6.1179376E-3,-5.655326E-3,-1.9101862E-2,-5.374593E-3,-1.4776394E-3,2.566874E-4,1.685123E-2,-1.0732281E-2,-1.6572574E-2,-2.923669E-3,-3.2186925E-3,-2.1081217E-2,-1.0615463E-2,7.356295E-3],"categories":[],"categories_nodes":[],"categories_segments":[],"categories_sizes":[],"default_left":[0,0,0,0,0,0,0,0,0,0,0,0,0,0,0,0,0,0,0,0,0,0,0,0,0,0,0,0,0,0,0,0,0,0,0,0,0,0,0,0,0,0,0,0,0,0,0,0,0,0,0,0,0,0,0,0,0,0,0],"id":11,"left_children":[1,3,5,7,9,11,13,15,17,19,21,23,25,27,29,31,33,35,37,39,41,-1,43,45,47,49,-1,51,53,55,57,-1,-1,-1,-1,-1,-1,-1,-1,-1,-1,-1,-1,-1,-1,-1,-1,-1,-1,-1,-1,-1,-1,-1,-1,-1,-1,-1,-1],"loss_changes":[1.2858863E-1,1.3141093E-1,9.204196E-2,1.6104548E-1,1.9265713E-1,1.1343381E-1,1.6315591E-1,1.2538603E-1,1.4718506E-1,1.7340764E-1,1.2368669E-1,1.1229405E-1,2.467808E-2,2.3055367E-1,1.870645E-1,1.1194566E-1,9.0888664E-2,1.2007399E-1,2.1155428E-2,1.034224E-2,1.00616105E-2,0E0,1.2888402E-1,1.8916437E-2,9.74341E-2,3.3707087E-4,0E0,1.1248052E-1,6.9177374E-3,1.6308725E-2,1.7176881E-1,0E0,0E0,0E0,0E0,0E0,0E0,0E0,0E0,0E0,0E0,0E0,0E0,0E0,0E0,0E0,0E0,0E0,0E0,0E0,0E0,0E0,0E0,0E0,0E0,0E0,0E0,0E0,0E0],"parents":[2147483647,0,0,1,1,2,2,3,3,4,4,5,5,6,6,7,7,8,8,9,9,10,10,11,11,12,12,13,13,14,14,15,15,16,16,17,17,18,18,19,19,20,20,22,22,23,23,24,24,25,25,27,27,28,28,29,29,30,30],"right_children":[2,4,6,8,10,12,14,16,18,20,22,24,26,28,30,32,34,36,38,40,42,-1,44,46,48,50,-1,52,54,56,58,-1,-1,-1,-1,-1,-1,-1,-1,-1,-1,-1,-1,-1,-1,-1,-1,-1,-1,-1,-1,-1,-1,-1,-1,-1,-1,-1,-1],"split_conditions":[6.094937E-1,4.8324922E-1,4.9791873E-1,4.9541476E-1,4.857192E-1,8.675086E-1,6.6348594E-1,2.6248968E-1,7.282662E-1,6.6614103E-1,1.0159325E-1,1.2417739E-1,5.202563E-1,8.6603385E-1,1.788956E-1,1.5075295E-1,4.5761725E-1,6.768737E-1,7.3905593E-1,9.4883233E-1,5.046691E-1,1.8130034E-2,1.9949904E-1,4.6727097E-1,5.320892E-1,3.323906E-1,1.2108487E-2,8.7074614E-1,6.0339063E-1,8.721872E-2,7.971582E-1,-1.4843999E-2,1.9909716E-3,1.1011134E-3,1.2747359E-2,-1.0270431E-2,8.3619467E-4,1.2602612E-2,1.4339321E-3,2.3373175E-2,5.133915E-3,2.706508E-3,-5.584057E-3,1.15089705E-2,-9.58873E-3,6.1179376E-3,-5.655326E-3,-1.9101862E-2,-5.374593E-3,-1.4776394E-3,2.566874E-4,1.685123E-2,-1.0732281E-2,-1.6572574E-2,-2.923669E-3,-3.2186925E-3,-2.1081217E-2,-1.0615463E-2,7.356295E-3],"split_indices":[4,4,9,1,7,5,9,1,9,5,3,6,1,4,5,7,7,7,7,2,0,0,0,0,6,0,0,3,0,0,4,0,0,0,0,0,0,0,0,0,0,0,0,0,0,0,0,0,0,0,0,0,0,0,0,0,0,0,0],"split_type":[0,0,0,0,0,0,0,0,0,0,0,0,0,0,0,0,0,0,0,0,0,0,0,0,0,0,0,0,0,0,0,0,0,0,0,0,0,0,0,0,0,0,0,0,0,0,0,0,0,0,0,0,0,0,0,0,0,0,0],"sum_hessian":[2E2,1.27E2,7.3E1,9.8E1,2.9E1,3.2E1,4.1E1,5E1,4.8E1,1.4E1,1.5E1,2.7E1,5E0,1.5E1,2.6E1,2.2E1,2.8E1,4.1E1,7E0,1E1,4E0,2E0,1.3E1,5E0,2.2E1,3E0,2E0,1.2E1,3E0,6E0,2E1,4E0,1.8E1,1.1E1,1.7E1,2.6E1,1.5E1,4E0,3E0,9E0,1E0,2E0,2E0,3E0,1E1,4E0,1E0,1.1E1,1.1E1,1E0,2E0,1.1E1,1E0,2E0,1E0,1E0,5E0,8E0,1.2E1],"tree_param":{"num_deleted":"0","num_feature":"10","num_nodes":"59","size_leaf_vector":"1"}},{"base_weights":[-3.0614182E-4,3.7952986E-2,-1.5343825E-2,-1.3128226E-1,6.427156E-2,-7.350887E-2,3.1347382E-3,4.2552084E-2,-1.9631906E-1,-3.9293647E-2,8.2044825E-2,-9.2524566E-2,1.6016668E-2,3.4316167E-2,-5.5310875E-2,-1.9241124E-4,6.575224E-3,-2.2536557E-2,-2.5543272E-3,6.487623E-2,-1.14770815E-1,1.4225926E-1,2.3499267E-2,-1.6540931E-1,-3.6879014E-2,5.2646376E-2,-1.2119758E-1,7.997428E-3,-1.0459445E-1,1.913932E-3,7.3742094E-3,-1.8578426E-3,-1.3417432E-2,1.0096222E-3,1.8292919E-2,4.8152343E-3,-5.4376503E-3,-8.564875E-4,-1.7681545E-2,2.2217117E-3,-8.725014E-3,-3.2629464E-3,7.83673E-3,-2.0505337E-2,1.3921537E-3,6.3759014E-3,-1.1415225E-2,-1.3576719E-2,2.8546315E-3],"categories":[],"categories_nodes":[],"categories_segments":[],"categories_sizes":[],"default_left":[0,0,0,0,0,0,0,0,0,0,0,0,0,0,0,0,0,0,0,0,0,0,0,0,0,0,0,0,0,0,0,0,0,0,0,0,0,0,0,0,0,0,0,0,0,0,0,0,0],"id":12,"left_children":[1,3,5,7,9,11,13,15,17,19,21,23,-1,25,27,-1,-1,-1,-1,29,31,33,35,37,39,41,43,45,47,-1,-1,-1,-1,-1,-1,-1,-1,-1,-1,-1,-1,-1,-1,-1,-1,-1,-1,-1,-1],"loss_changes":[1.1622341E-1,2.6231748E-1,1.5607737E-1,9.879881E-2,9.5258415E-2,1.7034191E-1,2.0418642E-1,3.222078E-3,2.4006054E-2,7.034548E-2,1.4824432E-1,1.2773836E-1,0E0,2.1447441E-1,1.2251881E-1,0E0,0E0,0E0,0E0,2.1061487E-4,6.8395957E-3,1.11029446E-1,4.6775527E-2,2.3531407E-2,6.1473213E-2,1.4731972E-1,9.34988E-2,1.2988092E-1,9.518361E-2,0E0,0E0,0E0,0E0,0E0,0E0,0E0,0E0,0E0,0E0,0E0,0E0,0E0,0E0,0E0,0E0,0E0,0E0,0E0,0E0],"parents":[2147483647,0,0,1,1,2,2,3,3,4,4,5,5,6,6,7,7,8,8,9,9,10,10,11,11,13,13,14,14,19,19,20,20,21,21,22,22,23,23,24,24,25,25,26,26,27,27,28,28],"right_children":[2,4,6,8,10,12,14,16,18,20,22,24,-1,26,28,-1,-1,-1,-1,30,32,34,36,38,40,42,44,46,48,-1,-1,-1,-1,-1,-1,-1,-1,-1,-1,-1,-1,-1,-1,-1,-1,-1,-1,-1,-1],"split_conditions":[2.8209704E-1,1.0966777E-1,4.5062703E-1,3.6453444E-1,1.19050294E-1,9.019362E-1,6.971216E-1,4.0517122E-1,5.3620815E-1,8.176606E-2,5.5410653E-1,3.6308342E-1,1.6016668E-2,9.3281966E-1,4.5149818E-1,-1.9241124E-4,6.575224E-3,-2.2536557E-2,-2.5543272E-3,3.0210795E-2,9.3237385E-2,9.7132824E-2,8.569741E-1,2.8407344E-1,4.0589735E-1,2.1587212E-1,6.2692255E-1,7.6873547E-1,7.7482384E-1,1.913932E-3,7.3742094E-3,-1.8578426E-3,-1.3417432E-2,1.0096222E-3,1.8292919E-2,4.8152343E-3,-5.4376503E-3,-8.564875E-4,-1.7681545E-2,2.2217117E-3,-8.725014E-3,-3.2629464E-3,7.83673E-3,-2.0505337E-2,1.3921537E-3,6.3759014E-3,-1.1415225E-2,-1.3576719E-2,2.8546315E-3],"split_indices":[2,1,2,6,0,1,3,0,0,0,0,3,0,1,1,0,0,0,0,0,0,2,6,2,8,8,5,0,0,0,0,0,0,0,0,0,0,0,0,0,0,0,0,0,0,0,0,0,0],"split_type":[0,0,0,0,0,0,0,0,0,0,0,0,0,0,0,0,0,0,0,0,0,0,0,0,0,0,0,0,0,0,0,0,0,0,0,0,0,0,0,0,0,0,0,0,0,0,0,0,0],"sum_hessian":[2E2,5.6E1,1.44E2,7E0,4.9E1,3.4E1,1.1E2,2E0,5E0,7E0,4.2E1,3.2E1,2E0,7.2E1,3.8E1,1E0,1E0,4E0,1E0,3E0,4E0,2E1,2.2E1,1.3E1,1.9E1,6.5E1,7E0,1.7E1,2.1E1,1E0,2E0,1E0,3E0,5E0,1.5E1,1.7E1,5E0,1E0,1.2E1,9E0,1E1,1.5E1,5E1,4E0,3E0,1.2E1,5E0,1.7E1,4E0],"tree_param":{"num_deleted":"0","num_feature":"10","num_nodes":"49","size_leaf_vector":"1"}},{"base_weights":[-5.011067E-4,1.2273137E-1,-4.922267E-3,1.4573951E-1,-7.65875E-4,-9.767273E-3,1.0955068E-2,3.6023618E-3,1.6047796E-2,-3.5138056E-2,1.0190673E-2,9.8488726E-2,-4.4966552E-2,8.863371E-2,-1.7740918E-2,1.1083296E-2,1.8383801E-3,-9.786516E-3,-1.5042484E-3,-1.2999512E-2,1.20068975E-2,-3.1179523E-3,1.2493893E-2],"categories":[],"categories_nodes":[],"categories_segments":[],"categories_sizes":[],"default_left":[0,0,0,0,0,0,0,0,0,0,0,0,0,0,0,0,0,0,0,0,0,0,0],"id":13,"left_children":[1,3,5,7,-1,9,-1,-1,-1,11,13,15,17,19,21,-1,-1,-1,-1,-1,-1,-1,-1],"loss_changes":[1.1011505E-1,2.211643E-2,1.0922133E-1,3.9212555E-3,0E0,9.555164E-2,0E0,0E0,0E0,1.1343678E-1,2.3382257E-1,3.895469E-3,1.2199733E-1,2.0804271E-1,1.5537153E-1,0E0,0E0,0E0,0E0,0E0,0E0,0E0,0E0],"parents":[2147483647,0,0,1,1,2,2,3,3,5,5,9,9,10,10,11,11,12,12,13,13,14,14],"right_children":[2,4,6,8,-1,10,-1,-1,-1,12,14,16,18,20,22,-1,-1,-1,-1,-1,-1,-1,-1],"split_conditions":[4.5555573E-2,8.3677423E-1,9.424881E-1,3.166743E-2,-7.65875E-4,5.598564E-1,1.0955068E-2,3.6023618E-3,1.6047796E-2,5.3763583E-2,6.858295E-1,5.081519E-1,3.1416303E-1,4.852176E-2,9.322326E-1,1.1083296E-2,1.8383801E-3,-9.786516E-3,-1.5042484E-3,-1.2999512E-2,1.20068975E-2,-3.1179523E-3,1.2493893E-2],"split_indices":[6,2,0,1,0,6,0,0,0,4,6,3,0,4,7,0,0,0,0,0,0,0,0],"split_type":[0,0,0,0,0,0,0,0,0,0,0,0,0,0,0,0,0,0,0,0,0,0,0],"sum_hessian":[2E2,6E0,1.94E2,5E0,1E0,1.87E2,7E0,1E0,4E0,8.2E1,1.05E2,5E0,7.7E1,2.7E1,7.8E1,4E0,1E0,2.7E1,5E1,3E0,2.4E1,7.2E1,6E0],"tree_param":{"num_deleted":"0","num_feature":"10","num_nodes":"23","size_leaf_vector":"1"}},{"base_weights":[-2.5271502E-4,1.6365882E-2,-2.8994981E-2,5.0875666E-3,8.5006274E-2,-8.201197E-2,-1.174409E-2,2.5534466E-2,-3.821943E-2,9.4279405E-3,1.5953706E-1,-1.0458094E-1,1.5083027E-2,-7.571962E-2,1.73385E-2,3.6693708E-4,1.3696446E-1,-4.2907745E-3,-1.3952865E-1,-1.3374733E-2,6.1940175E-2,1.9656453E-2,1.9960642E-2,-3.5439476E-2,-1.304366E-1,-1.6565403E-1,3.262081E-2,5.137311E-2,-7.705939E-2,-1.5840916E-3,8.785265E-3,-1.4247597E-4,1.4771937E-2,2.1155751E-3,-1.2557593E-2,-7.470042E-4,-1.5510223E-2,1.0731927E-2,1.3248867E-3,3.0165613E-3,-2.246499E-5,-8.112299E-3,7.683031E-4,-1.3828148E-2,-2.207145E-3,-8.7521775E-3,-2.0315526E-2,-1.3086957E-2,1.36177605E-2,-2.2421856E-3,1.1734507E-2,2.6565015E-3,-1.4006834E-2],"categories":[],"categories_nodes":[],"categories_segments":[],"categories_sizes":[],"default_left":[0,0,0,0,0,0,0,0,0,0,0,0,0,0,0,0,0,0,0,0,0,0,0,0,0,0,0,0,0,0,0,0,0,0,0,0,0,0,0,0,0,0,0,0,0,0,0,0,0,0,0,0,0],"id":14,"left_children":[1,3,5,7,9,11,13,15,17,19,21,23,-1,25,27,29,31,33,35,-1,37,-1,39,41,43,45,47,49,51,-1,-1,-1,-1,-1,-1,-1,-1,-1,-1,-1,-1,-1,-1,-1,-1,-1,-1,-1,-1,-1,-1,-1,-1],"loss_changes":[9.648341E-2,9.865846E-2,6.671653E-2,9.9265724E-2,9.988834E-2,1.1036415E-1,1.0736559E-1,2.1308547E-1,1.231436E-1,8.346886E-2,4.2589888E-2,2.576825E-2,0E0,1.8078738E-1,1.3247058E-1,9.072286E-2,2.1047562E-2,8.907266E-2,1.7351002E-2,0E0,1.6254682E-2,0E0,6.247477E-4,1.2443198E-2,7.149279E-3,1.1520058E-2,1.7019635E-1,1.4868304E-1,7.554282E-2,0E0,0E0,0E0,0E0,0E0,0E0,0E0,0E0,0E0,0E0,0E0,0E0,0E0,0E0,0E0,0E0,0E0,0E0,0E0,0E0,0E0,0E0,0E0,0E0],"parents":[2147483647,0,0,1,1,2,2,3,3,4,4,5,5,6,6,7,7,8,8,9,9,10,10,11,11,13,13,14,14,15,15,16,16,17,17,18,18,20,20,22,22,23,23,24,24,25,25,26,26,27,27,28,28],"right_children":[2,4,6,8,10,12,14,16,18,20,22,24,-1,26,28,30,32,34,36,-1,38,-1,40,42,44,46,48,50,52,-1,-1,-1,-1,-1,-1,-1,-1,-1,-1,-1,-1,-1,-1,-1,-1,-1,-1,-1,-1,-1,-1,-1,-1],"split_conditions":[6.094937E-1,5.4463637E-1,1.8781804E-1,6.971216E-1,3.7809953E-1,7.394459E-1,2.2367018E-1,5.29416E-1,6.875958E-1,1.4110376E-1,9.144578E-1,2.7522305E-1,1.5083027E-2,3.8454053E-1,6.448309E-1,8.7384146E-1,4.532978E-2,7.837372E-1,1.4935337E-1,-1.3374733E-2,4.6676335E-1,1.9656453E-2,5.046691E-1,2.5620842E-1,1.6842015E-1,6.2892455E-1,1.6828068E-1,6.159576E-1,3.784505E-1,-1.5840916E-3,8.785265E-3,-1.4247597E-4,1.4771937E-2,2.1155751E-3,-1.2557593E-2,-7.470042E-4,-1.5510223E-2,1.0731927E-2,1.3248867E-3,3.0165613E-3,-2.246499E-5,-8.112299E-3,7.683031E-4,-1.3828148E-2,-2.207145E-3,-8.7521775E-3,-2.0315526E-2,-1.3086957E-2,1.36177605E-2,-2.2421856E-3,1.1734507E-2,2.6565015E-3,-1.4006834E-2],"split_indices":[4,4,3,3,1,2,5,3,5,5,1,2,0,7,7,5,5,2,8,0,5,0,0,7,3,4,0,9,9,0,0,0,0,0,0,0,0,0,0,0,0,0,0,0,0,0,0,0,0,0,0,0,0],"split_type":[0,0,0,0,0,0,0,0,0,0,0,0,0,0,0,0,0,0,0,0,0,0,0,0,0,0,0,0,0,0,0,0,0,0,0,0,0,0,0,0,0,0,0,0,0,0,0,0,0,0,0,0,0],"sum_hessian":[2E2,1.27E2,7.3E1,1.1E2,1.7E1,1.7E1,5.6E1,7.5E1,3.5E1,9E0,8E0,1.6E1,1E0,1.7E1,3.9E1,6.2E1,1.3E1,2.7E1,8E0,2E0,7E0,6E0,2E0,5E0,1.1E1,9E0,8E0,2.9E1,1E1,5.3E1,9E0,1E0,1.2E1,2.3E1,4E0,1E0,7E0,3E0,4E0,1E0,1E0,2E0,3E0,1E1,1E0,4E0,5E0,3E0,5E0,1.4E1,1.5E1,4E0,6E0],"tree_param":{"num_deleted":"0","num_feature":"10","num_nodes":"53","size_leaf_vector":"1"}},{"base_weights":[-3.380198E-4,1.1434131E-1,-4.4529806E-3,1.3373055E-1,-9.970218E-5,2.9621951E-2,-1.8051146E-2,3.2894164E-3,1.4731899E-2,-1.1477676E-1,5.259272E-2,-4.5160767E-2,2.1054883E-2,3.3890724E-2,-1.6998103E-1,-3.024093E-2,6.7118354E-2,-1.4207596E-1,-2.9938467E-2,1.03418835E-1,-1.2784213E-2,-2.8374792E-5,5.1119835E-3,-1.9488847E-2,-2.2721947E-3,4.166276E-3,-1.1256031E-2,1.1929496E-2,1.8829191E-3,-1.7061014E-2,7.1632895E-3,-4.8934147E-3,8.157665E-3,1.3070889E-2,-6.7504346E-3,-1.7106025E-2,8.378007E-4],"categories":[],"categories_nodes":[],"categories_segments":[],"categories_sizes":[],"default_left":[0,0,0,0,0,0,0,0,0,0,0,0,0,0,0,0,0,0,0,0,0,0,0,0,0,0,0,0,0,0,0,0,0,0,0,0,0],"id":15,"left_children":[1,3,5,7,-1,9,11,-1,-1,13,15,17,19,21,23,25,27,29,31,33,35,-1,-1,-1,-1,-1,-1,-1,-1,-1,-1,-1,-1,-1,-1,-1,-1],"loss_changes":[9.5361255E-2,1.578758E-2,9.088924E-2,3.3753216E-3,0E0,1.9178559E-1,1.493718E-1,0E0,0E0,7.141743E-2,6.0987055E-2,1.1819406E-1,1.6297516E-1,1.7808923E-3,1.757884E-2,5.2042108E-2,1.0357553E-1,7.9299346E-2,1.586282E-1,8.811994E-2,1.4211097E-1,0E0,0E0,0E0,0E0,0E0,0E0,0E0,0E0,0E0,0E0,0E0,0E0,0E0,0E0,0E0,0E0],"parents":[2147483647,0,0,1,1,2,2,3,3,5,5,6,6,9,9,10,10,11,11,12,12,13,13,14,14,15,15,16,16,17,17,18,18,19,19,20,20],"right_children":[2,4,6,8,-1,10,12,-1,-1,14,16,18,20,22,24,26,28,30,32,34,36,-1,-1,-1,-1,-1,-1,-1,-1,-1,-1,-1,-1,-1,-1,-1,-1],"split_conditions":[4.5555573E-2,8.3677423E-1,2.8209704E-1,3.166743E-2,-9.970218E-5,1.0966777E-1,6.1031866E-1,3.2894164E-3,1.4731899E-2,3.6453444E-1,1.19050294E-1,1.5308508E-1,6.6348594E-1,4.0517122E-1,5.3620815E-1,9.3237385E-2,5.5410653E-1,8.531587E-1,8.9672613E-1,8.533071E-1,1.5297806E-1,-2.8374792E-5,5.1119835E-3,-1.9488847E-2,-2.2721947E-3,4.166276E-3,-1.1256031E-2,1.1929496E-2,1.8829191E-3,-1.7061014E-2,7.1632895E-3,-4.8934147E-3,8.157665E-3,1.3070889E-2,-6.7504346E-3,-1.7106025E-2,8.378007E-4],"split_indices":[6,2,2,1,0,1,9,0,0,6,0,7,9,0,0,0,0,3,6,3,5,0,0,0,0,0,0,0,0,0,0,0,0,0,0,0,0],"split_type":[0,0,0,0,0,0,0,0,0,0,0,0,0,0,0,0,0,0,0,0,0,0,0,0,0,0,0,0,0,0,0,0,0,0,0,0,0],"sum_hessian":[2E2,6E0,1.94E2,5E0,1E0,5.5E1,1.39E2,1E0,4E0,7E0,4.8E1,8.2E1,5.7E1,2E0,5E0,7E0,4.1E1,1E1,7.2E1,1.6E1,4.1E1,1E0,1E0,4E0,1E0,4E0,3E0,1.9E1,2.2E1,9E0,1E0,6.2E1,1E1,1.4E1,2E0,4E0,3.7E1],"tree_param":{"num_deleted":"0","num_feature":"10","num_nodes":"37","size_leaf_vector":"1"}},{"base_weights":[-3.4707368E-4,1.05467424E-1,-4.143763E-3,1.2336105E-1,-9.471774E-5,2.6481988E-2,-1.6364465E-2,3.1249465E-3,1.3553348E-2,-1.0538377E-1,4.7470644E-2,-4.0724605E-2,1.8777883E-2,3.2196183E-2,-1.5660977E-1,5.743982E-2,-5.174609E-2,-1.2876815E-1,-2.68999E-2,5.2658245E-2,-5.3537507E-2,-2.69562E-5,4.856384E-3,-1.7929738E-2,-2.1585852E-3,-2.8103066E-3,7.3937275E-3,-5.9299334E-3,-1.0766551E-3,-1.5525522E-2,6.805125E-3,-4.41184E-3,7.4160583E-3,-2.4135045E-3,9.493675E-3,1.2618356E-3,-9.317996E-3],"categories":[],"categories_nodes":[],"categories_segments":[],"categories_sizes":[],"default_left":[0,0,0,0,0,0,0,0,0,0,0,0,0,0,0,0,0,0,0,0,0,0,0,0,0,0,0,0,0,0,0,0,0,0,0,0,0],"id":16,"left_children":[1,3,5,7,-1,9,11,-1,-1,13,15,17,19,21,23,25,27,29,31,33,35,-1,-1,-1,-1,-1,-1,-1,-1,-1,-1,-1,-1,-1,-1,-1,-1],"loss_changes":[8.1187725E-2,1.3445847E-2,7.341566E-2,2.4919808E-3,0E0,1.5999298E-1,1.2061487E-1,0E0,0E0,6.1423622E-2,5.1438645E-2,9.756178E-2,1.4492334E-1,1.6072551E-3,1.4509946E-2,6.558365E-2,9.091934E-4,6.791015E-2,1.3029985E-1,1.3215953E-1,5.100481E-2,0E0,0E0,0E0,0E0,0E0,0E0,0E0,0E0,0E0,0E0,0E0,0E0,0E0,0E0,0E0,0E0],"parents":[2147483647,0,0,1,1,2,2,3,3,5,5,6,6,9,9,10,10,11,11,12,12,13,13,14,14,15,15,16,16,17,17,18,18,19,19,20,20],"right_children":[2,4,6,8,-1,10,12,-1,-1,14,16,18,20,22,24,26,28,30,32,34,36,-1,-1,-1,-1,-1,-1,-1,-1,-1,-1,-1,-1,-1,-1,-1,-1],"split_conditions":[4.5555573E-2,8.3677423E-1,2.8209704E-1,3.166743E-2,-9.471774E-5,1.0966777E-1,6.1031866E-1,3.1249465E-3,1.3553348E-2,3.6453444E-1,9.566737E-1,1.5308508E-1,6.971216E-1,4.0517122E-1,5.3620815E-1,1.19050294E-1,9.054516E-1,8.531587E-1,8.9672613E-1,5.843176E-1,3.33892E-1,-2.69562E-5,4.856384E-3,-1.7929738E-2,-2.1585852E-3,-2.8103066E-3,7.3937275E-3,-5.9299334E-3,-1.0766551E-3,-1.5525522E-2,6.805125E-3,-4.41184E-3,7.4160583E-3,-2.4135045E-3,9.493675E-3,1.2618356E-3,-9.317996E-3],"split_indices":[6,2,2,1,0,1,9,0,0,6,6,7,3,0,0,0,0,3,6,2,1,0,0,0,0,0,0,0,0,0,0,0,0,0,0,0,0],"split_type":[0,0,0,0,0,0,0,0,0,0,0,0,0,0,0,0,0,0,0,0,0,0,0,0,0,0,0,0,0,0,0,0,0,0,0,0,0],"sum_hessian":[2E2,6E0,1.94E2,5E0,1E0,5.5E1,1.39E2,1E0,4E0,7E0,4.8E1,8.2E1,5.7E1,2E0,5E0,4.4E1,4E0,1E1,7.2E1,3.9E1,1.8E1,1E0,1E0,4E0,1E0,7E0,3.7E1,3E0,1E0,9E0,1E0,6.2E1,1E1,1.4E1,2.5E1,7E0,1.1E1],"tree_param":{"num_deleted":"0","num_feature":"10","num_nodes":"37","size_leaf_vector":"1"}},{"base_weights":[-3.5112287E-4,9.728978E-2,-3.8543802E-3,1.13804676E-1,-8.998215E-5,-4.429847E-2,4.3573333E-3,2.9686987E-3,1.2469082E-2,7.460586E-2,-6.819588E-2,-6.962616E-2,1.17760915E-2,1.4050648E-2,3.3324443E-2,-9.851192E-2,6.750425E-3,9.9644065E-3,-1.0333266E-1,7.121732E-2,2.008325E-3,4.5160833E-3,-7.0105493E-4,-3.210346E-3,-1.4010894E-2,-1.0378655E-2,5.315907E-3,-1.6184904E-2,2.2663367E-3,1.8977478E-2,-1.6167537E-4,-3.055117E-4,1.2819271E-2],"categories":[],"categories_nodes":[],"categories_segments":[],"categories_sizes":[],"default_left":[0,0,0,0,0,0,0,0,0,0,0,0,0,0,0,0,0,0,0,0,0,0,0,0,0,0,0,0,0,0,0,0,0],"id":17,"left_children":[1,3,5,7,-1,9,11,-1,-1,13,15,17,19,-1,21,23,25,-1,27,29,31,-1,-1,-1,-1,-1,-1,-1,-1,-1,-1,-1,-1],"loss_changes":[6.912929E-2,1.1453539E-2,6.495551E-2,1.7926097E-3,0E0,9.88575E-2,9.028503E-2,0E0,0E0,1.1640523E-2,6.42831E-2,9.5879085E-2,8.636758E-2,0E0,2.7037049E-3,5.0749898E-2,5.1686037E-2,0E0,9.951487E-2,1.8164232E-1,8.281326E-2,0E0,0E0,0E0,0E0,0E0,0E0,0E0,0E0,0E0,0E0,0E0,0E0],"parents":[2147483647,0,0,1,1,2,2,3,3,5,5,6,6,9,9,10,10,11,11,12,12,14,14,15,15,16,16,18,18,19,19,20,20],"right_children":[2,4,6,8,-1,10,12,-1,-1,14,16,18,20,-1,22,24,26,-1,28,30,32,-1,-1,-1,-1,-1,-1,-1,-1,-1,-1,-1,-1],"split_conditions":[4.5555573E-2,8.3677423E-1,1.5201947E-1,3.166743E-2,-8.998215E-5,9.78332E-3,9.792376E-2,2.9686987E-3,1.2469082E-2,1.14427984E-1,7.319214E-1,2.4336632E-1,2.0052224E-1,1.4050648E-2,7.3643094E-1,5.1587975E-1,3.7551388E-1,9.9644065E-3,6.26934E-1,3.788492E-1,9.589742E-1,4.5160833E-3,-7.0105493E-4,-3.210346E-3,-1.4010894E-2,-1.0378655E-2,5.315907E-3,-1.6184904E-2,2.2663367E-3,1.8977478E-2,-1.6167537E-4,-3.055117E-4,1.2819271E-2],"split_indices":[6,2,8,1,0,8,5,0,0,1,0,6,5,0,1,1,9,0,3,3,9,0,0,0,0,0,0,0,0,0,0,0,0],"split_type":[0,0,0,0,0,0,0,0,0,0,0,0,0,0,0,0,0,0,0,0,0,0,0,0,0,0,0,0,0,0,0,0,0],"sum_hessian":[2E2,6E0,1.94E2,5E0,1E0,3.2E1,1.62E2,1E0,4E0,5E0,2.7E1,1.4E1,1.48E2,1E0,4E0,1.9E1,8E0,2E0,1.2E1,2E1,1.28E2,3E0,1E0,8E0,1.1E1,2E0,6E0,8E0,4E0,7E0,1.3E1,1.24E2,4E0],"tree_param":{"num_deleted":"0","num_feature":"10","num_nodes":"33","size_leaf_vector":"1"}},{"base_weights":[-1.2543256E-4,1.3419362E-2,-2.355257E-2,1.1479112E-1,7.492955E-3,-7.066453E-2,-8.261907E-3,-4.604736E-3,1.492721E-1,-1.7547477E-3,6.4714335E-2,-8.923512E-2,1.2251777E-2,1.019818E-1,-2.082345E-2,1.8297844E-2,-9.629816E-4,-2.5735382E-2,2.1814296E-2,-1.2004197E-2,1.3424239E-1,-3.2683097E-2,-1.1007488E-1,1.8916605E-2,-4.8257798E-2,-9.038325E-2,2.3040683E-3,-4.5295893E-3,8.995446E-3,3.384364E-3,-1.3701342E-2,-1.2147147E-2,3.6625236E-3,1.5976667E-2,2.993826E-3,-6.8511046E-3,2.3586377E-4,-1.1729247E-2,-1.5340701E-3,5.7730078E-5,-7.2963997E-3,-1.3940771E-2,1.5937429E-3,3.1028895E-3,-6.730627E-3],"categories":[],"categories_nodes":[],"categories_segments":[],"categories_sizes":[],"default_left":[0,0,0,0,0,0,0,0,0,0,0,0,0,0,0,0,0,0,0,0,0,0,0,0,0,0,0,0,0,0,0,0,0,0,0,0,0,0,0,0,0,0,0,0,0],"id":18,"left_children":[1,3,5,7,9,11,13,-1,15,17,19,21,-1,23,25,-1,-1,27,29,31,33,35,37,-1,39,41,43,-1,-1,-1,-1,-1,-1,-1,-1,-1,-1,-1,-1,-1,-1,-1,-1,-1,-1],"loss_changes":[6.409653E-2,7.603849E-2,5.2723788E-2,4.5694657E-2,6.467184E-2,7.550806E-2,8.105899E-2,0E0,3.3898056E-2,6.047267E-2,9.229101E-2,1.6437426E-2,0E0,8.771989E-2,8.386302E-2,0E0,0E0,1.2401101E-1,1.0780907E-1,5.2358903E-2,1.9177452E-2,7.6944334E-3,6.4056814E-3,0E0,3.6617112E-3,6.998188E-2,8.2070224E-2,0E0,0E0,0E0,0E0,0E0,0E0,0E0,0E0,0E0,0E0,0E0,0E0,0E0,0E0,0E0,0E0,0E0,0E0],"parents":[2147483647,0,0,1,1,2,2,3,3,4,4,5,5,6,6,8,8,9,9,10,10,11,11,13,13,14,14,17,17,18,18,19,19,20,20,21,21,22,22,24,24,25,25,26,26],"right_children":[2,4,6,8,10,12,14,-1,16,18,20,22,-1,24,26,-1,-1,28,30,32,34,36,38,-1,40,42,44,-1,-1,-1,-1,-1,-1,-1,-1,-1,-1,-1,-1,-1,-1,-1,-1,-1,-1],"split_conditions":[6.094937E-1,4.0816177E-2,1.8781804E-1,1.8800925E-2,5.4463637E-1,7.394459E-1,2.6603696E-1,-4.604736E-3,9.097568E-1,5.5307E-1,3.7809953E-1,2.7522305E-1,1.2251777E-2,6.101358E-1,1.7959782E-1,1.8297844E-2,-9.629816E-4,4.8324922E-1,5.0253206E-1,1.4110376E-1,9.144578E-1,2.5620842E-1,9.019362E-1,1.8916605E-2,8.895332E-2,7.8950965E-1,6.448309E-1,-4.5295893E-3,8.995446E-3,3.384364E-3,-1.3701342E-2,-1.2147147E-2,3.6625236E-3,1.5976667E-2,2.993826E-3,-6.8511046E-3,2.3586377E-4,-1.1729247E-2,-1.5340701E-3,5.7730078E-5,-7.2963997E-3,-1.3940771E-2,1.5937429E-3,3.1028895E-3,-6.730627E-3],"split_indices":[4,3,3,3,4,2,3,0,2,7,1,2,0,2,5,0,0,4,4,5,1,7,1,0,0,3,7,0,0,0,0,0,0,0,0,0,0,0,0,0,0,0,0,0,0],"split_type":[0,0,0,0,0,0,0,0,0,0,0,0,0,0,0,0,0,0,0,0,0,0,0,0,0,0,0,0,0,0,0,0,0,0,0,0,0,0,0,0,0,0,0,0,0],"sum_hessian":[2E2,1.27E2,7.3E1,6E0,1.21E2,1.7E1,5.6E1,1E0,5E0,1.05E2,1.6E1,1.6E1,1E0,5E0,5.1E1,4E0,1E0,5.2E1,5.3E1,8E0,8E0,5E0,1.1E1,3E0,2E0,1.2E1,3.9E1,4.5E1,7E0,5E1,3E0,2E0,6E0,6E0,2E0,2E0,3E0,1E1,1E0,1E0,1E0,8E0,4E0,2.8E1,1.1E1],"tree_param":{"num_deleted":"0","num_feature":"10","num_nodes":"45","size_leaf_vector":"1"}},{"base_weights":[-8.581653E-5,9.120201E-2,-3.3623753E-3,1.08186536E-1,-5.352557E-4,-6.8714907E-3,7.952213E-2,3.156793E-3,1.1719666E-2,-6.794567E-4,-6.1912242E-2,2.371645E-3,8.410632E-3,-4.81905E-2,8.233583E-3,9.1031855E-3,-1.1438739E-1,7.065276E-3,-7.841183E-3,-5.391243E-3,1.8691911E-3,8.047178E-3,-9.876862E-4,-1.3332044E-2,3.7471533E-3],"categories":[],"categories_nodes":[],"categories_segments":[],"categories_sizes":[],"default_left":[0,0,0,0,0,0,0,0,0,0,0,0,0,0,0,0,0,0,0,0,0,0,0,0,0],"id":19,"left_children":[1,3,5,7,-1,9,11,-1,-1,13,15,-1,-1,17,19,21,23,-1,-1,-1,-1,-1,-1,-1,-1],"loss_changes":[6.0427755E-2,1.2058608E-2,5.726244E-2,4.4240803E-4,0E0,6.4031005E-2,5.1882118E-5,0E0,0E0,7.238631E-2,7.184566E-2,0E0,0E0,1.0251321E-1,9.459956E-2,1.2986024E-2,3.662239E-2,0E0,0E0,0E0,0E0,0E0,0E0,0E0,0E0],"parents":[2147483647,0,0,1,1,2,2,3,3,5,5,6,6,9,9,10,10,13,13,14,14,15,15,16,16],"right_children":[2,4,6,8,-1,10,12,-1,-1,14,16,-1,-1,18,20,22,24,-1,-1,-1,-1,-1,-1,-1,-1],"split_conditions":[4.5555573E-2,8.3677423E-1,9.424881E-1,3.166743E-2,-5.352557E-4,8.749887E-1,9.4447017E-1,3.156793E-3,1.1719666E-2,1.5201947E-1,2.8209704E-1,2.371645E-3,8.410632E-3,9.78332E-3,1.668649E-1,8.827111E-1,8.20624E-1,7.065276E-3,-7.841183E-3,-5.391243E-3,1.8691911E-3,8.047178E-3,-9.876862E-4,-1.3332044E-2,3.7471533E-3],"split_indices":[6,2,0,1,0,0,0,0,0,8,2,0,0,8,1,0,5,0,0,0,0,0,0,0,0],"split_type":[0,0,0,0,0,0,0,0,0,0,0,0,0,0,0,0,0,0,0,0,0,0,0,0,0],"sum_hessian":[2E2,6E0,1.94E2,5E0,1E0,1.87E2,7E0,1E0,4E0,1.69E2,1.8E1,1E0,6E0,2.6E1,1.43E2,8E0,1E1,5E0,2.1E1,2E1,1.23E2,1E0,7E0,9E0,1E0],"tree_param":{"num_deleted":"0","num_feature":"10","num_nodes":"25","size_leaf_vector":"1"}},{"base_weights":[1.38031455E-5,1.220911E-2,-2.1080967E-2,1.0560284E-1,6.7503783E-3,-4.4747733E-2,5.1436103E-3,-4.104936E-3,1.3688643E-1,-1.7123624E-3,5.9120975E-2,4.7150355E-2,-6.288528E-2,9.542095E-2,-2.8482946E-2,1.682969E-2,-1.008293E-3,1.3974748E-2,-3.2603264E-2,-1.0670447E-2,1.223434E-1,7.058807E-2,-7.629275E-4,4.0722013E-2,-7.46034E-2,1.5570873E-2,2.9277643E-2,-6.81477E-2,1.3216301E-2,-1.065656E-3,1.1502054E-2,-4.322385E-4,-1.1696563E-2,-1.1219936E-2,3.43663E-3,1.37096215E-2,2.1604598E-4,2.932624E-3,8.832053E-3,-7.1136476E-3,1.0172034E-2,-8.618387E-3,5.8348808E-3,6.698755E-3,-3.0761452E-3,-8.778243E-3,3.3107165E-3,4.489591E-3,-1.1790756E-2],"categories":[],"categories_nodes":[],"categories_segments":[],"categories_sizes":[],"default_left":[0,0,0,0,0,0,0,0,0,0,0,0,0,0,0,0,0,0,0,0,0,0,0,0,0,0,0,0,0,0,0,0,0,0,0,0,0,0,0,0,0,0,0,0,0,0,0,0,0],"id":20,"left_children":[1,3,5,7,9,11,13,-1,15,17,19,21,23,25,27,-1,-1,29,31,33,35,37,-1,39,41,-1,43,45,47,-1,-1,-1,-1,-1,-1,-1,-1,-1,-1,-1,-1,-1,-1,-1,-1,-1,-1,-1,-1],"loss_changes":[5.196608E-2,6.454298E-2,4.6158336E-2,3.773375E-2,5.417149E-2,6.797047E-2,1.1200365E-1,0E0,2.939517E-2,5.182205E-2,7.631597E-2,9.525899E-3,4.3102756E-2,3.5317555E-2,4.5558393E-2,0E0,0E0,1.7793688E-1,8.538473E-2,4.5008663E-2,1.566112E-2,1.0682624E-3,0E0,3.4528743E-2,5.1218197E-2,0E0,1.5645048E-2,3.0739807E-2,6.3448906E-2,0E0,0E0,0E0,0E0,0E0,0E0,0E0,0E0,0E0,0E0,0E0,0E0,0E0,0E0,0E0,0E0,0E0,0E0,0E0,0E0],"parents":[2147483647,0,0,1,1,2,2,3,3,4,4,5,5,6,6,8,8,9,9,10,10,11,11,12,12,13,13,14,14,17,17,18,18,19,19,20,20,21,21,23,23,24,24,26,26,27,27,28,28],"right_children":[2,4,6,8,10,12,14,-1,16,18,20,22,24,26,28,-1,-1,30,32,34,36,38,-1,40,42,-1,44,46,48,-1,-1,-1,-1,-1,-1,-1,-1,-1,-1,-1,-1,-1,-1,-1,-1,-1,-1,-1,-1],"split_conditions":[6.094937E-1,4.0816177E-2,5.5467147E-1,1.8800925E-2,5.4463637E-1,2.3643172E-1,6.858295E-1,-4.104936E-3,9.097568E-1,6.971216E-1,3.7809953E-1,2.644765E-1,1.2649493E-1,3.5927635E-1,4.6186393E-1,1.682969E-2,-1.008293E-3,5.29416E-1,6.875958E-1,1.4110376E-1,7.405398E-1,4.7535914E-1,-7.629275E-4,3.8483795E-2,8.8875455E-1,1.5570873E-2,3.5727924E-1,9.7844815E-1,8.976822E-1,-1.065656E-3,1.1502054E-2,-4.322385E-4,-1.1696563E-2,-1.1219936E-2,3.43663E-3,1.37096215E-2,2.1604598E-4,2.932624E-3,8.832053E-3,-7.1136476E-3,1.0172034E-2,-8.618387E-3,5.8348808E-3,6.698755E-3,-3.0761452E-3,-8.778243E-3,3.3107165E-3,4.489591E-3,-1.1790756E-2],"split_indices":[4,3,6,3,4,2,6,0,2,3,1,6,5,7,1,0,0,3,5,5,0,3,0,1,8,0,5,4,4,0,0,0,0,0,0,0,0,0,0,0,0,0,0,0,0,0,0,0,0],"split_type":[0,0,0,0,0,0,0,0,0,0,0,0,0,0,0,0,0,0,0,0,0,0,0,0,0,0,0,0,0,0,0,0,0,0,0,0,0,0,0,0,0,0,0,0,0,0,0,0,0],"sum_hessian":[2E2,1.27E2,7.3E1,6E0,1.21E2,3.8E1,3.5E1,1E0,5E0,1.05E2,1.6E1,6E0,3.2E1,9E0,2.6E1,4E0,1E0,7E1,3.5E1,8E0,8E0,4E0,2E0,3E0,2.9E1,4E0,5E0,1.3E1,1.3E1,5.7E1,1.3E1,2.7E1,8E0,2E0,6E0,7E0,1E0,2E0,2E0,1E0,2E0,2.7E1,2E0,3E0,2E0,1.1E1,2E0,1.1E1,2E0],"tree_param":{"num_deleted":"0","num_feature":"10","num_nodes":"49","size_leaf_vector":"1"}},{"base_weights":[1.8092582E-4,8.702095E-2,-2.9373362E-3,1.0314738E-2,-4.8688054E-4,-4.8710625E-3,1.2244484E-2,2.101272E-2,-1.5604672E-2,-8.249837E-2,3.715424E-2,-3.8897082E-2,1.1571001E-2,2.9455274E-3,-1.2472547E-2,-2.0056136E-3,5.195824E-3,-6.725275E-3,-8.723776E-4,3.1980637E-3,-8.967366E-3],"categories":[],"categories_nodes":[],"categories_segments":[],"categories_sizes":[],"default_left":[0,0,0,0,0,0,0,0,0,0,0,0,0,0,0,0,0,0,0,0,0],"id":21,"left_children":[1,3,5,-1,-1,7,-1,9,11,13,15,17,19,-1,-1,-1,-1,-1,-1,-1,-1],"loss_changes":[5.4684393E-2,1.0875177E-2,4.7875125E-2,0E0,0E0,5.39484E-2,0E0,9.830226E-2,8.716929E-2,4.1493636E-2,4.3389186E-2,6.2726535E-2,1.3511528E-1,0E0,0E0,0E0,0E0,0E0,0E0,0E0,0E0],"parents":[2147483647,0,0,1,1,2,2,5,5,7,7,8,8,9,9,10,10,11,11,12,12],"right_children":[2,4,6,-1,-1,8,-1,10,12,14,16,18,20,-1,-1,-1,-1,-1,-1,-1,-1],"split_conditions":[4.5555573E-2,8.3677423E-1,9.910301E-1,1.0314738E-2,-4.8688054E-4,2.8407344E-1,1.2244484E-2,1.0966777E-1,5.5307E-1,3.6453444E-1,1.10797435E-1,4.9791873E-1,9.02461E-1,2.9455274E-3,-1.2472547E-2,-2.0056136E-3,5.195824E-3,-6.725275E-3,-8.723776E-4,3.1980637E-3,-8.967366E-3],"split_indices":[6,2,9,0,0,2,0,1,7,6,3,9,5,0,0,0,0,0,0,0,0],"split_type":[0,0,0,0,0,0,0,0,0,0,0,0,0,0,0,0,0,0,0,0,0],"sum_hessian":[2E2,6E0,1.94E2,5E0,1E0,1.92E2,2E0,5.6E1,1.36E2,7E0,4.9E1,7.3E1,6.3E1,2E0,5E0,1E1,3.9E1,3.7E1,3.6E1,5.3E1,1E1],"tree_param":{"num_deleted":"0","num_feature":"10","num_nodes":"21","size_leaf_vector":"1"}},{"base_weights":[1.7461652E-4,7.9722814E-2,-2.6818553E-3,9.455174E-2,-4.6253653E-4,-4.4860486E-3,1.1428186E-2,1.0993754E-2,4.2520105E-3,4.4837224E-4,-5.91011E-2,-1.3499221E-2,2.7421612E-2,-1.2082295E-1,2.3295572E-3,-5.2282335E-3,7.830518E-4,9.98894E-3,7.6358387E-4,-1.9725105E-2,-6.2471754E-3,3.6898614E-3,-5.0106416E-3],"categories":[],"categories_nodes":[],"categories_segments":[],"categories_sizes":[],"default_left":[0,0,0,0,0,0,0,0,0,0,0,0,0,0,0,0,0,0,0,0,0,0,0],"id":22,"left_children":[1,3,5,7,-1,9,-1,-1,-1,11,13,15,17,19,21,-1,-1,-1,-1,-1,-1,-1,-1],"loss_changes":[4.5886476E-2,9.192884E-3,4.1662574E-2,1.2873113E-4,0E0,5.2038774E-2,0E0,0E0,0E0,6.733587E-2,6.0947284E-2,9.802297E-2,8.6700976E-2,2.3354746E-2,1.8162815E-2,0E0,0E0,0E0,0E0,0E0,0E0,0E0,0E0],"parents":[2147483647,0,0,1,1,2,2,3,3,5,5,9,9,10,10,11,11,12,12,13,13,14,14],"right_children":[2,4,6,8,-1,10,-1,-1,-1,12,14,16,18,20,22,-1,-1,-1,-1,-1,-1,-1,-1],"split_conditions":[4.5555573E-2,8.3677423E-1,9.910301E-1,2.981472E-1,-4.6253653E-4,9.110972E-1,1.1428186E-2,1.0993754E-2,4.2520105E-3,6.159576E-1,9.4404274E-1,2.6915658E-1,6.394682E-1,1.19050294E-1,2.9222402E-1,-5.2282335E-3,7.830518E-4,9.98894E-3,7.6358387E-4,-1.9725105E-2,-6.2471754E-3,3.6898614E-3,-5.0106416E-3],"split_indices":[6,2,9,4,0,9,0,0,0,9,9,3,9,0,1,0,0,0,0,0,0,0,0],"split_type":[0,0,0,0,0,0,0,0,0,0,0,0,0,0,0,0,0,0,0,0,0,0,0],"sum_hessian":[2E2,6E0,1.94E2,5E0,1E0,1.92E2,2E0,3E0,2E0,1.77E2,1.5E1,1.17E2,6E1,7E0,8E0,4.1E1,7.6E1,1.2E1,4.8E1,2E0,5E0,5E0,3E0],"tree_param":{"num_deleted":"0","num_feature":"10","num_nodes":"23","size_leaf_vector":"1"}},{"base_weights":[1.831514E-4,-4.025244E-2,5.1242616E-3,-7.0819676E-2,7.7840105E-2,-4.0082823E-2,1.2336139E-2,-1.2308938E-1,-4.87338E-3,9.874745E-3,-2.894625E-4,-3.3445817E-3,-1.5586315E-1,-5.1728692E-2,1.9016676E-2,-1.3124974E-2,-2.482307E-3,7.373409E-2,-5.646613E-2,-4.652806E-2,6.7246646E-2,-5.063728E-3,-1.9581677E-2,-1.0736499E-1,8.10169E-3,2.573175E-2,-4.959688E-2,8.434135E-3,2.095616E-3,-9.215637E-3,9.94289E-4,-7.784409E-3,4.339402E-3,8.474845E-3,-2.7633011E-3,-7.3686097E-4,-1.1662777E-2,5.062593E-3,-2.3880941E-4,8.454374E-3,-6.782057E-3],"categories":[],"categories_nodes":[],"categories_segments":[],"categories_sizes":[],"default_left":[0,0,0,0,0,0,0,0,0,0,0,0,0,0,0,0,0,0,0,0,0,0,0,0,0,0,0,0,0,0,0,0,0,0,0,0,0,0,0,0,0],"id":23,"left_children":[1,3,5,7,9,11,13,15,17,-1,-1,19,21,23,25,-1,-1,27,29,31,33,-1,-1,35,-1,37,39,-1,-1,-1,-1,-1,-1,-1,-1,-1,-1,-1,-1,-1,-1],"loss_changes":[4.03654E-2,8.4927395E-2,5.9179496E-2,6.144602E-2,8.725578E-3,1.05817854E-1,6.774977E-2,4.7608465E-3,4.066366E-2,0E0,0E0,6.409635E-2,1.5309289E-2,1.1948046E-1,6.6702016E-2,0E0,0E0,4.718434E-4,1.5137218E-2,3.9985996E-2,1.5626382E-2,0E0,0E0,9.329319E-3,0E0,9.112357E-2,3.7512794E-2,0E0,0E0,0E0,0E0,0E0,0E0,0E0,0E0,0E0,0E0,0E0,0E0,0E0,0E0],"parents":[2147483647,0,0,1,1,2,2,3,3,4,4,5,5,6,6,7,7,8,8,11,11,12,12,13,13,14,14,17,17,18,18,19,19,20,20,23,23,25,25,26,26],"right_children":[2,4,6,8,10,12,14,16,18,-1,-1,20,22,24,26,-1,-1,28,30,32,34,-1,-1,36,-1,38,40,-1,-1,-1,-1,-1,-1,-1,-1,-1,-1,-1,-1,-1,-1],"split_conditions":[1.2656194E-1,9.1252846E-1,1.3157043E-1,6.30154E-1,3.5161653E-1,1.0110564E-1,1.2024202E-1,8.773302E-1,1.6116872E-1,9.874745E-3,-2.894625E-4,5.794717E-1,2.8129938E-1,8.326192E-1,9.107939E-1,-1.3124974E-2,-2.482307E-3,8.176606E-2,8.181421E-1,9.185295E-2,9.097568E-1,-5.063728E-3,-1.9581677E-2,7.116641E-2,8.10169E-3,6.659565E-1,4.5941003E-2,8.434135E-3,2.095616E-3,-9.215637E-3,9.94289E-4,-7.784409E-3,4.339402E-3,8.474845E-3,-2.7633011E-3,-7.3686097E-4,-1.1662777E-2,5.062593E-3,-2.3880941E-4,8.454374E-3,-6.782057E-3],"split_indices":[9,5,0,6,2,0,7,3,0,0,0,9,9,3,3,0,0,0,0,0,2,0,0,3,0,0,2,0,0,0,0,0,0,0,0,0,0,0,0,0,0],"split_type":[0,0,0,0,0,0,0,0,0,0,0,0,0,0,0,0,0,0,0,0,0,0,0,0,0,0,0,0,0,0,0,0,0,0,0,0,0,0,0,0,0],"sum_hessian":[2E2,2.1E1,1.79E2,1.7E1,4E0,2.4E1,1.55E2,9E0,8E0,3E0,1E0,1.9E1,5E0,1.4E1,1.41E2,8E0,1E0,3E0,5E0,1.2E1,7E0,2E0,3E0,1E1,4E0,1.29E2,1.2E1,2E0,1E0,3E0,2E0,9E0,3E0,6E0,1E0,1E0,9E0,6.8E1,6.1E1,1E0,1.1E1],"tree_param":{"num_deleted":"0","num_feature":"10","num_nodes":"41","size_leaf_vector":"1"}},{"base_weights":[4.596786E-5,7.060359E-2,-2.4871053E-3,8.379575E-2,-4.274696E-4,1.888416E-2,-1.1232968E-2,9.846084E-3,3.6310374E-3,-7.074477E-2,3.2847106E-2,-5.181807E-2,1.890865E-3,2.2594422E-2,-1.05623566E-1,5.5460554E-2,-3.846097E-3,-6.647463E-2,1.2179127E-2,2.2958048E-2,-4.1501366E-2,3.6814364E-4,3.0210197E-3,-1.22309E-2,-1.1098207E-3,3.2647704E-3,1.2901208E-2,-4.87762E-3,8.656355E-3,-8.614398E-3,5.696866E-3,3.5673033E-3,-8.322096E-3,-5.587572E-3,8.386883E-3],"categories":[],"categories_nodes":[],"categories_segments":[],"categories_sizes":[],"default_left":[0,0,0,0,0,0,0,0,0,0,0,0,0,0,0,0,0,0,0,0,0,0,0,0,0,0,0,0,0,0,0,0,0,0,0],"id":24,"left_children":[1,3,5,7,-1,9,11,-1,-1,13,15,17,19,21,23,25,27,29,-1,31,33,-1,-1,-1,-1,-1,-1,-1,-1,-1,-1,-1,-1,-1,-1],"loss_changes":[3.6099847E-2,7.272847E-3,3.6659606E-2,6.031133E-4,0E0,7.365833E-2,7.413384E-2,0E0,0E0,2.843098E-2,4.1701302E-2,9.4609566E-2,9.785292E-2,3.2089418E-4,8.105762E-3,4.7803566E-2,8.546453E-2,8.260509E-2,0E0,1.0017337E-1,6.7760274E-2,0E0,0E0,0E0,0E0,0E0,0E0,0E0,0E0,0E0,0E0,0E0,0E0,0E0,0E0],"parents":[2147483647,0,0,1,1,2,2,3,3,5,5,6,6,9,9,10,10,11,11,12,12,13,13,14,14,15,15,16,16,17,17,19,19,20,20],"right_children":[2,4,6,8,-1,10,12,-1,-1,14,16,18,20,22,24,26,28,30,-1,32,34,-1,-1,-1,-1,-1,-1,-1,-1,-1,-1,-1,-1,-1,-1],"split_conditions":[4.5555573E-2,8.3677423E-1,2.8407344E-1,2.981472E-1,-4.274696E-4,1.0966777E-1,4.5062703E-1,9.846084E-3,3.6310374E-3,3.6453444E-1,5.6303865E-1,9.019362E-1,6.971216E-1,4.0517122E-1,5.3620815E-1,7.985151E-1,9.3168277E-1,8.326553E-1,1.2179127E-2,9.3281966E-1,9.0187114E-1,3.6814364E-4,3.0210197E-3,-1.22309E-2,-1.1098207E-3,3.2647704E-3,1.2901208E-2,-4.87762E-3,8.656355E-3,-8.614398E-3,5.696866E-3,3.5673033E-3,-8.322096E-3,-5.587572E-3,8.386883E-3],"split_indices":[6,2,2,4,0,1,2,0,0,6,5,1,3,0,0,1,5,3,0,1,8,0,0,0,0,0,0,0,0,0,0,0,0,0,0],"split_type":[0,0,0,0,0,0,0,0,0,0,0,0,0,0,0,0,0,0,0,0,0,0,0,0,0,0,0,0,0,0,0,0,0,0,0],"sum_hessian":[2E2,6E0,1.94E2,5E0,1E0,5.6E1,1.38E2,3E0,2E0,7E0,4.9E1,3.3E1,1.05E2,2E0,5E0,3E1,1.9E1,3.1E1,2E0,7.1E1,3.4E1,1E0,1E0,4E0,1E0,2.4E1,6E0,1.3E1,6E0,2.7E1,4E0,6.4E1,7E0,3.1E1,3E0],"tree_param":{"num_deleted":"0","num_feature":"10","num_nodes":"35","size_leaf_vector":"1"}},{"base_weights":[1.9236376E-4,-1.3843293E-3,1.0471555E-2,2.8340789E-3,-4.9809504E-2,-2.635724E-3,6.043174E-2,-1.0106392E-1,1.2843733E-3,-4.8361246E-2,4.179122E-3,-1.0100279E-2,9.07083E-2,-1.6805781E-2,-5.0722998E-2,4.1520435E-2,-3.920856E-2,5.4548117E-3,-6.748105E-3,1.0838072E-2,-5.8120536E-4,1.4254274E-2,3.4014636E-3,-5.714617E-3,-9.303555E-4,5.7157264E-3,-1.051344E-3,2.186671E-3,-5.9944056E-3],"categories":[],"categories_nodes":[],"categories_segments":[],"categories_sizes":[],"default_left":[0,0,0,0,0,0,0,0,0,0,0,0,0,0,0,0,0,0,0,0,0,0,0,0,0,0,0,0,0],"id":25,"left_children":[1,3,-1,5,7,9,11,13,15,17,19,-1,21,-1,23,25,27,-1,-1,-1,-1,-1,-1,-1,-1,-1,-1,-1,-1],"loss_changes":[3.3269957E-2,4.0792316E-2,0E0,5.812809E-2,4.20304E-2,5.2864604E-2,8.73647E-2,1.845587E-2,1.6291441E-2,4.69683E-2,1.5471219E-1,0E0,3.6293037E-2,0E0,1.0646051E-3,4.669144E-3,7.6429094E-3,0E0,0E0,0E0,0E0,0E0,0E0,0E0,0E0,0E0,0E0,0E0,0E0],"parents":[2147483647,0,0,1,1,3,3,4,4,5,5,6,6,7,7,8,8,9,9,10,10,12,12,14,14,15,15,16,16],"right_children":[2,4,-1,6,8,10,12,14,16,18,20,-1,22,-1,24,26,28,-1,-1,-1,-1,-1,-1,-1,-1,-1,-1,-1,-1],"split_conditions":[9.910301E-1,9.110972E-1,1.0471555E-2,9.0127385E-1,9.4404274E-1,1.4597955E-1,2.3703631E-2,1.19050294E-1,8.1632316E-1,9.096631E-2,2.0052224E-1,-1.0100279E-2,2.73342E-1,-1.6805781E-2,4.9978802E-1,2.6418158E-1,6.7837305E-2,5.4548117E-3,-6.748105E-3,1.0838072E-2,-5.8120536E-4,1.4254274E-2,3.4014636E-3,-5.714617E-3,-9.303555E-4,5.7157264E-3,-1.051344E-3,2.186671E-3,-5.9944056E-3],"split_indices":[9,9,0,7,9,5,3,0,7,4,5,0,3,0,1,1,0,0,0,0,0,0,0,0,0,0,0,0,0],"split_type":[0,0,0,0,0,0,0,0,0,0,0,0,0,0,0,0,0,0,0,0,0,0,0,0,0,0,0,0,0],"sum_hessian":[2E2,1.98E2,2E0,1.83E2,1.5E1,1.68E2,1.5E1,7E0,8E0,2.1E1,1.47E2,2E0,1.3E1,2E0,5E0,4E0,4E0,3E0,1.8E1,1.2E1,1.35E2,6E0,7E0,4E0,1E0,3E0,1E0,1E0,3E0],"tree_param":{"num_deleted":"0","num_feature":"10","num_nodes":"29","size_leaf_vector":"1"}},{"base_weights":[1.9499811E-4,-3.6479387E-2,4.6763397E-3,-6.323112E-2,6.712271E-2,-3.531523E-2,1.1055268E-2,-1.0778217E-1,-6.7042625E-3,8.602487E-3,-4.2429418E-4,-8.646852E-2,2.7306538E-2,-4.5035165E-2,1.690246E-2,-1.1520296E-2,-2.0497532E-3,6.2465355E-2,-5.1699962E-2,2.0705601E-3,-1.0605633E-1,-4.1244823E-2,6.673782E-2,-9.353935E-2,7.0681083E-3,1.323261E-2,1.4020415E-2,7.3022284E-3,1.539728E-3,-8.181204E-3,5.6827866E-4,-1.32152485E-2,-2.082593E-3,1.2803575E-4,-7.0021735E-3,8.583009E-3,-3.3454031E-3,-8.49323E-4,-1.0119464E-2,1.7905334E-3,-7.743951E-3],"categories":[],"categories_nodes":[],"categories_segments":[],"categories_sizes":[],"default_left":[0,0,0,0,0,0,0,0,0,0,0,0,0,0,0,0,0,0,0,0,0,0,0,0,0,0,0,0,0,0,0,0,0,0,0,0,0,0,0,0,0],"id":26,"left_children":[1,3,5,7,9,11,13,15,17,-1,-1,19,21,23,25,-1,-1,27,29,-1,31,33,35,37,-1,39,-1,-1,-1,-1,-1,-1,-1,-1,-1,-1,-1,-1,-1,-1,-1],"loss_changes":[3.3205025E-2,6.521803E-2,4.6309028E-2,4.4607356E-2,7.109819E-3,8.2443886E-2,5.192476E-2,4.1158274E-3,3.1240476E-2,0E0,0E0,3.1586267E-2,3.518941E-2,9.08023E-2,6.2399548E-2,0E0,0E0,8.632345E-4,1.0832401E-2,0E0,2.3938015E-2,6.2083695E-3,1.8174484E-2,6.3021183E-3,0E0,6.0278896E-2,0E0,0E0,0E0,0E0,0E0,0E0,0E0,0E0,0E0,0E0,0E0,0E0,0E0,0E0,0E0],"parents":[2147483647,0,0,1,1,2,2,3,3,4,4,5,5,6,6,7,7,8,8,11,11,12,12,13,13,14,14,17,17,18,18,20,20,21,21,22,22,23,23,25,25],"right_children":[2,4,6,8,10,12,14,16,18,-1,-1,20,22,24,26,-1,-1,28,30,-1,32,34,36,38,-1,40,-1,-1,-1,-1,-1,-1,-1,-1,-1,-1,-1,-1,-1,-1,-1],"split_conditions":[1.2656194E-1,9.1252846E-1,1.3157043E-1,6.30154E-1,3.5161653E-1,5.497295E-1,1.2024202E-1,8.773302E-1,1.6116872E-1,8.602487E-3,-4.2429418E-4,3.1841668E-1,5.092902E-1,8.326192E-1,9.36022E-1,-1.1520296E-2,-2.0497532E-3,8.176606E-2,8.181421E-1,2.0705601E-3,7.266562E-1,6.820906E-1,9.097568E-1,7.116641E-2,7.0681083E-3,8.872778E-1,1.4020415E-2,7.3022284E-3,1.539728E-3,-8.181204E-3,5.6827866E-4,-1.32152485E-2,-2.082593E-3,1.2803575E-4,-7.0021735E-3,8.583009E-3,-3.3454031E-3,-8.49323E-4,-1.0119464E-2,1.7905334E-3,-7.743951E-3],"split_indices":[9,5,0,6,2,2,7,3,0,0,0,6,9,3,4,0,0,0,0,0,6,1,2,3,0,4,0,0,0,0,0,0,0,0,0,0,0,0,0,0,0],"split_type":[0,0,0,0,0,0,0,0,0,0,0,0,0,0,0,0,0,0,0,0,0,0,0,0,0,0,0,0,0,0,0,0,0,0,0,0,0,0,0,0,0],"sum_hessian":[2E2,2.1E1,1.79E2,1.7E1,4E0,2.4E1,1.55E2,9E0,8E0,3E0,1E0,1.3E1,1.1E1,1.4E1,1.41E2,8E0,1E0,3E0,5E0,2E0,1.1E1,4E0,7E0,1E1,4E0,1.38E2,3E0,2E0,1E0,3E0,2E0,8E0,3E0,2E0,2E0,6E0,1E0,1E0,9E0,1.32E2,6E0],"tree_param":{"num_deleted":"0","num_feature":"10","num_nodes":"41","size_leaf_vector":"1"}},{"base_weights":[1.0157265E-4,1.5473545E-3,-9.583581E-3,-2.7145803E-4,1.2046693E-2,-3.0088624E-2,4.8467033E-3,-7.792281E-2,2.6728207E-2,6.282522E-2,-1.208511E-3,-9.795386E-3,4.15297E-3,-2.0309014E-3,7.666671E-3,-5.7422807E-3,8.410514E-3,-1.9858081E-3,2.2053397E-3],"categories":[],"categories_nodes":[],"categories_segments":[],"categories_sizes":[],"default_left":[0,0,0,0,0,0,0,0,0,0,0,0,0,0,0,0,0,0,0],"id":27,"left_children":[1,3,-1,5,-1,7,9,11,13,15,17,-1,-1,-1,-1,-1,-1,-1,-1],"loss_changes":[2.8027905E-2,4.307489E-2,0E0,3.0209817E-2,0E0,8.089855E-2,5.9407152E-2,4.2352132E-2,3.4442585E-2,4.577145E-2,6.7246914E-2,0E0,0E0,0E0,0E0,0E0,0E0,0E0,0E0],"parents":[2147483647,0,0,1,1,3,3,5,5,6,6,7,7,8,8,9,9,10,10],"right_children":[2,4,-1,6,-1,8,10,12,14,16,18,-1,-1,-1,-1,-1,-1,-1,-1],"split_conditions":[9.9819875E-1,9.938297E-1,-9.583581E-3,1.5668301E-1,1.2046693E-2,6.30154E-1,2.3867631E-1,9.1252846E-1,3.5564527E-1,2.8263924E-1,5.843176E-1,-9.795386E-3,4.15297E-3,-2.0309014E-3,7.666671E-3,-5.7422807E-3,8.410514E-3,-1.9858081E-3,2.2053397E-3],"split_indices":[6,6,0,9,0,6,9,5,5,4,2,0,0,0,0,0,0,0,0],"split_type":[0,0,0,0,0,0,0,0,0,0,0,0,0,0,0,0,0,0,0],"sum_hessian":[2E2,1.98E2,2E0,1.96E2,2E0,2.8E1,1.68E2,1.5E1,1.3E1,1.5E1,1.53E2,1.3E1,2E0,7E0,6E0,2E0,1.3E1,8.5E1,6.8E1],"tree_param":{"num_deleted":"0","num_feature":"10","num_nodes":"19","size_leaf_vector":"1"}},{"base_weights":[1.18005744E-4,-2.2979684E-3,5.869063E-2,3.3527642E-4,-6.3562825E-2,6.2784576E-3,1.5016496E-3,5.153272E-3,-3.7995223E-2,-1.45171825E-2,-1.0897917E-2,-8.91231E-3,2.2112222E-2,-8.894735E-2,7.631149E-3,-1.6445406E-3,-3.4021438E-4,-6.17821E-6,-8.148046E-3,6.3739675E-3,4.5681307E-5,-3.8333375E-3,-1.3189465E-2,8.19766E-3,-3.9788648E-3],"categories":[],"categories_nodes":[],"categories_segments":[],"categories_sizes":[],"default_left":[0,0,0,0,0,0,0,0,0,0,0,0,0,0,0,0,0,0,0,0,0,0,0,0,0],"id":28,"left_children":[1,3,5,7,9,-1,-1,11,13,15,-1,17,19,21,23,-1,-1,-1,-1,-1,-1,-1,-1,-1,-1],"loss_changes":[2.8578369E-2,3.1318434E-2,4.8759393E-4,3.473024E-2,1.6237717E-2,0E0,0E0,4.0032834E-2,4.9498737E-2,5.12118E-5,0E0,5.9083477E-2,6.848179E-2,1.6681373E-2,4.5567084E-2,0E0,0E0,0E0,0E0,0E0,0E0,0E0,0E0,0E0,0E0],"parents":[2147483647,0,0,1,1,2,2,3,3,4,4,7,7,8,8,9,9,11,11,12,12,13,13,14,14],"right_children":[2,4,6,8,10,-1,-1,12,14,16,-1,18,20,22,24,-1,-1,-1,-1,-1,-1,-1,-1,-1,-1],"split_conditions":[9.424881E-1,9.2529094E-1,9.174485E-1,9.097568E-1,1.8670729E-1,6.2784576E-3,1.5016496E-3,5.5307E-1,6.30154E-1,9.415217E-1,-1.0897917E-2,4.8869506E-1,7.416597E-1,4.8435393E-1,6.6155523E-1,-1.6445406E-3,-3.4021438E-4,-6.17821E-6,-8.148046E-3,6.3739675E-3,4.5681307E-5,-3.8333375E-3,-1.3189465E-2,8.19766E-3,-3.9788648E-3],"split_indices":[0,0,2,2,2,0,0,7,6,0,0,7,7,1,6,0,0,0,0,0,0,0,0,0,0],"split_type":[0,0,0,0,0,0,0,0,0,0,0,0,0,0,0,0,0,0,0,0,0,0,0,0,0],"sum_hessian":[2E2,1.93E2,7E0,1.86E2,7E0,6E0,1E0,1.66E2,2E1,4E0,3E0,9.1E1,7.5E1,9E0,1.1E1,3E0,1E0,8.2E1,9E0,2.5E1,5E1,5E0,4E0,4E0,7E0],"tree_param":{"num_deleted":"0","num_feature":"10","num_nodes":"25","size_leaf_vector":"1"}},{"base_weights":[8.497109E-6,-1.4192453E-3,9.471258E-3,2.2000328E-3,-4.295224E-2,-2.6471156E-3,5.3260535E-2,-8.900927E-2,2.7598133E-3,2.213238E-2,-1.2949846E-2,-8.656442E-3,7.9418704E-2,-1.467331E-2,-4.5312475E-2,3.9053954E-2,-3.4086287E-2,-2.2827184E-3,5.286633E-3,-4.573218E-3,-2.0001778E-4,1.2560258E-2,2.908048E-3,-5.0879917E-3,-8.737639E-4,5.277328E-3,-7.9116825E-4,2.278474E-3,-5.400023E-3],"categories":[],"categories_nodes":[],"categories_segments":[],"categories_sizes":[],"default_left":[0,0,0,0,0,0,0,0,0,0,0,0,0,0,0,0,0,0,0,0,0,0,0,0,0,0,0,0,0],"id":29,"left_children":[1,3,-1,5,7,9,11,13,15,17,19,-1,21,-1,23,25,27,-1,-1,-1,-1,-1,-1,-1,-1,-1,-1,-1,-1],"loss_changes":[2.7312238E-2,3.0008068E-2,0E0,4.568059E-2,3.3931434E-2,4.343171E-2,6.539586E-2,1.3529927E-2,1.3366882E-2,7.029605E-2,4.2983208E-2,0E0,2.8894812E-2,0E0,7.7719893E-4,3.639211E-3,6.8930136E-3,0E0,0E0,0E0,0E0,0E0,0E0,0E0,0E0,0E0,0E0,0E0,0E0],"parents":[2147483647,0,0,1,1,3,3,4,4,5,5,6,6,7,7,8,8,9,9,10,10,12,12,14,14,15,15,16,16],"right_children":[2,4,-1,6,8,10,12,14,16,18,20,-1,22,-1,24,26,28,-1,-1,-1,-1,-1,-1,-1,-1,-1,-1,-1,-1],"split_conditions":[9.910301E-1,9.110972E-1,9.471258E-3,9.0127385E-1,9.4404274E-1,2.8407344E-1,2.3703631E-2,1.19050294E-1,8.1632316E-1,1.3729131E-1,2.4992692E-1,-8.656442E-3,2.73342E-1,-1.467331E-2,4.9978802E-1,2.6418158E-1,6.7837305E-2,-2.2827184E-3,5.286633E-3,-4.573218E-3,-2.0001778E-4,1.2560258E-2,2.908048E-3,-5.0879917E-3,-8.737639E-4,5.277328E-3,-7.9116825E-4,2.278474E-3,-5.400023E-3],"split_indices":[9,9,0,7,9,2,3,0,7,2,8,0,3,0,1,1,0,0,0,0,0,0,0,0,0,0,0,0,0],"split_type":[0,0,0,0,0,0,0,0,0,0,0,0,0,0,0,0,0,0,0,0,0,0,0,0,0,0,0,0,0],"sum_hessian":[2E2,1.98E2,2E0,1.83E2,1.5E1,1.68E2,1.5E1,7E0,8E0,4.9E1,1.19E2,2E0,1.3E1,2E0,5E0,4E0,4E0,2E1,2.9E1,2.9E1,9E1,6E0,7E0,4E0,1E0,3E0,1E0,1E0,3E0],"tree_param":{"num_deleted":"0","num_feature":"10","num_nodes":"29","size_leaf_vector":"1"}},{"base_weights":[-1.6014004E-5,5.854296E-2,-2.1180487E-3,8.454223E-3,1.7907947E-2,-3.514066E-3,8.839842E-3,2.4920604E-3,-1.5650094E-4,-2.2609413E-2,4.655376E-3,-5.2218743E-2,1.5841251E-2,1.2744796E-2,9.2736323E-4,-8.733209E-3,-1.4033697E-3,-4.2888992E-3,6.924496E-3,2.468032E-3,-1.4146797E-3],"categories":[],"categories_nodes":[],"categories_segments":[],"categories_sizes":[],"default_left":[0,0,0,0,0,0,0,0,0,0,0,0,0,0,0,0,0,0,0,0,0],"id":30,"left_children":[1,3,5,-1,7,9,-1,-1,-1,11,13,15,17,-1,19,-1,-1,-1,-1,-1,-1],"loss_changes":[2.4865689E-2,5.881386E-3,2.4951337E-2,0E0,5.852295E-4,3.0212935E-2,0E0,0E0,0E0,6.686011E-2,6.2138848E-2,4.3020964E-2,8.451657E-2,0E0,4.797057E-2,0E0,0E0,0E0,0E0,0E0,0E0],"parents":[2147483647,0,0,1,1,2,2,4,4,5,5,9,9,10,10,11,11,12,12,14,14],"right_children":[2,4,6,-1,8,10,-1,-1,-1,12,14,16,18,-1,20,-1,-1,-1,-1,-1,-1],"split_conditions":[4.5555573E-2,2.981472E-1,9.910301E-1,8.454223E-3,4.6727097E-1,2.519319E-1,8.839842E-3,2.4920604E-3,-1.5650094E-4,5.794717E-1,2.6603696E-1,4.8049626E-1,4.732612E-1,1.2744796E-2,3.7656182E-1,-8.733209E-3,-1.4033697E-3,-4.2888992E-3,6.924496E-3,2.468032E-3,-1.4146797E-3],"split_indices":[6,4,9,0,0,3,0,0,0,9,3,0,7,0,9,0,0,0,0,0,0],"split_type":[0,0,0,0,0,0,0,0,0,0,0,0,0,0,0,0,0,0,0,0,0],"sum_hessian":[2E2,6E0,1.94E2,3E0,3E0,1.92E2,2E0,2E0,1E0,5.7E1,1.35E2,3.2E1,2.5E1,3E0,1.32E2,1.6E1,1.6E1,1.2E1,1.3E1,5.1E1,8.1E1],"tree_param":{"num_deleted":"0","num_feature":"10","num_nodes":"21","size_leaf_vector":"1"}},{"base_weights":[1.1457106E-4,1.4260209E-3,-8.691645E-3,-2.1637292E-4,1.0880121E-2,7.6302406E-3,-1.702711E-2,-1.2469405E-2,2.8832437E-2,-6.5403674E-3,-9.998672E-2,-7.5156255E-5,-5.9287096E-3,9.811276E-3,1.1619908E-3,2.0001892E-3,-4.9675866E-3,-1.14891E-2,-4.1817348E-3],"categories":[],"categories_nodes":[],"categories_segments":[],"categories_sizes":[],"default_left":[0,0,0,0,0,0,0,0,0,0,0,0,0,0,0,0,0,0,0],"id":31,"left_children":[1,3,-1,5,-1,7,9,11,13,15,17,-1,-1,-1,-1,-1,-1,-1,-1],"loss_changes":[2.3065448E-2,3.5117656E-2,0E0,2.611567E-2,0E0,5.7890672E-2,5.415454E-2,3.835761E-2,7.7564254E-2,6.625369E-2,1.264371E-3,0E0,0E0,0E0,0E0,0E0,0E0,0E0,0E0],"parents":[2147483647,0,0,1,1,3,3,5,5,6,6,7,7,8,8,9,9,10,10],"right_children":[2,4,-1,6,-1,8,10,12,14,16,18,-1,-1,-1,-1,-1,-1,-1,-1],"split_conditions":[9.9819875E-1,9.938297E-1,-8.691645E-3,6.5697974E-1,1.0880121E-2,3.5384396E-1,8.368233E-1,2.9353744E-1,4.0070105E-1,5.656796E-1,8.867701E-1,-7.5156255E-5,-5.9287096E-3,9.811276E-3,1.1619908E-3,2.0001892E-3,-4.9675866E-3,-1.14891E-2,-4.1817348E-3],"split_indices":[6,6,0,8,0,8,4,8,8,5,8,0,0,0,0,0,0,0,0],"split_type":[0,0,0,0,0,0,0,0,0,0,0,0,0,0,0,0,0,0,0],"sum_hessian":[2E2,1.98E2,2E0,1.96E2,2E0,1.34E2,6.2E1,6.9E1,6.5E1,5.6E1,6E0,5.6E1,1.3E1,1.2E1,5.3E1,3.5E1,2.1E1,4E0,2E0],"tree_param":{"num_deleted":"0","num_feature":"10","num_nodes":"19","size_leaf_vector":"1"}},{"base_weights":[4.5994806E-5,1.0854482E-3,-1.0392234E-2,-2.2154126E-2,5.9788194E-3,-5.5074684E-2,2.0381201E-2,6.609465E-2,4.389475E-4,-7.00209E-2,2.2215411E-2,4.723666E-2,-2.0895336E-2,-5.0408404E-2,1.0245079E-1,-1.7666379E-2,2.3330405E-2,1.3445616E-3,-8.204615E-3,-1.0224581E-3,5.9767696E-3,-2.552062E-3,8.206415E-3,-5.670968E-3,2.0142838E-3,-6.714657E-4,-6.273477E-3,1.236876E-2,4.590124E-4,-6.6215172E-3,-1.9513634E-4,5.1425654E-3,-1.1861523E-3],"categories":[],"categories_nodes":[],"categories_segments":[],"categories_sizes":[],"default_left":[0,0,0,0,0,0,0,0,0,0,0,0,0,0,0,0,0,0,0,0,0,0,0,0,0,0,0,0,0,0,0,0,0],"id":32,"left_children":[1,3,-1,5,7,9,11,13,15,17,19,21,23,25,27,29,31,-1,-1,-1,-1,-1,-1,-1,-1,-1,-1,-1,-1,-1,-1,-1,-1],"loss_changes":[2.183492E-2,2.287643E-2,0E0,5.013252E-2,5.525463E-2,2.4659432E-2,1.8723032E-2,6.446279E-2,6.382414E-2,1.816614E-2,5.4838825E-3,2.7433863E-2,1.143058E-2,1.7330982E-3,2.2292987E-2,6.548407E-2,6.7843355E-2,0E0,0E0,0E0,0E0,0E0,0E0,0E0,0E0,0E0,0E0,0E0,0E0,0E0,0E0,0E0,0E0],"parents":[2147483647,0,0,1,1,3,3,4,4,5,5,6,6,7,7,8,8,9,9,10,10,11,11,12,12,13,13,14,14,15,15,16,16],"right_children":[2,4,-1,6,8,10,12,14,16,18,20,22,24,26,28,30,32,-1,-1,-1,-1,-1,-1,-1,-1,-1,-1,-1,-1,-1,-1,-1,-1],"split_conditions":[9.860612E-1,1.7086293E-1,-1.0392234E-2,6.30154E-1,2.3867631E-1,9.2798316E-1,2.8517103E-1,1.4110376E-1,5.843176E-1,1.81485E-1,3.9396408E-1,3.248092E-1,8.181421E-1,6.704941E-2,5.683941E-1,2.8857183E-1,6.3591564E-1,1.3445616E-3,-8.204615E-3,-1.0224581E-3,5.9767696E-3,-2.552062E-3,8.206415E-3,-5.670968E-3,2.0142838E-3,-6.714657E-4,-6.273477E-3,1.236876E-2,4.590124E-4,-6.6215172E-3,-1.9513634E-4,5.1425654E-3,-1.1861523E-3],"split_indices":[5,9,0,6,9,5,0,5,2,1,3,8,0,0,2,0,6,0,0,0,0,0,0,0,0,0,0,0,0,0,0,0,0],"split_type":[0,0,0,0,0,0,0,0,0,0,0,0,0,0,0,0,0,0,0,0,0,0,0,0,0,0,0,0,0,0,0,0,0],"sum_hessian":[2E2,1.99E2,1E0,3.4E1,1.65E2,1.9E1,1.5E1,1.3E1,1.52E2,1.6E1,3E0,9E0,6E0,3E0,1E1,8.5E1,6.7E1,2E0,1.4E1,2E0,1E0,3E0,6E0,3E0,3E0,1E0,2E0,8E0,2E0,2E1,6.5E1,3.7E1,3E1],"tree_param":{"num_deleted":"0","num_feature":"10","num_nodes":"33","size_leaf_vector":"1"}},{"base_weights":[5.1892366E-6,1.6173942E-2,-6.507261E-3,-5.544225E-2,2.7090719E-2,-3.6582664E-2,3.4855984E-3,1.7842035E-3,-8.284402E-2,4.739242E-2,-6.746538E-3,5.828578E-2,-5.026265E-2,1.1561774E-1,-3.0170789E-3,-9.536903E-3,-1.0109469E-3,5.9380356E-2,-2.9218514E-2,-4.0737044E-2,6.2198263E-2,8.195624E-3,3.1879104E-3,2.994074E-2,-5.959199E-2,8.574024E-4,1.3531168E-2,8.164906E-3,-4.0630568E-2,6.92054E-4,7.3373015E-3,-8.177313E-3,3.3075612E-3,-6.852995E-3,2.2996182E-3,7.588753E-3,-9.968668E-4,4.2601298E-3,-4.0204675E-4,-3.1805148E-3,-9.630626E-3,-1.8971896E-3,4.2612907E-3,-8.97386E-3,1.5955685E-3],"categories":[],"categories_nodes":[],"categories_segments":[],"categories_sizes":[],"default_left":[0,0,0,0,0,0,0,0,0,0,0,0,0,0,0,0,0,0,0,0,0,0,0,0,0,0,0,0,0,0,0,0,0,0,0,0,0,0,0,0,0,0,0,0,0],"id":33,"left_children":[1,3,5,7,9,11,13,-1,15,17,19,21,23,25,27,-1,-1,29,31,33,35,-1,-1,37,39,-1,-1,41,43,-1,-1,-1,-1,-1,-1,-1,-1,-1,-1,-1,-1,-1,-1,-1,-1],"loss_changes":[2.1270188E-2,4.684741E-2,4.3405164E-2,1.7543059E-2,3.5354376E-2,4.9650364E-2,7.982717E-2,0E0,4.501879E-3,3.112404E-2,4.940315E-2,5.1259995E-4,2.5728062E-2,1.148852E-2,4.4073462E-2,0E0,0E0,2.0045668E-2,1.9073917E-2,2.637457E-2,7.6718815E-3,0E0,0E0,1.891149E-3,2.6521996E-2,0E0,0E0,7.652794E-2,6.812398E-2,0E0,0E0,0E0,0E0,0E0,0E0,0E0,0E0,0E0,0E0,0E0,0E0,0E0,0E0,0E0,0E0],"parents":[2147483647,0,0,1,1,2,2,3,3,4,4,5,5,6,6,8,8,9,9,10,10,11,11,12,12,13,13,14,14,17,17,18,18,19,19,20,20,23,23,24,24,27,27,28,28],"right_children":[2,4,6,8,10,12,14,-1,16,18,20,22,24,26,28,-1,-1,30,32,34,36,-1,-1,38,40,-1,-1,42,44,-1,-1,-1,-1,-1,-1,-1,-1,-1,-1,-1,-1,-1,-1,-1,-1],"split_conditions":[2.8407344E-1,1.0966777E-1,2.4992692E-1,3.6453444E-1,5.6303865E-1,1.8181872E-1,2.9243627E-1,1.7842035E-3,5.3620815E-1,8.7586516E-1,9.3168277E-1,2.6603696E-1,1.0925953E-1,8.895332E-2,7.854934E-1,-9.536903E-3,-1.0109469E-3,1.10797435E-1,2.8857183E-1,9.054516E-1,8.827111E-1,8.195624E-3,3.1879104E-3,8.262726E-1,6.821773E-1,8.574024E-4,1.3531168E-2,5.478658E-1,4.732612E-1,6.92054E-4,7.3373015E-3,-8.177313E-3,3.3075612E-3,-6.852995E-3,2.2996182E-3,7.588753E-3,-9.968668E-4,4.2601298E-3,-4.0204675E-4,-3.1805148E-3,-9.630626E-3,-1.8971896E-3,4.2612907E-3,-8.97386E-3,1.5955685E-3],"split_indices":[2,1,8,6,5,1,8,0,0,7,5,3,6,0,0,0,0,3,0,0,0,0,0,0,1,0,0,9,7,0,0,0,0,0,0,0,0,0,0,0,0,0,0,0,0],"split_type":[0,0,0,0,0,0,0,0,0,0,0,0,0,0,0,0,0,0,0,0,0,0,0,0,0,0,0,0,0,0,0,0,0,0,0,0,0,0,0,0,0,0,0,0,0],"sum_hessian":[2E2,5.7E1,1.43E2,7E0,5E1,3.5E1,1.08E2,2E0,5E0,3.1E1,1.9E1,4E0,3.1E1,5E0,1.03E2,4E0,1E0,2.7E1,4E0,1.3E1,6E0,1E0,3E0,3E0,2.8E1,1E0,4E0,8E1,2.3E1,6E0,2.1E1,2E0,2E0,9E0,4E0,5E0,1E0,2E0,1E0,1.7E1,1.1E1,4.5E1,3.5E1,1.2E1,1.1E1],"tree_param":{"num_deleted":"0","num_feature":"10","num_nodes":"45","size_leaf_vector":"1"}},{"base_weights":[4.5663535E-5,5.8724243E-2,-1.7508526E-3,1.083901E-2,2.7113056E-2,-2.43964E-2,4.583624E-3,3.2556595E-3,2.6694537E-4,1.4061407E-2,-4.3447115E-2,7.951848E-2,-6.704257E-5,2.4264047E-2,-6.438778E-3,3.5144147E-2,-6.1284635E-2,-2.20145E-2,1.1167283E-1,-3.9588153E-2,7.644939E-3,-8.033453E-4,5.7709184E-3,-2.8498743E-3,1.0828662E-2,2.7911186E-3,-7.5356E-3,8.1453176E-4,-4.116707E-3,3.777051E-3,1.3367966E-2,-5.822229E-3,4.957911E-4,2.6363563E-3,-2.0211523E-3],"categories":[],"categories_nodes":[],"categories_segments":[],"categories_sizes":[],"default_left":[0,0,0,0,0,0,0,0,0,0,0,0,0,0,0,0,0,0,0,0,0,0,0,0,0,0,0,0,0,0,0,0,0,0,0],"id":34,"left_children":[1,3,5,-1,7,9,11,-1,-1,13,15,17,19,21,-1,23,25,27,29,31,33,-1,-1,-1,-1,-1,-1,-1,-1,-1,-1,-1,-1,-1,-1],"loss_changes":[2.1291638E-2,6.481193E-3,2.8227573E-2,0E0,5.7839043E-4,3.211482E-2,5.3673875E-2,0E0,0E0,1.356814E-2,4.280812E-2,3.184097E-2,4.4801414E-2,1.5586325E-2,0E0,3.1016024E-2,3.2225847E-2,2.0682327E-3,6.3353404E-3,2.021052E-2,6.466931E-2,0E0,0E0,0E0,0E0,0E0,0E0,0E0,0E0,0E0,0E0,0E0,0E0,0E0,0E0],"parents":[2147483647,0,0,1,1,2,2,4,4,5,5,6,6,9,9,10,10,11,11,12,12,13,13,15,15,16,16,17,17,18,18,19,19,20,20],"right_children":[2,4,6,-1,8,10,12,-1,-1,14,16,18,20,22,-1,24,26,28,30,32,34,-1,-1,-1,-1,-1,-1,-1,-1,-1,-1,-1,-1,-1,-1],"split_conditions":[9.78332E-3,1.14427984E-1,2.3344819E-1,1.083901E-2,7.3643094E-1,3.33892E-1,2.9243627E-1,3.2556595E-3,2.6694537E-4,9.0015966E-1,2.8407344E-1,9.172936E-2,1.7491193E-1,4.2855915E-1,-6.438778E-3,5.239867E-1,1.0925953E-1,8.895332E-2,2.2472306E-1,4.9864843E-1,5.955447E-1,-8.033453E-4,5.7709184E-3,-2.8498743E-3,1.0828662E-2,2.7911186E-3,-7.5356E-3,8.1453176E-4,-4.116707E-3,3.777051E-3,1.3367966E-2,-5.822229E-3,4.957911E-4,2.6363563E-3,-2.0211523E-3],"split_indices":[8,1,8,0,1,1,8,0,0,2,2,0,1,2,0,6,6,0,5,5,5,0,0,0,0,0,0,0,0,0,0,0,0,0,0],"split_type":[0,0,0,0,0,0,0,0,0,0,0,0,0,0,0,0,0,0,0,0,0,0,0,0,0,0,0,0,0,0,0,0,0,0,0],"sum_hessian":[2E2,5E0,1.95E2,1E0,4E0,4.2E1,1.53E2,3E0,1E0,1.4E1,2.8E1,8E0,1.45E2,1.3E1,1E0,5E0,2.3E1,2E0,6E0,2.3E1,1.22E2,7E0,6E0,3E0,2E0,3E0,2E1,1E0,1E0,2E0,4E0,1.6E1,7E0,7.3E1,4.9E1],"tree_param":{"num_deleted":"0","num_feature":"10","num_nodes":"35","size_leaf_vector":"1"}},{"base_weights":[1.6674756E-4,5.1463924E-2,-1.6755447E-3,7.4727833E-3,1.53340325E-2,-3.5224736E-2,1.5200521E-3,2.3922047E-3,-5.215004E-4,-8.9470014E-2,1.1693957E-2,1.1858568E-2,-1.8673446E-2,4.876119E-3,-1.16183214E-1,6.1433925E-3,-1.8399447E-2,-4.4262577E-2,1.9762935E-2,1.5740873E-2,-4.646543E-2,-5.147773E-3,-1.3176987E-2,5.003044E-3,-3.8142835E-3,-6.256277E-3,4.850358E-4,1.2326525E-2,1.3355168E-3,3.0732432E-3,-5.9366785E-3,-5.828993E-3,5.679077E-3],"categories":[],"categories_nodes":[],"categories_segments":[],"categories_sizes":[],"default_left":[0,0,0,0,0,0,0,0,0,0,0,0,0,0,0,0,0,0,0,0,0,0,0,0,0,0,0,0,0,0,0,0,0],"id":35,"left_children":[1,3,5,-1,7,9,11,-1,-1,13,15,17,19,-1,21,-1,23,25,27,29,31,-1,-1,-1,-1,-1,-1,-1,-1,-1,-1,-1,-1],"loss_changes":[1.9081611E-2,4.7377795E-3,2.0959431E-2,0E0,8.306552E-4,4.431326E-2,3.7591413E-2,0E0,0E0,3.5206005E-2,1.60988E-2,5.3663418E-2,5.9074387E-2,0E0,2.76573E-4,0E0,1.1365568E-2,1.3785096E-2,6.799175E-2,3.3351954E-2,4.4822723E-2,0E0,0E0,0E0,0E0,0E0,0E0,0E0,0E0,0E0,0E0,0E0,0E0],"parents":[2147483647,0,0,1,1,2,2,4,4,5,5,6,6,9,9,10,10,11,11,12,12,14,14,16,16,17,17,18,18,19,19,20,20],"right_children":[2,4,6,-1,8,10,12,-1,-1,14,16,18,20,-1,22,-1,24,26,28,30,32,-1,-1,-1,-1,-1,-1,-1,-1,-1,-1,-1,-1],"split_conditions":[4.5555573E-2,2.981472E-1,9.792376E-2,7.4727833E-3,4.6727097E-1,3.9123073E-1,6.971216E-1,2.3922047E-3,-5.215004E-4,2.2244468E-1,3.9214754E-1,1.4297254E-1,4.3369645E-1,4.876119E-3,1.2992772E-1,6.1433925E-3,4.7158E-1,7.491638E-1,1.8152495E-1,6.27099E-1,9.354918E-1,-5.147773E-3,-1.3176987E-2,5.003044E-3,-3.8142835E-3,-6.256277E-3,4.850358E-4,1.2326525E-2,1.3355168E-3,3.0732432E-3,-5.9366785E-3,-5.828993E-3,5.679077E-3],"split_indices":[6,4,5,0,0,3,3,0,0,2,8,2,1,0,3,0,3,0,2,5,5,0,0,0,0,0,0,0,0,0,0,0,0],"split_type":[0,0,0,0,0,0,0,0,0,0,0,0,0,0,0,0,0,0,0,0,0,0,0,0,0,0,0,0,0,0,0,0,0],"sum_hessian":[2E2,6E0,1.94E2,3E0,3E0,1.6E1,1.78E2,2E0,1E0,7E0,9E0,1.18E2,6E1,1E0,6E0,3E0,6E0,1.4E1,1.04E2,2.7E1,3.3E1,2E0,4E0,1E0,5E0,1E1,4E0,5E0,9.9E1,2.3E1,4E0,3E1,3E0],"tree_param":{"num_deleted":"0","num_feature":"10","num_nodes":"33","size_leaf_vector":"1"}},{"base_weights":[1.9039707E-4,-1.6919959E-3,4.5814626E-2,4.1926606E-3,-2.1848612E-2,4.9868744E-2,8.7178947E-4,-1.3070789E-2,1.7750995E-2,-4.4379503E-2,3.5292704E-2,1.4641911E-3,5.3299568E-3,4.8995647E-4,-5.632629E-2,5.9862856E-2,2.0103682E-4,-6.734216E-3,-9.2299566E-2,6.6266075E-2,-5.0963905E-2,2.8623075E-3,-3.3524644E-3,2.905784E-3,-7.059958E-3,9.195635E-3,2.316453E-3,-4.6761357E-3,1.6531412E-3,4.2256742E-4,-3.8267043E-3,-1.1888321E-2,-2.0672397E-3,1.2920106E-2,2.0836648E-3,-6.604592E-3,-2.8589368E-4],"categories":[],"categories_nodes":[],"categories_segments":[],"categories_sizes":[],"default_left":[0,0,0,0,0,0,0,0,0,0,0,0,0,0,0,0,0,0,0,0,0,0,0,0,0,0,0,0,0,0,0,0,0,0,0,0,0],"id":36,"left_children":[1,3,5,7,9,11,-1,13,15,17,19,-1,-1,21,23,25,27,29,31,33,35,-1,-1,-1,-1,-1,-1,-1,-1,-1,-1,-1,-1,-1,-1,-1,-1],"loss_changes":[1.7339945E-2,2.3102868E-2,7.684063E-4,3.557563E-2,5.8213837E-2,6.5591186E-5,0E0,3.9328244E-2,6.280818E-2,5.7105303E-2,3.8108733E-2,0E0,0E0,5.072029E-2,2.1550875E-2,2.731432E-2,4.7554754E-2,6.7280345E-3,2.419994E-2,2.5898881E-2,2.7132565E-3,0E0,0E0,0E0,0E0,0E0,0E0,0E0,0E0,0E0,0E0,0E0,0E0,0E0,0E0,0E0,0E0],"parents":[2147483647,0,0,1,1,2,2,3,3,4,4,5,5,7,7,8,8,9,9,10,10,13,13,14,14,15,15,16,16,17,17,18,18,19,19,20,20],"right_children":[2,4,6,8,10,12,-1,14,16,18,20,-1,-1,22,24,26,28,30,32,34,36,-1,-1,-1,-1,-1,-1,-1,-1,-1,-1,-1,-1,-1,-1,-1,-1],"split_conditions":[9.424881E-1,7.854934E-1,9.174485E-1,5.514997E-1,6.64063E-1,9.4447017E-1,8.7178947E-4,3.6453444E-1,6.858295E-1,5.971034E-1,4.6645713E-1,1.4641911E-3,5.3299568E-3,4.3369645E-1,1.6624445E-1,4.7370017E-1,3.4119406E-1,6.43468E-1,7.8011113E-1,3.823959E-1,8.927676E-1,2.8623075E-3,-3.3524644E-3,2.905784E-3,-7.059958E-3,9.195635E-3,2.316453E-3,-4.6761357E-3,1.6531412E-3,4.2256742E-4,-3.8267043E-3,-1.1888321E-2,-2.0672397E-3,1.2920106E-2,2.0836648E-3,-6.604592E-3,-2.8589368E-4],"split_indices":[0,0,2,6,7,0,0,6,6,6,4,0,0,1,4,7,8,8,6,8,0,0,0,0,0,0,0,0,0,0,0,0,0,0,0,0,0],"split_type":[0,0,0,0,0,0,0,0,0,0,0,0,0,0,0,0,0,0,0,0,0,0,0,0,0,0,0,0,0,0,0,0,0,0,0,0,0],"sum_hessian":[2E2,1.93E2,7E0,1.5E2,4.3E1,6E0,1E0,6.6E1,8.4E1,3.1E1,1.2E1,1E0,5E0,5.1E1,1.5E1,2.4E1,6E1,1.8E1,1.3E1,9E0,3E0,2.8E1,2.3E1,2E0,1.3E1,1.2E1,1.2E1,1.5E1,4.5E1,1.4E1,4E0,9E0,4E0,3E0,6E0,2E0,1E0],"tree_param":{"num_deleted":"0","num_feature":"10","num_nodes":"37","size_leaf_vector":"1"}},{"base_weights":[1.8262159E-4,1.3254381E-3,-7.5685084E-3,-8.887287E-5,9.375672E-3,8.202109E-4,-8.913465E-3,7.3679406E-3,-1.31197255E-2,-2.823806E-3,1.579352E-3,-4.3696514E-4,-8.249608E-3],"categories":[],"categories_nodes":[],"categories_segments":[],"categories_sizes":[],"default_left":[0,0,0,0,0,0,0,0,0,0,0,0,0],"id":37,"left_children":[1,3,-1,5,-1,7,-1,9,11,-1,-1,-1,-1],"loss_changes":[1.7527591E-2,2.602292E-2,0E0,1.6020274E-2,0E0,1.798655E-2,0E0,4.064613E-2,3.7883557E-2,0E0,0E0,0E0,0E0],"parents":[2147483647,0,0,1,1,3,3,5,5,7,7,8,8],"right_children":[2,4,-1,6,-1,8,-1,10,12,-1,-1,-1,-1],"split_conditions":[9.9819875E-1,9.938297E-1,-7.5685084E-3,9.860612E-1,9.375672E-3,6.5697974E-1,-8.913465E-3,1.3157043E-1,8.368233E-1,-2.823806E-3,1.579352E-3,-4.3696514E-4,-8.249608E-3],"split_indices":[6,6,0,5,0,8,0,0,4,0,0,0,0],"split_type":[0,0,0,0,0,0,0,0,0,0,0,0,0],"sum_hessian":[2E2,1.98E2,2E0,1.96E2,2E0,1.95E2,1E0,1.33E2,6.2E1,2.5E1,1.08E2,5.6E1,6E0],"tree_param":{"num_deleted":"0","num_feature":"10","num_nodes":"13","size_leaf_vector":"1"}},{"base_weights":[7.959896E-5,4.605689E-2,-1.571276E-3,1.8409032E-2,7.678435E-3,-3.154397E-2,1.2840707E-3,2.5988892E-3,-5.955204E-4,-8.0169015E-2,1.0510463E-2,3.6588594E-2,-3.6398764E-3,4.410228E-3,-1.0422238E-2,-5.00428E-3,3.1904127E-2,1.0641692E-1,-3.092416E-3,-7.886888E-2,-1.5143614E-4,-4.5102657E-4,6.944609E-3,4.0742694E-3,1.2151788E-2,-6.1966483E-3,4.304213E-3,-8.8293115E-3,-1.1161745E-3,-2.0394695E-3,7.01566E-4],"categories":[],"categories_nodes":[],"categories_segments":[],"categories_sizes":[],"default_left":[0,0,0,0,0,0,0,0,0,0,0,0,0,0,0,0,0,0,0,0,0,0,0,0,0,0,0,0,0,0,0],"id":38,"left_children":[1,3,5,7,-1,9,11,-1,-1,13,15,17,19,-1,-1,-1,21,23,25,27,29,-1,-1,-1,-1,-1,-1,-1,-1,-1,-1],"loss_changes":[1.5328822E-2,4.533316E-3,1.6729077E-2,1.0781565E-3,0E0,3.560589E-2,3.1250108E-2,0E0,0E0,2.8509598E-2,1.4551132E-2,6.128797E-2,4.145229E-2,0E0,0E0,0E0,1.1249761E-2,2.9829815E-3,4.3409087E-2,3.4811124E-3,2.2196064E-2,0E0,0E0,0E0,0E0,0E0,0E0,0E0,0E0,0E0,0E0],"parents":[2147483647,0,0,1,1,2,2,3,3,5,5,6,6,9,9,10,10,11,11,12,12,16,16,17,17,18,18,19,19,20,20],"right_children":[2,4,6,8,-1,10,12,-1,-1,14,16,18,20,-1,-1,-1,22,24,26,28,30,-1,-1,-1,-1,-1,-1,-1,-1,-1,-1],"split_conditions":[4.5555573E-2,7.908225E-1,9.792376E-2,4.6727097E-1,7.678435E-3,3.9123073E-1,2.0052224E-1,2.5988892E-3,-5.955204E-4,2.2244468E-1,1.9535811E-1,3.788492E-1,2.2367018E-1,4.410228E-3,-1.0422238E-2,-5.00428E-3,4.1589126E-1,3.6743876E-1,1.5443525E-1,8.401824E-1,1.8781804E-1,-4.5102657E-4,6.944609E-3,4.0742694E-3,1.2151788E-2,-6.1966483E-3,4.304213E-3,-8.8293115E-3,-1.1161745E-3,-2.0394695E-3,7.01566E-4],"split_indices":[6,8,5,0,0,3,5,0,0,2,2,3,5,0,0,0,4,4,5,4,3,0,0,0,0,0,0,0,0,0,0],"split_type":[0,0,0,0,0,0,0,0,0,0,0,0,0,0,0,0,0,0,0,0,0,0,0,0,0,0,0,0,0,0,0],"sum_hessian":[2E2,6E0,1.94E2,4E0,2E0,1.6E1,1.78E2,3E0,1E0,7E0,9E0,2.1E1,1.57E2,1E0,6E0,2E0,7E0,7E0,1.4E1,6E0,1.51E2,4E0,3E0,2E0,5E0,6E0,8E0,5E0,1E0,3.9E1,1.12E2],"tree_param":{"num_deleted":"0","num_feature":"10","num_nodes":"31","size_leaf_vector":"1"}},{"base_weights":[1.1248809E-4,-7.667787E-4,8.798293E-3,2.5941879E-3,-3.1145187E-2,-1.6380424E-2,8.992996E-3,4.4822292E-3,-4.718782E-2,-6.741461E-2,1.5850242E-3,2.178265E-2,-1.3440861E-2,-1.2046109E-2,-2.2882042E-2,-7.828234E-3,-8.7173184E-4,2.3341046E-3,-4.800457E-3,4.140165E-3,-1.499366E-3,-6.507025E-3,1.0932427E-4,-4.948503E-3,1.0790235E-3],"categories":[],"categories_nodes":[],"categories_segments":[],"categories_sizes":[],"default_left":[0,0,0,0,0,0,0,0,0,0,0,0,0,0,0,0,0,0,0,0,0,0,0,0,0],"id":39,"left_children":[1,3,-1,5,7,9,11,-1,13,15,17,19,21,-1,23,-1,-1,-1,-1,-1,-1,-1,-1,-1,-1],"loss_changes":[1.5597036E-2,2.050096E-2,0E0,2.2123404E-2,2.6489433E-2,4.228205E-2,3.9314073E-2,0E0,2.7519982E-2,6.972462E-3,3.8881004E-2,6.339252E-2,3.759048E-2,0E0,1.3074918E-2,0E0,0E0,0E0,0E0,0E0,0E0,0E0,0E0,0E0,0E0],"parents":[2147483647,0,0,1,1,3,3,4,4,5,5,6,6,8,8,9,9,10,10,11,11,12,12,14,14],"right_children":[2,4,-1,6,8,10,12,-1,14,16,18,20,22,-1,24,-1,-1,-1,-1,-1,-1,-1,-1,-1,-1],"split_conditions":[9.935287E-1,8.879834E-1,8.798293E-3,1.8781804E-1,2.4336632E-1,2.8073063E-1,6.659565E-1,4.4822292E-3,3.246022E-1,7.077552E-1,1.19970866E-1,7.713737E-1,3.7172195E-1,-1.2046109E-2,7.266562E-1,-7.828234E-3,-8.7173184E-4,2.3341046E-3,-4.800457E-3,4.140165E-3,-1.499366E-3,-6.507025E-3,1.0932427E-4,-4.948503E-3,1.0790235E-3],"split_indices":[9,9,0,3,6,9,0,0,4,4,3,3,3,0,6,0,0,0,0,0,0,0,0,0,0],"split_type":[0,0,0,0,0,0,0,0,0,0,0,0,0,0,0,0,0,0,0,0,0,0,0,0,0],"sum_hessian":[2E2,1.99E2,1E0,1.8E2,1.9E1,4.5E1,1.35E2,3E0,1.6E1,1.1E1,3.4E1,8.6E1,4.9E1,3E0,1.3E1,9E0,2E0,2.4E1,1E1,5.6E1,3E1,1E1,3.9E1,7E0,6E0],"tree_param":{"num_deleted":"0","num_feature":"10","num_nodes":"25","size_leaf_vector":"1"}},{"base_weights":[1.3888734E-5,1.523752E-3,-4.9310625E-2,-6.2775007E-4,5.9703983E-2,-8.6768866E-2,1.7070571E-2,5.364197E-3,-1.7512485E-2,9.560767E-3,-2.0036807E-2,-9.798861E-3,-2.6554826E-3,2.810639E-3,-2.5005342E-4,-4.1466236E-2,1.0444367E-2,-6.6120654E-2,-2.1070864E-3,-3.6144094E-3,6.088883E-4,4.894446E-3,-7.05732E-3,-6.4835016E-4,2.5476068E-3,-8.378829E-3,1.481169E-3,2.8569042E-3,-2.710996E-3],"categories":[],"categories_nodes":[],"categories_segments":[],"categories_sizes":[],"default_left":[0,0,0,0,0,0,0,0,0,0,0,0,0,0,0,0,0,0,0,0,0,0,0,0,0,0,0,0,0],"id":40,"left_children":[1,3,5,7,9,11,13,15,17,-1,19,-1,-1,-1,-1,21,23,25,27,-1,-1,-1,-1,-1,-1,-1,-1,-1,-1],"loss_changes":[1.50442645E-2,2.4571758E-2,1.640033E-2,1.9316701E-2,2.1956585E-2,1.0027364E-4,7.1823056E-4,3.397792E-2,3.7302088E-2,0E0,1.4825187E-3,0E0,0E0,0E0,0E0,4.0296294E-2,3.273537E-2,1.8399648E-2,3.0687166E-2,0E0,0E0,0E0,0E0,0E0,0E0,0E0,0E0,0E0,0E0],"parents":[2147483647,0,0,1,1,2,2,3,3,4,4,5,5,6,6,7,7,8,8,10,10,15,15,16,16,17,17,18,18],"right_children":[2,4,6,8,10,12,14,16,18,-1,20,-1,-1,-1,-1,22,24,26,28,-1,-1,-1,-1,-1,-1,-1,-1,-1,-1],"split_conditions":[9.6961844E-1,9.4994277E-1,9.9123317E-1,7.713737E-1,7.4184304E-1,5.804891E-1,2.1673825E-1,9.792376E-2,8.100196E-1,9.560767E-3,7.491638E-1,-9.798861E-3,-2.6554826E-3,2.810639E-3,-2.5005342E-4,2.4336632E-1,4.5062703E-1,9.1509366E-1,4.3369645E-1,-3.6144094E-3,6.088883E-4,4.894446E-3,-7.05732E-3,-6.4835016E-4,2.5476068E-3,-8.378829E-3,1.481169E-3,2.8569042E-3,-2.710996E-3],"split_indices":[1,1,1,3,0,2,0,5,3,0,0,0,0,0,0,6,2,9,1,0,0,0,0,0,0,0,0,0,0],"split_type":[0,0,0,0,0,0,0,0,0,0,0,0,0,0,0,0,0,0,0,0,0,0,0,0,0,0,0,0,0],"sum_hessian":[2E2,1.95E2,5E0,1.89E2,6E0,3E0,2E0,1.4E2,4.9E1,4E0,2E0,2E0,1E0,1E0,1E0,1.3E1,1.27E2,1.1E1,3.8E1,1E0,1E0,3E0,1E1,6E1,6.7E1,9E0,2E0,1.7E1,2.1E1],"tree_param":{"num_deleted":"0","num_feature":"10","num_nodes":"29","size_leaf_vector":"1"}},{"base_weights":[-3.901072E-5,7.912841E-4,-8.304899E-3,-6.676308E-3,1.0371359E-2,-8.716343E-4,-5.5459674E-2,2.1680241E-2,-1.8994236E-2,-5.2241134E-3,5.8944024E-2,-1.1735892E-2,-3.1343937E-2,-7.1082124E-3,4.1564666E-2,2.331993E-2,-4.8758343E-2,6.909031E-3,-8.364259E-4,9.402083E-3,-1.9165328E-3,1.2904853E-3,-5.215125E-3,-4.680415E-3,4.641206E-3,5.201405E-3,-6.025862E-3,-2.0014092E-3,6.27673E-3,2.2292652E-3,-6.8378816E-3],"categories":[],"categories_nodes":[],"categories_segments":[],"categories_sizes":[],"default_left":[0,0,0,0,0,0,0,0,0,0,0,0,0,0,0,0,0,0,0,0,0,0,0,0,0,0,0,0,0,0,0],"id":41,"left_children":[1,3,-1,5,7,9,11,13,15,17,19,-1,21,23,25,27,29,-1,-1,-1,-1,-1,-1,-1,-1,-1,-1,-1,-1,-1,-1],"loss_changes":[1.3919188E-2,1.4377261E-2,0E0,3.195004E-2,2.9635902E-2,2.6863264E-2,1.4234457E-2,3.6931723E-2,3.2623123E-2,2.2980269E-2,2.0980725E-2,0E0,9.87999E-3,5.953479E-2,4.356595E-2,2.0059777E-2,2.2435151E-2,0E0,0E0,0E0,0E0,0E0,0E0,0E0,0E0,0E0,0E0,0E0,0E0,0E0,0E0],"parents":[2147483647,0,0,1,1,3,3,4,4,5,5,6,6,7,7,8,8,9,9,10,10,12,12,13,13,14,14,15,15,16,16],"right_children":[2,4,-1,6,8,10,12,14,16,18,20,-1,22,24,26,28,30,-1,-1,-1,-1,-1,-1,-1,-1,-1,-1,-1,-1,-1,-1],"split_conditions":[9.860612E-1,5.5307E-1,-8.304899E-3,5.049593E-1,7.5962484E-1,8.8875455E-1,5.0918347E-1,2.0694707E-1,3.129329E-1,9.78332E-3,3.9206845E-1,-1.1735892E-2,2.8407344E-1,5.794717E-1,9.1783476E-1,1.3494226E-1,3.33892E-1,6.909031E-3,-8.364259E-4,9.402083E-3,-1.9165328E-3,1.2904853E-3,-5.215125E-3,-4.680415E-3,4.641206E-3,5.201405E-3,-6.025862E-3,-2.0014092E-3,6.27673E-3,2.2292652E-3,-6.8378816E-3],"split_indices":[5,7,0,7,3,8,7,3,9,8,0,0,2,9,8,9,1,0,0,0,0,0,0,0,0,0,0,0,0,0,0],"split_type":[0,0,0,0,0,0,0,0,0,0,0,0,0,0,0,0,0,0,0,0,0,0,0,0,0,0,0,0,0,0,0],"sum_hessian":[2E2,1.99E2,1E0,1.12E2,8.7E1,1.01E2,1.1E1,6.3E1,2.4E1,9.5E1,6E0,2E0,9E0,2.6E1,3.7E1,1E1,1.4E1,3E0,9.2E1,4E0,2E0,3E0,6E0,1.5E1,1.1E1,3.4E1,3E0,5E0,5E0,3E0,1.1E1],"tree_param":{"num_deleted":"0","num_feature":"10","num_nodes":"31","size_leaf_vector":"1"}},{"base_weights":[-9.2841314E-5,-1.1103175E-3,6.74307E-2,2.0566485E-3,-3.12214E-2,8.272818E-3,1.8417866E-3,-1.4874914E-2,7.768378E-3,-5.673072E-2,3.425705E-3,-5.9676576E-2,9.106538E-4,4.1353796E-2,9.2422945E-4,2.3417195E-2,-7.714328E-2,2.6762884E-2,-2.0596616E-2,-6.8935715E-3,-8.9206E-4,2.0005973E-3,-4.2570583E-3,7.709476E-4,1.0347321E-2,1.2630521E-3,-1.7306096E-3,3.762707E-3,-2.5012792E-4,-9.723867E-3,-4.539589E-4,3.4327686E-3,-1.7481596E-4,1.472497E-3,-3.3108257E-3],"categories":[],"categories_nodes":[],"categories_segments":[],"categories_sizes":[],"default_left":[0,0,0,0,0,0,0,0,0,0,0,0,0,0,0,0,0,0,0,0,0,0,0,0,0,0,0,0,0,0,0,0,0,0,0],"id":42,"left_children":[1,3,5,7,9,-1,-1,11,13,15,17,19,21,23,25,27,29,31,33,-1,-1,-1,-1,-1,-1,-1,-1,-1,-1,-1,-1,-1,-1,-1,-1],"loss_changes":[1.3884291E-2,1.9041004E-2,7.256437E-4,1.7619794E-2,1.6987003E-2,0E0,0E0,3.258645E-2,3.1223226E-2,1.9802742E-2,5.5967444E-3,5.02453E-3,2.9911749E-2,4.7271483E-2,2.4547268E-2,1.1990106E-3,1.2689579E-2,1.1384122E-3,2.6971726E-3,0E0,0E0,0E0,0E0,0E0,0E0,0E0,0E0,0E0,0E0,0E0,0E0,0E0,0E0,0E0,0E0],"parents":[2147483647,0,0,1,1,2,2,3,3,4,4,7,7,8,8,9,9,10,10,11,11,12,12,13,13,14,14,15,15,16,16,17,17,18,18],"right_children":[2,4,6,8,10,-1,-1,12,14,16,18,20,22,24,26,28,30,32,34,-1,-1,-1,-1,-1,-1,-1,-1,-1,-1,-1,-1,-1,-1,-1,-1],"split_conditions":[9.910301E-1,8.879834E-1,6.9846E-1,1.8781804E-1,9.4404274E-1,8.272818E-3,1.8417866E-3,2.8073063E-1,1.8195345E-1,1.2043424E-1,8.1632316E-1,7.077552E-1,1.19970866E-1,1.3729131E-1,6.441397E-1,3.0759537E-1,8.71945E-1,2.6418158E-1,6.7837305E-2,-6.8935715E-3,-8.9206E-4,2.0005973E-3,-4.2570583E-3,7.709476E-4,1.0347321E-2,1.2630521E-3,-1.7306096E-3,3.762707E-3,-2.5012792E-4,-9.723867E-3,-4.539589E-4,3.4327686E-3,-1.7481596E-4,1.472497E-3,-3.3108257E-3],"split_indices":[9,9,0,3,9,0,0,9,2,3,7,4,3,2,0,0,8,1,0,0,0,0,0,0,0,0,0,0,0,0,0,0,0,0,0],"split_type":[0,0,0,0,0,0,0,0,0,0,0,0,0,0,0,0,0,0,0,0,0,0,0,0,0,0,0,0,0,0,0,0,0,0,0],"sum_hessian":[2E2,1.98E2,2E0,1.8E2,1.8E1,1E0,1E0,4.5E1,1.35E2,1E1,8E0,1.1E1,3.4E1,2.2E1,1.13E2,2E0,8E0,4E0,4E0,9E0,2E0,2.4E1,1E1,1.5E1,7E0,6.9E1,4.4E1,1E0,1E0,6E0,2E0,3E0,1E0,1E0,3E0],"tree_param":{"num_deleted":"0","num_feature":"10","num_nodes":"35","size_leaf_vector":"1"}},{"base_weights":[-5.6293473E-5,1.3237656E-3,-4.512884E-2,-3.932035E-3,2.0688655E-2,-7.8133285E-2,1.3920029E-2,3.7680904E-3,-2.6931591E-2,-6.3629985E-2,3.650926E-2,-9.074256E-3,-2.0152738E-3,2.6487769E-3,-5.6077243E-4,-1.2545694E-2,1.8950347E-2,-3.700934E-2,4.8998974E-2,-1.2711678E-3,-1.100813E-2,-1.0387145E-2,5.7559166E-2,-1.6294447E-3,9.869221E-3,-8.695436E-4,5.4085604E-3,-2.1246E-3,-8.018721E-3,7.67648E-3,4.9001526E-4,1.727444E-3,-1.3211183E-3,-4.0061483E-3,5.8976896E-3,9.226038E-3,2.8274327E-3],"categories":[],"categories_nodes":[],"categories_segments":[],"categories_sizes":[],"default_left":[0,0,0,0,0,0,0,0,0,0,0,0,0,0,0,0,0,0,0,0,0,0,0,0,0,0,0,0,0,0,0,0,0,0,0,0,0],"id":43,"left_children":[1,3,5,7,9,11,13,15,17,19,21,-1,-1,-1,-1,23,25,27,29,31,-1,33,35,-1,-1,-1,-1,-1,-1,-1,-1,-1,-1,-1,-1,-1,-1],"loss_changes":[1.2562499E-2,2.0029837E-2,1.27808675E-2,2.7551895E-2,5.8349907E-2,1.0956582E-3,8.847952E-4,2.921631E-2,3.165658E-2,2.0136613E-2,3.613581E-2,0E0,0E0,0E0,0E0,2.5377322E-2,5.9722144E-2,2.21183E-2,5.7460424E-3,1.113955E-3,0E0,2.7062684E-2,2.2796892E-2,0E0,0E0,0E0,0E0,0E0,0E0,0E0,0E0,0E0,0E0,0E0,0E0,0E0,0E0],"parents":[2147483647,0,0,1,1,2,2,3,3,4,4,5,5,6,6,7,7,8,8,9,9,10,10,15,15,16,16,17,17,18,18,19,19,21,21,22,22],"right_children":[2,4,6,8,10,12,14,16,18,20,22,-1,-1,-1,-1,24,26,28,30,32,-1,34,36,-1,-1,-1,-1,-1,-1,-1,-1,-1,-1,-1,-1,-1,-1],"split_conditions":[9.6961844E-1,